#include "controller_koopman.h"

int structure[NUM_LAYERS][2] = {
    {NUM_INPUTS, NUM_NEURONS},
    {NUM_NEURONS, NUM_NEURONS},
    {NUM_NEURONS, NUM_OUTPUTS}
};

float residual_weight[NUM_INPUTS][nkoop] = {
    {0.757825, -0.152009, 0.0231816, -0.153048, 0.014034, 0.205112, 0.130461, 8.32732e-05, -0.0843528, 0.0248913, 0.416519, -0.386683, -0.000203833, -0.0501007, -0.362573, 0.0837862, -0.09507, 0.390646, -0.14987, -0.119141, -0.136483, -0.131535, 0.149412, 0.319571, 0.174008, -0.033023, -0.0794714, 0.0258711, 0.434669, 0.0193093, -0.221176, 0.174803, 0.0266175, -0.179943, -0.506733, -0.309176, -0.0108856, 0.43532, -0.162897, 0.261632},
    {-0.177995, 0.629285, 0.120382, 0.214023, -0.0833006, -0.157508, -0.398888, 0.0703861, -0.0880254, -0.373756, -0.109033, -0.450002, 0.241748, 0.265934, 0.181792, 0.11786, 0.249124, 0.507943, -0.089952, -0.10322, 0.314131, -0.0386476, -0.538834, -0.229248, -0.290528, 0.26668, -0.16146, 0.238315, -0.0498655, -0.202236, 0.455128, 0.154857, 0.0441591, 0.0891144, 0.215524, 0.0180516, -0.11078, 0.0386658, -0.147941, 0.0254582},
    {0.0526447, 0.031024, 0.916319, 0.075747, 0.0900757, 0.00768662, 0.242919, -0.287048, 0.027472, 0.471638, 0.192959, -0.204454, 0.332184, 0.0721865, 0.528424, 0.250167, -0.288233, -0.0202155, -0.0796642, 0.00797811, -0.0147089, -0.320715, -0.196054, -0.176536, -0.438466, 0.465584, 0.32022, -0.409607, 0.374714, -0.276003, -0.0612402, -0.247589, 0.231329, 0.0627049, -0.170967, 0.274675, -0.0792113, -0.426977, -0.183365, -0.267339},
    {-0.0805763, 0.206722, 0.144738, 0.551811, 0.0330342, 0.0882276, 0.0560019, -0.0871396, 0.0763684, 0.191371, -0.167278, -0.0729815, 0.316874, 0.35278, 0.00843037, 0.108063, 0.407506, -0.281665, -0.164425, 0.21411, -0.386015, 0.15323, 0.259833, -0.117978, -0.667202, -0.43074, -0.107574, 0.528643, -0.00384396, 0.200059, -0.0151141, 0.324937, 0.101931, -0.313404, -0.340838, 0.350523, 0.400124, 0.235862, 0.0769005, -0.390612},
    {-0.139164, 0.101056, 0.273751, 0.03681, 0.779069, -0.0225539, 0.0714089, -0.316477, 0.0348659, -0.00705368, -0.219376, -0.381982, 0.0944059, 0.0782718, 0.298428, 0.275695, -0.073656, 0.0756383, 0.229558, -0.119001, 0.112026, 0.412568, 0.292904, 0.286587, 0.0220942, 0.00837329, 0.288984, 0.315846, 0.088627, -0.0391722, 0.264408, -0.0113364, -0.181048, 0.00932536, 0.155246, 0.156242, 0.298507, 0.190466, -0.05028, -0.0928633},
    {-0.0534652, 0.0217834, 0.00157656, 0.141999, -0.0133229, 0.769277, -0.0166178, -0.14038, -0.0373418, 0.0191341, -0.023423, 0.0297468, -0.155551, -0.157286, -0.0259699, 0.0562518, -0.118671, -0.162266, -0.256916, -0.00815786, -0.0583391, -0.155635, 0.0506143, 0.219618, 0.065477, -0.150391, -0.0884232, -0.160164, 0.159201, -0.132537, -0.291102, 0.115756, 0.184716, -0.00474996, 0.0943462, -0.0102867, 0.136778, 0.273962, 0.0919686, 0.195679},
    {-0.0160797, -0.0728066, 0.0675878, 0.0127251, -0.00837863, 0.0322977, 0.773068, -0.0744711, 0.0537882, 0.370237, 0.0375952, -0.227166, -0.29902, 0.161439, -0.136423, 0.124482, -0.00795054, -0.275464, -0.14501, 0.111926, 0.167824, -0.129824, -0.0295063, 0.19022, -0.032128, -0.0729499, -0.0517119, 0.161833, -0.118796, 0.051696, 0.0727199, -0.0133081, -0.368751, -0.00108837, 0.0624051, -0.158613, -0.0336232, -0.0534363, 0.0375578, -0.155535},
    {-0.0880147, 0.0656839, 0.174484, 0.0916986, 0.0570558, -0.0177369, -0.163721, 0.683457, 0.113638, 0.0260959, 0.220106, -0.0445417, 0.0926953, -0.164858, -0.228357, -0.0539893, -0.201297, -0.0783836, -0.0919733, 0.127115, -0.118436, -0.0995747, 0.257496, -0.217569, -0.424521, 0.0684422, 0.0871042, -0.286157, -0.0614647, 0.0655712, 0.0889041, 0.179932, -0.147049, 0.00321398, 0.0374666, -0.221241, 0.00857262, 0.0428011, -0.0578511, 0.0474996},
    {-0.133725, -0.194138, 0.0284607, -0.00262685, -0.0541485, -0.0798961, -0.0537759, -0.0340908, 0.84548, 0.0627117, -0.0808102, 0.104368, 0.214746, -0.0475106, 0.142603, -0.0689022, 0.0212475, 0.0357564, 0.217749, -0.248879, 0.207378, 0.00556669, -0.0994311, 0.0999224, 0.136932, -0.0817213, 0.0906154, 0.0359304, 0.0861202, 0.000761951, 0.182903, -0.0280431, -0.0436879, 0.0531665, -0.0511824, -0.0862441, 0.146001, -0.102014, 0.261086, -0.400057},
};

float residual_bias[nkoop] = {-0.0391608, -0.108167, 0.19699, -0.18028, 0.308064, -0.155644, 0.248071, -0.0639324, -0.176063, -0.103859, -0.123965, -0.194949, 0.168427, -0.105668, 0.159859, 0.454008, 0.0479534, 0.150562, -0.0945574, 0.265001, 0.162211, 0.278659, 0.19697, -0.0255749, -0.118972, -0.080342, -0.130455, 0.229174, -0.183756, -0.202351, -0.0993135, -0.178983, 0.103911, 0.0588637, -0.0136456, -0.205066, 0.222438, 0.187416, -0.0177654, 0.0345072};

float layer_0_weight[NUM_INPUTS][NUM_NEURONS] = {
    {-0.33406, -0.918441, 0.137061, 0.0823065, -0.0709915, -0.562641, 0.752454, 0.132432, 0.492126, 0.282821, 0.443654, -0.620247, -0.0260439, -0.0367185, 0.0195881, -0.0736499, 0.496385, -0.235504, -0.0943676, -0.0829218, 0.0798355, 0.331519, -0.239037, -0.0358696, 0.0095372, 0.843186, 0.237005, -0.46084, 0.00913232, -0.443568, -0.0855262, 0.188037, 0.478389, -0.873461, -0.253176, 0.227863, 0.1294, 0.344865, -0.0572805, -0.147172, -0.51301, 0.149394, 0.295522, 0.0255566, 0.390976},
    {-0.00187615, -0.427918, 0.00350135, -0.260127, -0.101761, -0.14496, -0.723634, 0.523157, 0.13999, 0.397226, -0.187563, 0.712128, 0.62656, -0.30111, -0.565441, -0.123639, 0.028896, 0.318362, -0.0970007, 0.0397613, 0.349183, 0.490429, 0.0823618, -0.2551, 0.579271, -0.567906, 0.0223495, 0.0728891, 0.250669, 0.210988, 0.152384, -0.0476465, 0.440714, -0.519002, -0.235916, 0.0897283, 0.110427, 0.00870478, 0.0561353, -0.102562, 0.231352, 0.137176, 0.187981, -0.802992, -0.0997794},
    {0.189689, -0.0539395, -0.0724353, -0.156398, 0.295768, 0.161979, -0.186327, 0.344008, -0.51214, 0.20958, -0.0750649, -0.99974, -0.323419, 0.222489, 0.0760618, 0.297772, 0.125218, -0.56285, 0.179982, 0.344178, 0.411068, -0.05026, -0.315193, 0.0833572, -0.0235405, 0.748742, 0.15017, -0.110817, 0.520489, 0.0458802, 0.335541, 0.39682, -0.0225925, -0.0965022, 0.133066, -0.308771, -0.124117, -0.200988, -0.45611, -0.779967, -0.580991, 0.0337256, 0.230012, -0.0104482, 0.10181},
    {0.179067, -0.151372, -0.244844, -0.0200995, 0.300611, -0.0885159, 0.191071, 0.104014, -0.16309, 0.173445, 0.395646, -0.108381, 0.00251599, -0.0613055, 0.162433, 0.216438, 0.120737, 0.016424, 0.219466, 0.0931943, 0.064619, 0.280837, 0.420213, 0.10611, -0.278629, -0.247002, 0.276497, -0.0721483, 0.111936, -0.384544, 0.169673, -0.449959, 0.346375, -0.569334, 0.220118, -0.136003, 0.158097, -0.199681, 0.218795, 0.138526, 0.144597, -0.109543, 0.10458, 0.389036, -0.14453},
    {0.451676, -0.095757, 0.702581, -0.525743, -0.0374454, 0.0841195, 0.0268842, 0.0244909, 0.0852293, -0.202859, 0.323612, 0.11454, -0.108155, -0.52597, 0.0983585, -0.282391, -0.19116, -0.352664, -0.543744, -0.317273, 0.14681, 0.0496947, 0.368302, 0.336755, 0.191245, 0.207533, -0.431438, -0.147037, 0.479143, -0.783702, -0.326462, -0.357352, 0.287274, -0.234524, 0.440252, 0.205681, 0.337869, -0.474175, -0.511592, -0.0594866, -0.276915, -0.323567, 0.172548, -0.268976, 0.265362},
    {0.121501, -0.0650865, -0.146103, 0.443097, -0.111953, 0.0996368, -0.0140392, -0.229395, 0.0900232, -0.166786, 0.0702689, -0.0736067, 0.0205458, 0.262611, -0.0425843, 0.155974, -0.00344832, 0.0113277, 0.110121, 0.0393105, 0.412569, -0.0568357, -0.00104604, 0.167538, 0.328786, -0.0851271, -0.162932, 0.36701, -0.0201133, 0.00635651, -0.038959, -0.118408, -0.377071, 0.0704362, 0.541777, 0.0633506, -0.216185, -0.11832, -0.0446701, 0.0533799, 0.122581, -0.285813, -0.285848, -0.461262, 0.458919},
    {0.0769882, 0.0278707, 0.0900371, -0.0717793, 0.114347, -0.121614, -0.0427418, 0.293659, 0.0702445, -0.0473866, 0.220246, 0.0631279, 0.114558, 0.0970852, -0.213009, 0.049406, -0.0682009, -0.0595046, 0.323712, -0.236572, -0.212802, 0.0638504, 0.00796864, -0.11061, 0.0792684, -0.171199, -0.155451, -0.412082, -0.0892832, -0.116219, 0.376975, 0.0508173, -0.175766, -0.202978, -0.350868, -0.111983, 0.336953, -0.0731982, 0.0136622, 0.17645, 0.0148093, 0.194348, -0.0229758, -0.114247, -0.00563213},
    {0.274292, -0.0828497, 0.0871637, -0.357093, -0.317048, -0.035005, -0.0153137, -0.0315392, 0.0685642, 0.0247241, 0.210629, 0.143641, -0.229457, 0.190026, -0.0714632, 0.184826, -0.0437703, 0.206442, -0.0677422, -0.439217, -0.133901, -0.143992, 0.1097, -0.126441, 0.102776, -0.30578, -0.221949, -0.00960863, 0.0581207, -0.231732, 0.187775, -0.229174, -0.0399158, -0.035461, -0.219434, 0.261186, 0.0522736, -0.311218, 0.156529, -0.244516, 0.127331, 0.26762, -0.242393, -0.143244, 0.00606107},
    {-0.279769, 0.128678, -0.114445, -0.0651322, -0.21634, -0.173491, -0.0206603, 0.0304845, -0.122552, -0.0290959, 0.104557, 0.201985, -0.385979, 0.0251226, 0.0253922, 0.0823298, -0.167413, -0.1623, 0.190368, 0.20445, 0.179587, 0.005373, 0.114145, 0.0207744, 0.173856, 0.0368333, -0.0323205, 0.201315, -0.050494, -0.174383, -0.404252, -0.0571016, -0.222988, -0.109116, -0.0254217, 0.0739157, -0.260701, 0.29507, -0.0163584, 0.0916313, -0.193221, -0.00898285, 0.0888403, -0.246407, -0.0661502},
};

float layer_0_bias[NUM_NEURONS] = {-0.483091, -0.101847, 0.349364, -0.102747, -0.235528, 0.399559, 0.201938, -0.0779625, 0.238497, 0.0747701, -0.105168, 0.280111, -0.469857, -0.183451, -0.100413, 1.04007, -0.0155498, -0.529408, -0.174315, 0.081414, -0.101716, -0.198534, 0.653586, 0.173995, 0.0944099, 0.296288, 0.147786, 0.0879676, -0.00689981, 0.471844, -0.341264, -0.611074, 0.149395, 0.158557, -0.335721, 0.427523, 0.479456, 0.520884, 0.576776, 0.281486, 0.142636, 0.0149855, 0.0556173, -0.140407, -0.0527855};

float layer_1_weight[NUM_NEURONS][NUM_NEURONS] = {
    {0.263463, -0.0760366, 0.167842, 0.115545, -0.172145, 0.0954118, -0.250193, 0.410881, -0.427403, 0.124976, -0.0269615, 0.364324, -0.150629, -0.253396, -0.667938, -0.400623, -0.107148, -0.0456615, 0.0694885, 0.37049, -0.180853, -0.128733, 0.304212, -0.04709, 0.208989, 0.527087, 0.254156, 0.084874, -0.512861, 0.399746, -0.364715, 0.0909283, -0.323777, 0.0482862, -0.162281, -0.32998, -0.322015, 0.165406, 0.623201, -0.0974784, -0.417697, -0.326316, 0.286755, 0.154168, -0.0851938},
    {-0.00973602, 0.0733082, 0.204777, 0.0805252, 0.0897624, 0.0399911, 0.0783456, -0.0732373, 0.24204, 0.318723, -0.425445, -0.0422601, 0.0383234, 0.196664, -0.319142, -0.103036, -0.152466, 0.013274, -0.124007, -0.0218288, 0.182443, 0.427295, -0.00479837, 0.2092, 0.0645578, 0.0989787, 0.0908338, 0.108493, 0.0553311, 0.176758, 0.328459, 0.344578, 0.0782572, 0.0551203, -0.0125408, -0.0579917, -0.152544, -0.115211, 0.27103, 0.321376, -0.116221, 0.184683, -0.0575554, -0.249905, 0.133587},
    {-0.00441003, 0.301743, 0.00528532, -0.018857, -0.259458, 0.186702, 0.203505, 0.463374, 0.265866, -0.0735568, -1.04008, 0.216611, 0.127008, 0.45542, -0.223981, -0.0705112, 0.00485078, 0.0877083, 0.0404307, 0.319228, -0.0783044, 0.00377088, -0.135938, 0.154742, -0.268149, -0.495825, 0.607541, -0.164021, 0.0917262, -0.107428, 0.32519, -0.32431, -0.18144, 0.431596, 0.0448666, -0.271069, -0.232026, 0.124768, 0.172429, -0.605258, 0.0236846, 0.0676869, -0.22329, -0.211651, 0.14407},
    {-0.0842646, -0.124756, -0.0173589, 0.192292, -0.0903895, -0.145992, 0.176898, 0.184755, -0.156046, 0.1475, 0.233712, 0.0164079, -0.154317, -0.0705969, -0.108551, 0.162847, 0.133444, -0.100897, 0.213162, 0.0449294, -0.0867006, -0.0108004, -0.11293, 0.0505367, 0.0876601, 0.325937, -0.133394, -0.0720011, 0.275424, 0.210831, -0.0900964, 0.000132143, 0.0283857, 0.240993, -0.0379965, 0.123875, -0.0136838, 0.0918359, -0.129645, -0.108162, 0.108144, -0.128787, 0.175638, -0.246281, 0.132969},
    {-0.119285, -0.235289, 0.0337556, 0.238143, 0.0451921, 0.0519462, -0.0400562, 0.300631, -0.101783, 0.0854157, 0.0857437, -0.16312, -0.0264044, -0.10485, -0.13008, -0.11886, 0.0627481, -0.282571, -0.10306, 0.0581211, 0.258927, -0.0852828, 0.095421, 0.213997, -0.016895, 0.10476, -0.0633851, 0.0203525, -0.0260145, 0.0593513, 0.091145, -0.0943485, -0.0714028, 0.17291, 0.0329415, -0.0550197, 0.102078, 0.00466261, -0.102066, 0.100356, 0.112063, 0.18086, -0.0821142, -0.16775, 0.0735119},
    {-0.116677, 0.136415, -0.225393, 0.361519, 0.143539, 0.0944685, -0.12674, -0.00288166, 0.2222, -0.0190807, 0.259192, 0.0211836, 0.16512, -0.204033, 0.174205, -0.0142821, -0.0605324, 0.0643214, -0.374955, 0.0203011, 0.0819386, -0.0293509, 0.231529, -0.188283, 0.117358, 0.136588, 0.299488, -0.043305, -0.0720164, 0.00496011, 0.124332, 0.133339, -0.116895, -0.00399763, -0.025648, 0.122124, 0.0769507, -0.0586004, 0.17049, -0.287122, 0.0941497, 0.315795, 0.0285807, 0.242768, 0.232666},
    {0.171605, 0.203145, 0.0511191, 0.0370499, 0.0440234, 0.0680882, 0.444491, 0.11025, 0.0975752, 0.168588, 0.105144, 0.117506, 0.0350188, -0.141426, 0.0999586, 0.037465, 0.345659, -0.139638, 0.16989, 0.155967, -0.11301, 0.159208, -0.154668, -0.133266, -0.168698, -0.36323, 0.301055, 0.438312, 0.134372, 0.212213, 0.0908621, -0.0815067, 0.563497, -0.0685882, 0.09873, 0.0294628, 0.215711, 0.327542, -0.440832, -0.0779872, 0.169198, -0.0522944, 0.0928308, 0.291224, 0.208899},
    {0.127929, 0.0372853, -0.125765, -0.0464652, 0.00101062, 0.00478831, 0.0126197, 0.0258144, 0.0475194, -0.110868, 0.187142, 0.00292694, -0.204552, 0.0412193, -0.0694834, -0.0510609, -0.0480129, 0.109778, -0.121713, -0.165603, 0.0317551, -0.100398, -0.0229008, 0.0571831, 0.189659, 0.0194427, -0.00982632, -0.173695, -0.0286022, -0.0978557, 0.0439352, -0.105691, 0.0701183, -0.0969654, 0.0997592, -0.094797, 0.280932, -0.158912, -0.0956118, -0.0343911, -0.170091, 0.0181501, -0.0462043, 0.0358871, 0.186118},
    {-0.0394164, 0.244, 0.0537312, 0.182145, 0.0544876, 0.161753, -0.10168, 0.014325, -0.149128, 0.292715, 0.168041, 0.0481405, 0.201309, 0.457034, 0.335121, -0.0577643, 0.231762, 0.203003, 0.246874, 0.222721, 0.291351, -0.15514, -0.338937, -0.309053, -0.0438804, 0.109664, -0.414573, -0.264767, 0.240898, 0.112084, -0.0529727, -0.0281665, -0.241388, -0.163881, 0.0417515, 0.358434, 0.181587, 0.378659, 0.0125755, -0.074911, 0.400969, -0.240082, 0.0914174, -0.0451179, -0.235045},
    {0.0819077, -0.132424, -0.00301142, 0.163009, -0.0744136, 0.0475229, -0.0869935, 0.0126914, 0.128881, 0.110626, 0.142582, -0.0980932, -0.175164, -0.0775732, 0.158364, 0.0789713, -0.0811333, 0.218492, 0.128742, -0.222349, 0.00971422, -0.181856, -0.270639, -0.0823314, -0.0458955, -0.11365, -0.229442, 0.154193, 0.250243, -0.0407397, 0.124569, 0.151529, -0.0449958, -0.460808, 0.315266, 0.0996592, 0.0951485, 0.0591564, 0.00754808, -0.108327, -0.198474, 0.0459959, 0.19258, -0.130586, 0.167503},
    {0.0117955, -0.387066, 0.169619, -0.209658, 0.100369, 0.000793535, 0.105412, 0.171233, -0.00278156, -0.0384556, -0.243324, 0.0911558, -0.140288, 0.0625581, -0.0201907, -0.075561, 0.128786, 0.159037, 0.150607, -0.033569, -0.244615, 0.285074, -0.277622, -0.108965, -0.0185641, -0.211773, -0.171518, 0.0969231, 0.10684, -0.0546837, -0.115653, -0.327305, 0.115693, 0.152008, 0.00704451, 0.195388, -0.0652211, 0.223512, 0.405803, -0.0206029, -0.0812323, -0.191306, 0.074447, 0.177586, -0.145554},
    {-0.0310036, 0.431269, 0.327773, 0.307214, -0.0567828, 0.213102, 0.246966, 0.133357, 0.186919, 0.374452, -0.503998, 0.129702, 0.805423, 0.369027, 0.103398, -0.107297, 0.210471, 0.607385, -0.086381, 0.733996, -0.124211, 0.458852, 0.198538, 0.242452, 0.481265, 0.364263, 0.0773318, -0.0178333, 0.240021, 0.259843, -0.11554, 0.19562, -0.410697, 0.201102, 0.259628, 0.358477, -0.437894, 0.0984307, 0.0452199, -0.31595, 0.350635, 0.255306, 0.170021, -0.215269, 0.307932},
    {0.0112538, 0.0467333, 0.178662, 0.0384496, 0.155184, 0.0719037, 0.110247, -0.0432916, -0.0220323, -0.169964, -0.00378878, -0.0131787, 0.161542, -0.0301832, 0.0361644, 0.151984, 0.000941066, -0.0582415, -0.104864, 0.119468, 0.0534542, 0.0967693, 0.0730713, 0.043389, -0.182864, -0.209292, -0.0271747, -0.0400262, -0.120027, 0.083556, 0.0573112, 0.0852214, -0.106356, 0.105629, -0.0710631, -0.0278823, -0.320853, 0.0184783, -0.255386, 0.227016, 0.0159005, 0.217968, -0.327541, 0.179316, -0.249665},
    {-0.0346075, 0.104453, 0.347226, -0.0473019, 0.305833, 0.242021, 0.19476, 0.121313, -0.132033, 0.0834756, 0.00290111, -0.123903, 0.00065897, 0.297259, -0.0534247, 0.485811, 0.262158, 0.465919, 0.126927, -0.160192, 0.370245, 0.53197, 0.243595, -0.154486, 0.177721, 0.658364, -0.00229094, 0.325809, -0.044858, 0.439682, -0.106096, 0.275474, -0.175112, -0.249862, 0.293091, 0.356654, -0.0814072, 0.115736, 0.114012, 0.277769, 0.0434097, 0.263669, -0.173716, -0.0166169, 0.263198},
    {0.165449, -0.143669, -0.0920811, -0.0123484, -0.205803, -0.0133582, -0.0693582, 0.104113, 0.0337111, 0.0713631, 0.0746208, -0.0606854, 0.121379, 0.0576771, -0.291041, -0.002091, 0.0555281, -0.100259, 0.159105, -0.01771, 0.0556066, 0.0839225, 0.0622815, 0.134053, 0.219925, 0.128987, -0.0145313, -0.0227211, -0.11517, 0.228718, 0.0177022, 0.159266, -0.0196282, 0.0300749, -0.00921285, -0.124161, -0.15947, 0.0809893, 0.0616892, -0.314931, -0.00947136, 0.00284803, 0.0268677, -0.2114, 0.0737736},
    {0.290486, 0.243731, 0.188042, 0.0482754, 0.0349844, -0.161435, -0.365861, 0.0209916, -0.230183, 0.00256904, -0.0407601, 0.210597, -0.302451, 0.103345, 0.166768, 0.0448055, 0.163918, -0.19398, 0.0595937, 0.228496, 0.5707, 0.0828531, 0.253548, -0.132917, -0.197554, 0.214084, 0.279272, 0.250246, -0.289417, -0.329694, 0.274539, 0.26979, 0.00715684, 0.0157469, 0.423971, 0.101712, 0.122872, -0.109849, 0.00898922, 0.0491155, -0.0528747, 0.0252273, 0.097472, -0.019195, -0.741063},
    {0.156462, -0.0146369, 0.0799235, -0.0503209, -0.0559156, 0.226873, 0.0433315, -0.122195, 0.00891825, -0.0936566, -0.0810245, 0.0314111, -0.00868416, 0.0257045, -0.102596, 0.123486, 0.0893103, 0.0815527, -0.0949034, -0.175379, 0.151481, 0.0353808, 0.110108, 0.0823165, -0.0479701, -0.0811064, 0.0312868, 0.0888343, 0.123832, -0.322445, -0.029364, -0.00357219, 0.0743451, -0.259346, -0.0571835, -0.0677859, 0.0394971, 0.0412349, -0.079024, -0.0359937, 0.115409, -0.149677, 0.213151, 0.0526694, -0.267594},
    {0.128286, -0.0194874, -0.0890052, 0.00861123, 0.247501, -0.100008, -0.0421905, 0.198851, 0.112811, -0.0606239, 0.779761, 0.00795851, -0.0825723, 0.0378168, -0.165296, 0.19096, -0.129474, -0.0608671, 0.291556, 0.00678835, -0.0257048, -0.0395801, -0.322802, -0.185341, 0.177405, 0.0606705, -0.229714, -0.164785, -0.179957, 0.254058, 0.123373, 0.0646709, -0.265468, -0.203395, -0.0150473, -0.412421, -0.0971987, -0.0888818, 0.15787, -0.0988321, 0.181084, -0.277973, 0.144103, -0.26115, -0.111997},
    {-0.0245935, -0.0357436, -0.147621, 0.0539674, 0.28272, -0.278161, 0.152907, 0.383621, 0.129414, 0.0740454, -0.00430246, -0.116056, -0.0132328, -0.216463, -0.0377223, 0.00473705, 0.106823, 0.104681, 0.150504, 0.215576, 0.138774, 0.0115636, 0.0592946, 0.343015, 0.0235594, 0.175846, 0.229461, -0.191501, 0.0155578, 0.0357769, 0.104495, 0.133492, -0.102621, -0.200037, -0.077637, -0.322744, -0.0778405, 0.0250701, 0.164617, 0.0675628, 0.0868016, 0.0338295, -0.181285, 0.275396, 0.083745},
    {0.223111, -0.0856416, -0.0892272, -0.159949, 0.0820956, 0.207217, 0.0586802, 0.0364593, -0.0612063, 0.0799093, -0.0563709, -0.129737, 0.203101, 0.104733, -0.18086, 0.00247347, 0.0010977, -0.0509417, 0.0836007, 0.0153257, 0.0564466, 0.266947, -0.0611752, 0.138238, -0.107163, 0.261099, -0.209528, 0.101416, 0.068261, 0.139104, 0.00159257, -0.175362, -0.0574985, 0.139316, 0.13091, -0.00311612, 0.200818, 0.0924754, -0.00895438, 0.00740801, 0.0495183, 0.21684, -0.140276, 0.0154998, -0.0310258},
    {0.176938, -0.0131239, -0.0264498, 0.0108941, 0.126643, -0.0151402, 0.199446, -0.0223287, -0.139835, -0.275019, 0.358708, 0.0112504, 0.0016888, 0.059943, 0.0245451, 0.0284663, 0.0289806, -0.108782, -0.0221582, -0.137484, -0.0552635, 0.0129608, 0.199901, 0.0345361, 0.0654698, 0.294199, -0.174825, 0.0139642, 0.0438025, -0.195147, 0.118316, 0.0992894, -0.15114, -0.18872, 0.20946, 0.180098, 0.0165821, 0.160721, -0.000514295, -0.0289234, 0.0214385, 0.0778845, 0.064334, 0.152295, 0.202105},
    {-0.0755707, -0.195423, 0.00459048, -0.112293, 0.0990159, 0.111518, -0.0200839, -0.146994, 0.134215, 0.00649927, 0.00454486, 0.0439384, -0.419627, 0.127619, -0.0472583, -0.00703919, -0.00959683, 0.269048, 0.0255336, 0.0243092, -0.0848286, 0.181407, -0.113513, 0.0872627, 0.0416473, 0.0826107, -0.210255, 0.0413415, 0.121078, 0.121551, -0.149835, -0.129972, 0.276573, 0.1199, -0.0486903, 0.00915082, 0.021305, 0.0323521, -0.113457, 0.104933, -0.11921, 0.001926, 0.0563347, 0.122292, -0.0104705},
    {0.351432, -0.110287, -0.207115, -0.526893, -0.237073, 0.00159464, 0.541978, -0.365858, -0.258984, -0.0685066, -0.243883, 0.402776, -0.24472, 0.0750594, 0.0608433, 0.185959, -0.349442, -0.675411, 0.145951, 0.46206, 0.0223557, -0.727258, 0.176499, 0.290608, -0.118223, 0.228634, 0.119123, 0.160679, -0.192202, 0.162759, 0.14474, 0.0134472, -0.334492, 0.129146, 0.291545, -0.250804, -0.20909, 0.3088, 0.0478747, -0.00638391, -0.165869, 0.092295, 0.432546, 0.0233475, 0.651343},
    {0.0282381, 0.26956, -0.136331, -0.281336, 0.269747, 0.111804, -0.114448, 0.0799717, -0.0585139, -0.0541218, -0.0142871, 0.0882192, 0.0227367, 0.156169, -0.114544, 0.0330072, -0.0749656, 0.259123, 0.131205, 0.127947, 0.306719, -0.461531, 0.132388, 0.0015111, -0.20459, 0.0804236, 0.151411, 0.215343, -0.248979, 0.143361, 0.16605, 0.126494, -0.0959321, 0.0512017, -0.135006, 0.175827, 0.0193655, 0.15149, -0.158166, 0.18558, -0.111959, 0.0116318, 0.0977965, -0.0782083, 0.649794},
    {0.182218, 0.885274, -0.396432, -0.505538, 0.204753, -0.458733, 0.688669, 0.00240651, 0.514621, -0.00613761, -0.215105, -0.354578, 0.0806374, -0.181124, -0.196347, 0.306184, 0.0245453, -0.106479, 0.015403, 0.0801082, 0.362543, 1.42714, 0.461519, 0.278584, 0.0117326, -0.18394, 0.139122, 0.106288, -0.0839029, 0.621805, -0.192055, 0.0984956, 0.116212, 0.196677, -0.466115, 0.194873, 0.029207, -0.061845, 0.234368, 0.0727697, -0.338878, -0.396256, 0.117131, 0.333922, -0.192434},
    {-0.0919236, 0.308463, 0.063563, -0.171016, 0.116802, 0.00932013, 0.14935, 0.1536, 0.146326, 0.27532, 0.152714, 0.0950461, 0.16343, 0.0411189, 0.161292, -0.0408208, 0.100782, 0.0560064, 0.265673, -0.179739, 0.498735, 0.0582726, 0.236788, -0.0322227, 0.0440378, 0.101845, 0.667126, 0.536635, 0.0588297, -0.0260943, -0.114941, 0.115143, 0.1223, 0.100084, 0.118628, 0.0579203, -0.138987, 0.561527, 0.706707, -0.216712, 0.0942274, 0.113902, -0.0556348, 0.200018, 0.182192},
    {-0.0625409, -0.000925231, -0.124623, 0.236321, 0.0349778, 0.180056, -0.00687217, 0.0701245, 0.165213, -0.256358, -0.134709, -0.117516, -0.0486493, -0.25638, 0.0102416, 0.0646694, 0.050881, 0.0963186, 0.0989813, 0.09289, -0.0160681, 0.00394912, 0.113962, -0.026063, 0.0244932, -0.128587, -0.122084, -0.0847446, 0.0104639, 0.00909829, 0.0454669, 0.0760371, 0.157609, -0.14338, -0.101981, -0.0606686, 0.161862, 0.0538975, -0.0459644, 0.0551516, 0.0846916, -0.0244233, 0.0230631, 0.0325826, 0.0426974},
    {0.0755844, 0.00857322, -0.119808, 0.355355, -0.00588073, -0.120244, -0.160981, 0.226674, -0.338097, 0.0825071, 0.295149, -0.157151, 0.0187615, -0.0261721, 0.0901416, 0.147285, 0.147454, -0.149794, 0.0671968, -0.015588, 0.0684674, 0.064112, -0.00968721, 0.0195081, -0.126195, 0.0552803, -0.356955, -0.0500768, 0.0175541, 0.1157, -0.0882499, 0.0472799, 0.0309842, 0.112537, 0.181538, 0.12008, -0.330283, -0.152298, 0.0268835, -0.390607, 0.153331, 0.0156208, 0.198798, -0.0671385, 0.124403},
    {0.104158, 0.101725, 0.00886293, 0.16977, -0.179936, 0.110834, 0.296511, 0.028638, 0.206096, 0.112794, 0.0575197, 0.121634, 0.186456, -0.222503, -0.259176, -0.165566, 0.0142866, -0.119201, -0.034034, 0.0808588, 0.00429602, 0.106009, 0.118961, 0.409285, 0.193698, -0.0489639, 0.136158, -0.0402191, 0.105403, -0.0816805, 0.0713581, 0.0455889, -0.231152, -0.0453375, 0.153058, 0.00255345, -0.128948, -0.0451713, -0.0061595, 0.0109155, -0.0529069, 0.234646, 0.14485, 0.180272, 0.110226},
    {0.15094, 0.0410634, 0.300242, 0.140249, -0.0550207, -0.0732136, -0.134987, 0.0105741, 0.158384, -0.198829, -0.196129, -0.115507, 0.164922, -0.259111, 0.246648, 0.106594, 0.0967753, 0.0116441, 0.221521, -0.0901057, -0.110295, 0.0959007, 0.0770248, 0.188445, 0.297238, -0.0770892, -0.0454976, 0.0209721, -0.0755111, 0.273091, -0.00826461, 0.0919347, 0.128381, 0.382781, -0.0360392, 0.202135, -0.26144, -0.212032, -0.170203, 0.0568699, 0.115025, 0.0885092, 0.0706419, 0.0752962, 0.0950186},
    {-0.133005, 0.0388403, -0.119395, -0.0095649, -0.00591894, -0.116003, 0.118835, -0.00938831, 0.0608281, -0.205633, -0.136746, 0.175966, 0.323673, -0.0573294, -0.0272681, -0.0583678, 0.203095, 0.16617, 0.0585023, 0.0731089, -0.0632937, 0.0401363, 0.0814616, 0.254421, 0.0536924, 0.0905776, 0.177816, 0.187205, 0.0306746, 0.0549942, -0.0602948, -0.0409088, 0.0981767, -0.0213046, -0.0463727, 0.0192505, 0.0658401, -0.00673757, 0.16599, -0.106856, -0.168191, 0.0425771, -0.382698, -0.00164298, 0.281963},
    {-0.183057, 0.224156, 0.360611, -0.0657491, 0.0992879, 0.225158, -0.0199066, 0.50065, -0.0665112, -0.093127, -0.226774, 0.172321, 0.294484, -0.127985, -0.17346, -0.219701, 0.280169, 0.301476, -0.0291374, 0.342461, -0.322307, 0.152175, 0.264863, 0.074958, -0.0220418, 0.0198007, -0.0150121, -0.174917, 0.144103, 0.259517, -0.16707, -0.0914126, -0.0411965, -0.00827296, 0.0744188, 0.0175581, -0.0751258, -0.349569, -0.082096, 0.195569, 0.270408, 0.148926, -0.522596, 0.153065, 0.142218},
    {-0.0929759, -0.194935, -0.101547, 0.196068, -0.012185, 0.0256347, 0.0117895, 0.029489, 0.1997, 0.0760458, -0.352878, -0.0113981, 0.146479, -0.290415, 0.108755, 0.342107, -0.159025, -0.193752, 0.0593246, 0.0178864, -0.062566, -0.0300662, -0.144997, 0.025488, 0.210694, -0.0170421, 0.0424524, -0.0777299, 0.115485, 0.0618811, -0.078292, 0.0150411, 0.0664332, 0.0684953, -0.0810703, -0.0107935, 0.15732, 0.0144408, 0.088928, 0.394566, 0.194291, -0.0688435, 0.380722, 0.0246083, -0.104168},
    {0.152554, 0.445342, 0.391131, -0.0878657, 0.0187879, 0.068079, 0.109735, 0.098858, 0.0441771, 0.208555, -0.000561119, 0.146604, 0.220902, 0.0551258, 0.115588, 0.247994, 0.0703708, 0.414122, -0.137843, 0.368034, 0.268886, 0.317278, 0.193295, -0.286883, 0.170821, 0.238267, 0.0649048, 0.348401, 0.202713, 0.239608, -0.0796476, 0.135723, -0.265658, 0.0979485, 0.331593, -0.0839296, -0.192885, -0.0508429, 0.375327, -0.406284, 0.154381, 0.250558, -0.00687243, -0.295518, 0.463158},
    {0.0609595, 0.015329, -0.0526612, -0.237574, -0.137903, -0.0214538, -0.210069, 0.181903, 0.0309068, 0.0953309, -0.00346844, -0.121855, 0.0330223, 0.299469, 0.0850666, -0.0682807, -0.0551213, 0.019033, 0.33076, 0.0705324, 0.0498967, 0.0244312, -0.0252056, 0.109538, -0.0358723, -0.0561887, 0.154528, -0.0772375, -0.139819, -0.140966, -0.148746, -0.0915232, -0.0149693, 0.100019, -0.13034, 0.00672943, -0.0915134, 0.557472, -0.114362, 0.233195, -0.161519, -0.0873808, -0.0570689, 0.0817759, 0.0130691},
    {-0.298978, 0.336948, 0.00766648, 0.107972, 0.299971, 0.145239, 0.232789, -0.119171, 0.0609004, 0.0860171, 0.0404239, 0.230902, -0.0237703, 0.277569, -0.136268, 0.286299, 0.248208, 0.135403, 0.258744, 0.011923, 0.240995, -0.254607, 0.165386, 0.0510139, 0.0147064, -0.293486, 0.266235, -0.145364, 0.168574, -0.193542, -0.471673, -0.105444, 0.16336, 0.123984, -0.116355, -0.532939, -0.0440529, -0.113594, 0.428184, 0.305716, 0.165672, -0.29829, -0.0843334, -0.0523478, 0.517325},
    {0.0555982, -0.0676202, 0.119532, 0.0698208, -0.0342851, 0.228749, 0.125085, -0.1149, -0.23196, 0.0693354, 0.282749, 0.254064, -0.039522, 0.00575371, 0.0751921, -0.028016, -0.224127, -0.263343, -0.00877063, -0.0159899, -0.176633, 0.263054, 0.00474563, 0.0472034, 0.162497, 0.223339, -0.168049, -0.060856, 0.247862, 0.298948, -0.0451622, 0.13602, 0.273345, 0.065954, 0.0518281, 0.0981188, -0.148747, -0.0187044, -0.0845577, 0.113877, 0.167699, -0.0169933, 0.27239, 0.0638652, -0.1722},
    {-0.051366, 0.165207, 0.0194049, -0.00456367, 0.0917999, -0.249229, 0.227258, -0.110798, -0.137233, 0.0353456, -0.00414629, -0.088942, 0.182392, 0.294874, 0.777212, 0.379678, 0.123193, 0.186608, -0.352509, -0.136367, -0.163201, 0.216915, -0.271248, 0.246151, -0.205308, -0.193845, -0.094278, 0.221381, 0.206915, -0.361939, 0.169808, 0.00533987, 0.361326, 0.189531, 0.113683, 0.414935, 0.352249, 0.142308, -0.22407, 0.080028, 0.374595, 0.513387, 0.0111936, -0.294649, 0.130831},
    {-0.100736, 0.103835, 0.183049, 0.162424, -0.10368, 0.274541, 0.245792, -0.128056, 0.00851596, 0.246477, 0.156014, -0.0951986, 0.10807, 0.0319124, 0.102522, 0.20203, 0.120132, -0.0321982, -0.143297, 0.315722, 0.132189, 0.0942605, -0.1223, 0.0748253, 0.219188, 0.190472, -0.0947715, 0.0755825, 0.0240666, -0.292316, 0.0176174, 0.21108, 0.170986, 0.0854371, 0.0838417, -0.0248855, 0.134701, -0.200102, -0.294059, -0.0603438, -0.0513096, 0.0359155, 0.167574, 0.0080613, 0.361393},
    {0.134026, 0.099501, -0.0458773, -0.242079, 0.263483, 0.0463846, -0.0447122, 0.0389243, -0.17973, -0.0599062, 0.255792, 0.264872, -0.143372, 0.370858, -0.066055, -0.186812, 0.226511, 0.332508, -0.0056459, -0.0673874, -0.170958, 0.0882794, -0.0691987, 0.102823, 0.0422219, -0.0791075, -0.107059, 0.0468919, -0.0869401, 0.0220087, -0.161607, -0.0251716, 0.0109214, 0.130714, -0.23697, -0.325921, 0.287345, -0.0577332, -0.212385, -0.0661073, -0.00538544, -0.0137002, -0.0295429, -0.136075, 0.202595},
    {-0.135891, -0.103976, 0.0784822, -0.066524, -0.266942, 0.079561, -0.158255, 0.0149798, -0.220584, -0.111025, -0.0338531, 0.0653398, -0.121697, -0.153766, -0.0761438, -0.0706625, -0.0977996, -0.0002194, 0.1195, -0.110278, -0.0901103, 0.019173, -0.148176, 0.179753, -0.0442774, 0.0103746, -0.262076, 0.0796123, 0.0916756, 0.0786069, 0.246436, 0.194145, 0.271797, -0.013758, -0.195414, -0.111353, 0.298138, -0.361705, -0.0983366, 0.182612, 0.0130056, -0.0113979, 0.0986717, 0.0557996, 0.124802},
    {-0.126438, 0.371015, 0.318118, -0.0740956, 0.0275981, 0.00572539, 0.688463, 0.376813, 0.0343214, -0.102788, -0.0907412, -0.0321412, -0.271044, 0.201077, 0.394261, -0.0671362, -0.214372, 0.164017, -0.118723, -0.126346, -0.033671, 0.593397, 0.145431, 0.0100605, -0.00323388, 0.204684, 0.134591, 0.104509, -0.160697, -0.0648316, -0.0638116, -0.089268, -0.50863, -0.406844, 0.337443, -0.172229, -0.0524009, 0.000784755, 0.116766, -0.123706, 0.123455, -0.10962, -0.488269, 0.0452791, -0.114261},
    {0.186001, -0.015555, -0.0502043, -0.0846829, 0.163051, 0.107273, 0.403238, -0.186649, -0.118834, -0.0637066, -0.0516148, -0.155114, -0.0596394, 0.382074, 0.00796536, 0.0888095, -0.140671, -0.0152717, 0.188021, 0.0994974, 0.0228404, 0.345194, -0.146376, 0.382791, -0.215484, -0.413137, 0.0404386, 0.0682631, -0.201362, 0.0506319, -0.27545, -0.21926, 0.0450766, 0.109978, 0.0797845, -0.292278, -0.101684, -0.137524, -0.0560372, 0.101772, -0.0947554, 0.0210335, -0.169792, 0.0182598, -0.217309},
    {0.198958, -0.303077, 0.311106, 0.192321, -0.387381, 0.364628, 0.0862051, 0.283035, 0.103255, -0.00991309, 0.0732714, 0.473018, -0.233222, 0.0587952, 0.244153, -0.261022, -0.0394341, 0.251095, 0.0413206, -0.0945517, -0.258818, -0.285258, 0.0671522, -0.139844, 0.0362165, 0.0154651, 0.0636309, 0.543327, 0.154658, -0.353583, 0.0230659, 0.0817254, -0.0634992, -0.00699291, 0.267508, 0.00780339, -0.119225, -0.0304702, 0.00551416, 0.0716915, 0.342743, 0.156082, -0.25687, -0.154528, 0.421737},
    {0.0626719, -0.0468621, 0.148937, 0.041538, -0.0135068, 0.0195066, 0.218559, 0.240271, -0.0514441, 0.0633225, -0.0764341, 0.35854, -0.228757, -0.0826638, -0.0837862, -0.0584346, -0.0695057, -0.134192, -0.0726065, -0.0441545, 0.172624, -0.145686, -0.0605566, 0.243423, -0.000848116, 0.0539115, -0.120441, 0.0233407, 0.0925084, 0.0304121, -0.160335, 0.161853, 0.195187, 0.0100651, 0.0468715, -0.00118417, 0.117403, -0.153493, 0.218619, -0.398138, -0.0611758, 0.341354, 0.0331689, 0.0917997, 0.109092},
};

float layer_1_bias[NUM_NEURONS] = {-0.0270452, 0.380031, -0.0474471, -0.035476, 0.00368078, 0.196605, -0.0161125, -0.132544, 0.122084, -0.164302, -0.077363, 0.184831, -0.0106001, 0.0632113, 0.109824, 0.0344854, 0.0719689, 0.225981, -0.161809, 0.0287779, 0.0164424, 0.0240343, 0.0788047, -0.133922, -0.191925, -0.216468, 0.247958, -0.113002, -0.0180458, -0.114484, 0.164297, 0.0225711, 0.106781, 0.299301, 0.0654983, -0.0784021, 0.270871, -0.229473, -0.124888, -0.122335, 0.0621608, 0.206789, 0.0694966, 0.0923845, -0.0975833};

float layer_2_weight[NUM_NEURONS][nkoop] = {
    {-0.0350919, -0.138459, 0.0170946, 0.0370102, 0.0696082, 0.171578, -0.139048, 0.0820737, 0.0014337, -0.0293395, -0.0839682, -0.0597514, 0.145635, -0.0110745, 0.103704, 0.124355, 0.14581, 0.0987215, 0.135739, 0.0075978, -0.0468009, -0.0888394, 0.0872644, -0.206054, 0.0277388, 0.18968, 0.11209, -0.157219, -0.0881353, -0.0480457, -0.117963, -0.175602, -0.0303635, -0.0238156, 0.0415213, 0.0281305, -0.147197, -0.120646, -0.145937, -0.0680315},
    {0.095594, 0.0977843, 0.0741806, -0.420696, -0.0348025, 0.0586269, 0.0519192, -0.0162529, 0.0437589, -0.0978152, 0.0261237, 0.0511018, -0.132467, 0.086217, -0.0237374, 0.256486, -0.104309, 0.141651, -0.032113, 0.344806, 0.0923138, -0.0206211, 0.241967, -0.20004, -0.224183, 0.0384251, 0.106141, 0.0571432, -0.0757124, -0.128225, -0.175625, -0.104259, -0.012032, 0.150665, 0.0602004, 0.101641, 0.101248, 0.320992, 0.0553498, 0.312515},
    {-0.0569763, -0.0491395, 0.0270265, -0.105426, -0.0477391, -0.000626944, 0.0574863, -0.04284, -0.177656, 0.126871, -0.047272, 0.0293239, -0.0594245, -0.0329977, 0.0412057, -0.0138437, -0.179289, -0.0824653, 0.00151364, -0.260034, -0.163282, 0.17497, 0.0256287, -0.128444, -0.018309, 0.0704242, -0.0444497, -0.153438, 0.0259783, -0.223947, -0.364348, -0.110995, 0.00128468, -0.180233, -0.0408096, -0.008611, -0.0780028, -0.112283, -0.081842, 0.168177},
    {-0.0314502, -0.0862359, -0.0690295, 0.0961813, 0.0613883, -0.0331019, -0.0468552, 0.0894331, 0.0110874, -0.0571584, -0.266669, -0.0899744, 0.10943, 0.0593728, 0.114862, 0.0198969, -0.101484, 0.212602, -0.0912858, -0.0169328, 0.37133, -0.0409619, 0.241356, 0.15336, 0.0912787, 0.257721, 0.256885, -0.0103133, -0.0695223, 0.301205, 0.300311, -0.458749, -0.174579, -0.0595652, -0.162934, 0.239411, -0.0412776, -0.00842532, -0.0999142, -0.111662},
    {0.00164531, 0.016329, -0.017933, 0.0221933, -0.00697628, -0.0569247, 0.0794368, -0.00435745, 0.10624, -0.0656634, -0.0563492, -0.128289, 0.159992, -0.0435967, -0.0355014, 0.100042, -0.0231835, 0.078559, 0.0545088, 0.191802, 0.0102498, -0.103879, 0.130158, 0.27908, 0.202911, 0.179502, 0.0914974, 0.162763, 0.119262, 0.128837, 0.201872, -0.125678, 0.106359, -0.00489952, -0.149784, 0.146297, 0.0627136, 0.268039, 0.160829, 0.104407},
    {-0.0640326, -0.153579, 0.0366807, 0.0694319, -0.0748981, -0.13442, -0.142988, -0.171244, -0.202416, -0.0671803, 0.115303, -0.161589, -0.0755484, 0.0493001, -0.264809, -0.108143, -0.0710045, -0.0332487, 0.0581898, -0.178334, 0.124072, 0.169898, 0.150431, -0.345047, -0.0065239, -0.132694, -0.191006, 0.0661137, 0.358696, 0.136676, 0.0616122, -0.0297297, -0.0452172, -0.0220681, -0.182048, 0.0781643, 0.238928, 0.0947934, -0.0213096, 0.0587962},
    {0.0952059, 0.33205, -0.0726858, 0.079055, 0.0686604, -0.174353, 0.216452, -0.0529562, 0.142574, 0.0109045, 0.0200047, 0.0888657, 0.108388, 0.0919844, 0.0100372, 0.0381286, 0.0756881, 0.142138, -0.00885688, -0.115137, 0.223951, 0.0130214, -0.033097, 0.267975, 0.32825, 0.218764, -0.152395, 0.0203002, 0.0896886, 0.00900144, -0.0901762, 0.0972746, 0.0432005, -0.0344248, -0.0744421, 0.0883506, -0.0191616, 0.187341, -0.105109, 0.0630581},
    {-0.0778219, -0.123209, 0.144999, -0.0709001, -0.0616699, -0.0441454, 0.0394382, -0.0216514, 0.0172472, -0.127272, -0.0563848, -0.0745178, -0.024232, 0.0268215, -0.141224, -0.238631, 0.0645401, -0.019855, -0.122491, -0.174769, -0.0507337, -0.068649, -0.20519, 0.0386167, -0.136377, -0.127797, 0.161527, 0.123482, 0.107186, 0.249329, 0.23666, -0.220534, -0.239604, 0.189463, 0.0630771, 0.0649762, -0.0334842, -0.0333814, 0.0915589, -0.253308},
    {0.0758462, 0.0146411, 0.0555999, 0.00461758, -0.0117543, -0.0320351, -0.0415004, 0.0480684, 0.0286009, -0.0425551, 0.031229, 0.0910585, 0.101604, -0.129946, -0.0232612, 0.13904, 0.273876, 0.168879, -0.11963, 0.111063, -0.0547151, 0.00537642, 0.204182, -0.0869688, -0.194263, 0.134806, 0.072722, -0.0535648, -0.0639281, -0.178895, 0.0657448, -0.0203008, 0.0379027, 0.102626, 0.263403, -0.152008, -0.0670438, -0.186996, 0.0987394, -0.111678},
    {0.00316857, -0.0210554, -0.0562372, -0.00163961, -0.042027, -0.120792, -0.132705, 0.0709026, 0.0236583, 0.139454, -0.125227, -0.0950165, -0.155361, -0.0982162, -0.156911, 0.040263, 0.145718, -0.0674033, 0.0697353, -0.0846555, -0.144587, 0.224677, 0.0444864, 0.011926, 0.0715253, -0.0772861, -0.0341991, -0.0847496, -0.189737, -0.22403, -0.169872, 0.24123, 0.0280858, 0.0105944, 0.121199, -0.211035, 0.0296956, -0.206067, 0.0107033, -0.0448525},
    {-0.0204459, 0.0118018, -0.0390609, -0.0720839, 0.0254748, -0.0439223, 0.0441633, -0.0491475, -0.0940359, 0.119397, 0.196343, 0.13068, -0.0175629, -0.0395841, -0.0423157, -0.403422, 0.0440227, 0.0202203, 0.266972, -0.254626, -0.0335187, 0.273242, -0.236323, -0.212937, 0.203181, -0.102299, 0.00235388, 0.0838772, 0.162829, -0.366396, -0.307077, 0.0138758, -0.0663231, 0.016997, 0.322103, -0.12499, 0.207538, -0.0627209, 0.126784, -0.292005},
    {-0.0932955, -0.121041, -0.124964, 0.0801923, -0.10245, -0.0742341, -0.141272, 0.230579, -0.0233697, 0.14263, -0.0197542, 0.026639, -0.116962, -0.0138844, 0.0181986, -0.0857109, -0.104665, 0.0108761, 0.094524, -0.023617, -0.0130903, -0.201014, 0.272729, -0.292781, -0.0347126, 0.14713, -0.0257974, -0.105016, 0.108756, -0.0744719, -0.062373, -0.00119858, -0.186391, 0.0532613, 0.217507, 0.106687, 0.0967324, -0.162843, -0.194503, -0.0889119},
    {0.0154179, 0.00866185, -0.00812581, -0.0744366, 0.0324207, -0.0190003, -0.0812054, 0.0586335, 0.0950399, -0.0587272, 0.0194931, 0.0579108, -0.0970777, 0.0103157, -0.0344537, 0.109749, -0.127427, 0.0456287, -0.00487202, 0.118293, -0.0728338, 0.116538, 0.0990861, -0.123556, -0.0897029, -0.157346, 0.238902, 0.0137711, -0.0689536, -0.105672, -0.207179, 0.119904, 0.173196, 0.0211036, 0.154647, 0.0210152, 0.0107761, -0.334409, -0.038193, -0.0405582},
    {0.052848, 0.00595668, -0.0486527, 0.177764, 0.105778, 0.0820744, -0.00943051, 0.106241, 0.103402, 0.21595, -0.198066, 0.0399199, 0.0138848, -0.0472303, 0.0643313, 0.00565487, -0.201624, -0.0990588, -0.0462921, 0.191763, 0.00332719, -0.0584491, 0.187502, -0.0774102, -0.00916919, 0.0450238, -0.0410503, -0.0512053, -0.0307549, -0.00655725, -0.0106463, -0.0604457, 0.00765976, -0.128951, 0.0571318, 0.0171399, -0.0323613, 0.141968, -0.149418, 0.00639898},
    {-0.0765373, 0.00930862, -0.00271535, 0.175062, -0.056311, -0.027031, -0.097095, -0.0926176, 0.0951926, 0.122626, -0.0748591, -0.0202801, -0.230186, 0.0612027, -0.214194, 0.143274, -0.117914, 0.129921, -0.26356, 0.196593, -0.100756, -0.00310997, -0.0826887, 0.15869, -0.18789, -0.19114, -0.163343, -0.21191, 0.0284279, 0.0202826, -0.17317, 0.264445, -0.15495, -0.168396, 0.24971, 0.189085, 0.043754, -0.0238989, -0.0262671, 0.0800452},
    {0.178163, -0.0372078, -0.057367, -0.0789744, -0.0514076, 0.125552, -0.188615, 0.049312, 0.0374245, 0.112877, -0.043239, 0.0723159, -0.300067, -0.0290322, -0.0524192, 0.0751163, -0.0222784, 0.228862, -0.127272, 0.118532, 0.0267792, 0.152633, 0.0115931, 0.0453806, -0.0408778, 0.077278, -0.177296, -0.0746173, 0.0811005, -0.21147, 0.0311141, 0.138583, 0.239508, -0.121134, -0.0126172, -0.0159546, -0.076335, -0.0153539, 0.173784, 0.184417},
    {-0.0176182, -0.00896779, 0.0994249, 0.062875, -0.0892154, 0.0827313, 0.0905285, -0.000672455, 0.044039, -0.00355037, 0.169105, 0.0156756, -0.0876198, 0.192767, 0.0998602, 0.0603114, -0.0914387, 0.044607, 0.0830885, -0.0260068, 0.00522722, -0.274873, -0.248257, 0.146505, -0.157126, -0.0995912, 0.0705877, -0.0513806, 0.00496964, 0.188626, 0.15473, -0.0292388, -0.0107783, 0.0792957, 0.00359728, 0.0580762, -0.0980196, 0.119548, 0.202519, 0.0590513},
    {-0.00354802, 0.0453552, 0.0196892, 0.073294, -0.0263821, -0.098428, -0.0137622, -0.000870901, 0.0362676, -0.206547, 0.0224645, -0.140772, 0.179645, -0.0799172, -0.127203, 0.178275, -0.0873189, 0.0734617, 0.0339021, 0.0724172, -0.0910721, -0.0692546, 0.0171551, 0.0322935, 0.0148962, 0.0130814, -0.0567597, -0.0959724, -0.0257055, 0.360549, 0.307799, -0.0741409, -0.102134, 0.193933, -0.254942, 0.0326311, 0.0794946, 0.170138, 0.0334277, -0.0315077},
    {-0.0512586, -0.0417951, -0.0403426, 0.034995, -0.153524, -0.0697294, -0.0718041, 0.0783566, -0.0282066, 0.0810472, -0.0292424, -0.037198, -0.08558, -0.0219171, -0.169142, -0.0196197, 0.0803754, 0.0597152, -0.0623934, 0.00686367, -0.100356, -0.10702, 0.0564041, 0.147102, 0.00583172, -0.0509495, 0.156064, 0.099762, 0.0227988, 0.190065, 0.184201, -0.0929562, -0.116705, 0.241529, -0.0986775, 0.103374, -0.168681, -0.0333147, -0.14472, -0.107698},
    {0.152627, -0.11862, -0.147068, 0.0472942, 0.0203263, 0.137523, 0.297049, 0.123665, -0.216214, 0.0721177, 0.018248, -0.226187, 0.158147, 0.108728, 0.10418, 0.488375, 0.105602, 0.014422, -0.0386944, 0.185923, 0.263207, 0.0307218, -0.282928, 0.308261, 0.00343027, 0.181247, -0.0795152, 0.141325, -0.0719982, 0.125309, 0.00281687, 0.00193528, 0.0278633, -0.111454, -0.156084, 0.134519, -0.202363, 0.0916066, 0.151059, 0.0549396},
    {-0.076211, 0.0040584, 0.00712127, 0.0766127, 0.0110832, 0.102737, -0.11861, 0.0694771, -0.0488004, 0.0856897, 0.0107676, -0.0821811, -0.1633, 0.0149605, 0.146764, 0.0250567, 0.0315298, -0.0615534, -0.104996, 0.130101, 0.270873, 0.144832, -0.0116871, 0.0717475, -0.014657, 0.0273804, 0.116174, 0.170228, -0.204226, -0.146481, -0.080371, 0.0086277, 0.242627, -0.160262, 0.111151, 0.0677322, -0.00913463, -0.15163, 0.0120479, -0.133154},
    {-0.081275, 0.0525394, -0.0822359, -0.061162, 0.0188958, 0.0543897, 0.237994, 0.0339694, -0.121481, -0.0483126, 0.0916215, 0.072788, 0.178157, -0.041914, -0.0533213, 0.115137, 0.0143481, -0.00807475, -0.0306936, 0.0212647, -0.0710284, -0.00663589, -0.156974, -0.0613357, 0.00692859, -0.0765176, 0.00399624, -0.114345, 0.0670424, 0.102229, 0.00117266, -0.0745114, 0.130642, 0.153714, -0.0319343, 0.0778418, -0.108997, 0.152827, 0.00686694, 0.00735453},
    {-0.125095, 0.0197278, -0.0378456, 0.017966, -0.0775309, 0.110068, -0.147382, 0.0966788, 0.0174262, 0.0330161, -0.0181115, -0.100039, -0.0144106, -0.13607, 0.117737, 0.0751454, -0.0788147, 0.0410646, 0.0266212, 0.0949369, 0.0610559, 0.0546376, 0.0761036, -0.0838735, 0.0267934, 0.18919, 0.25648, 0.0831872, 0.114135, -0.147641, 0.106515, -0.263679, 0.159966, -0.0524039, -0.0784516, 0.0425814, -0.0142526, -0.209381, -0.0598401, 0.0778068},
    {0.153421, -0.0213973, -0.0034813, 0.0934945, -0.011166, 0.0845531, -0.209729, -0.098807, 0.0503395, 0.110333, 0.18531, 0.0784791, -0.0285246, -0.142035, 0.176579, -0.25844, 0.112555, -0.02088, -0.00768543, -0.19489, -0.236111, 0.0988247, -0.128333, 0.079434, 0.174832, 0.00352385, -0.10569, 0.154095, -0.246963, -0.208266, -0.0624321, 0.0757026, 0.156205, -0.0647784, 0.0792837, -0.229826, -0.0462518, 0.13498, -0.0630574, -0.0131268},
    {-0.106511, 0.0945836, -0.0164005, -0.0220861, -0.0343571, -0.0214109, 0.221499, -0.0603003, -0.0602097, -0.100758, 0.136225, -0.233088, 0.119609, -0.0287067, -0.230109, -0.166796, 0.173858, 0.0321187, 0.130331, -0.0332519, 0.0647786, -0.252204, -0.0254093, -0.0942678, -0.0146313, 0.0888599, -0.0112301, -0.0333642, 0.0610606, 0.152728, 0.133153, -0.368018, -0.230912, 0.194942, -0.221697, 0.143226, -0.0631014, 0.0698201, 0.35574, 0.206528},
    {-0.0183399, -0.0124221, 0.0590283, -0.00389766, 0.0264602, -0.00266607, 0.0736697, 0.0138572, -0.0595687, -0.174855, 0.138637, -0.00984963, 0.0400619, 0.210539, 0.0615592, 0.0189497, 0.192696, 0.105872, 0.179779, -0.0879055, 0.0596904, -0.0711907, -0.106702, 0.139721, 0.0544863, 0.153979, -0.042713, -0.106926, -0.00642783, -0.00655902, 0.286454, -0.0635494, 0.00268314, 0.0728868, 0.04704, 0.0552545, -0.204509, -0.152794, 0.212388, -0.0873737},
    {-0.0360204, -0.126448, -0.0821701, -0.0346978, 0.0132922, -0.0148776, -0.0414764, 0.101064, -0.0563455, -0.0415133, 0.0477162, 0.074429, -0.0452003, -0.0272726, 0.0179511, 0.209996, 0.0481315, 0.0801664, -0.0828957, 0.021197, -0.0670181, -0.00810649, 0.0839874, 0.0168221, -0.173167, 0.0564937, -0.0159397, -0.152104, -0.0770654, 0.0601225, 0.18032, -0.0398121, 0.0513857, -0.0149195, 0.0348227, 0.0327398, 0.151822, 0.0227947, -0.0753347, -0.0301035},
    {0.144688, -0.0390713, 0.0643685, 0.133047, 0.00910675, -0.0450841, -0.0505638, -0.0060354, -0.0264201, 0.0184608, -0.0800195, -0.059922, -0.0861703, 0.137782, 0.0394208, -0.0304841, -0.0827948, -0.20504, -0.0541805, -0.0356597, 0.0810234, -0.0779967, -0.190313, 0.0458516, 0.159682, -0.00140219, -0.0366986, 0.0894359, 0.027292, 0.0065446, 0.0558676, 0.0222164, -0.0629423, -0.182251, -0.0168504, -0.0623188, 0.118159, -0.0020672, 0.109863, -0.108011},
    {-0.0750496, -0.0908818, 0.0720888, -0.0693239, 0.0405479, 0.162354, -0.0608028, -0.134583, 0.0014396, -0.0294717, 0.138843, 0.0813994, -0.127623, 0.0680512, -0.0874275, -0.03689, -0.138638, -0.071319, 0.0435532, -0.281019, 0.0613964, -0.14069, -0.124599, -0.0515614, -0.0540537, 0.0290698, -0.18896, 0.0998828, 0.118031, -0.0168579, -0.20335, 0.324359, 0.213598, -0.0223388, 0.00555994, 0.0709992, 0.10891, 0.109203, -0.0472083, 0.0412563},
    {-0.0657113, 0.0100773, -0.0020351, -0.0411702, 0.0804403, 0.0151769, -0.0461122, 0.00942274, 0.0337981, -0.0770268, -0.0149463, -0.0484641, 0.0158486, 0.0138674, 0.0569313, -0.233671, 0.0153341, -0.0140696, 0.0721442, -0.144066, -0.224826, 0.171179, 0.195927, 0.035983, 0.0517271, -0.263938, 0.222777, -0.141819, -0.0842176, -0.175196, -0.0498892, 0.173972, 0.0484816, 0.0499967, -0.116223, -0.324493, -0.0724926, -0.442148, 0.130328, -0.058992},
    {-0.0497555, -0.033184, -0.0755739, 0.0510975, -0.0619667, 0.0161725, -0.017642, -0.0680367, -0.0275653, -0.0574361, -0.208822, 0.0102418, -0.00328032, -0.271659, -0.0861284, 0.226576, -0.220439, -0.248689, 0.032703, -0.0245294, -0.256887, -0.374388, -0.0313151, -0.0540985, -0.00463879, -0.126351, -0.0567632, 0.0686948, -0.0280704, -0.12894, 0.00311203, -0.00717267, 0.00180226, -0.165822, 0.124035, -0.0783686, -0.177953, -0.0185367, 0.0137832, -0.123612},
    {0.00434006, -0.140254, 0.017611, 0.116356, -0.106091, 0.0610184, -0.0229452, -0.0065544, 0.180424, -0.0759033, 0.109324, 0.132937, -0.0351076, -0.0580537, -0.0223622, 0.04634, 0.113766, 0.0480331, -0.0714498, 0.00744065, -0.0138696, -0.166478, -0.0425527, -0.0507469, 0.00905159, -0.188624, -0.153181, 0.0674761, 0.0988605, -0.135972, 0.133946, 0.0516046, -0.152978, -0.200128, 0.0803946, -0.0679469, 0.267018, 0.00731397, 0.0231806, -0.156275},
    {0.059877, 0.0548318, -0.0413152, 0.0604386, 0.0313362, -0.00656412, 0.0408342, 0.00334803, -0.000503371, -0.0697995, 0.0251412, 0.0416843, 0.0805822, 0.132739, 0.0645555, 0.109344, -0.0247149, -0.00665749, 0.0683989, -0.0575723, 0.196409, -0.00607368, 0.103625, 0.117115, 0.0608008, 0.107314, 0.0655402, -0.0555681, -0.0645055, 0.369439, 0.221857, -0.185295, -0.178461, -0.0705393, -0.0937448, 0.104983, 0.0566483, 0.125612, -0.0633768, 0.142042},
    {-0.0978314, 0.114428, 0.0907921, 0.056013, -0.0261859, 0.0177164, -0.0296773, -0.15761, 0.17252, 0.225436, -0.0172759, 0.232219, 0.221689, -0.106234, -0.0426101, -0.114329, -0.011957, 0.104442, -0.0449835, 0.176709, -0.119489, 0.206196, 0.0577754, -0.145237, -0.159471, -0.188675, -0.00805135, 0.109756, -0.0468958, 0.199106, 0.134507, 0.191016, -0.0485596, -0.0714568, 0.221733, -0.158724, 0.0301844, -0.148876, 0.0760123, 0.276356},
    {0.0686145, 0.05135, -0.062829, 0.0478387, -0.160609, -0.154859, -0.0404255, 0.187399, 0.13773, 0.159597, -0.192388, 0.0837802, -0.0579127, -0.20743, 0.170876, 0.171821, -0.0813412, -0.123707, -0.160219, 0.0578607, 0.0650324, -0.218183, -0.0218953, -0.160818, -0.207532, -0.00201629, -0.00655869, -0.225742, 0.0453443, -0.0912815, -0.0241281, 0.22104, 0.0227903, -0.299266, 0.0164268, 0.0858816, 0.127225, -0.156061, -0.181812, -0.175128},
    {0.0221505, 0.0385538, -0.00165816, 0.059272, 0.0458743, 0.0366403, -0.110183, -0.0318568, -0.0620016, 0.0450001, 0.146657, 0.0123096, -0.231952, -0.0644809, -0.0751824, 0.0701961, -0.00130152, -0.189387, -0.00572965, -0.127424, -0.0653583, 0.290222, 0.0759367, 0.0538193, 0.143766, -0.245445, -0.261283, -0.141905, -0.14987, -0.199951, -0.384429, 0.164204, 0.297699, 0.069014, -0.0583285, -0.287246, 0.0478296, -0.212046, -0.18108, 0.0376376},
    {-0.0492187, 0.0240711, -0.0149233, -0.0114903, -0.0774672, -0.0452399, 0.0786412, 0.0392294, 0.0165027, -0.128261, 0.0254897, -0.217082, -0.0563177, -0.0714286, -0.0740511, 0.118031, -0.208426, 0.200352, -0.051498, 0.105978, -0.0938355, -0.175718, -0.0604379, -0.226152, 0.0383756, -0.202015, 0.139842, 0.00143423, 0.0128321, 0.198308, 0.217712, -0.0683454, -0.0542806, -0.0950345, 0.0531633, 0.19425, -0.0517339, 0.108528, 0.10586, -0.0157832},
    {0.0655328, -0.0264758, -0.0122952, 0.0344047, 0.112119, 0.0839742, -0.0852104, -0.00340096, 0.0472249, 0.10209, -0.0599108, -0.0548307, -0.0398688, -0.0586968, 0.205115, -0.0370922, -0.0822437, 0.042417, -0.173138, -0.0521781, -0.0521497, 0.137323, -0.0731729, -0.0880232, -0.045685, -0.161965, -0.080621, 0.059593, -0.0611516, -0.0920819, -0.153033, 0.187424, 0.0563371, 0.0829853, 0.0244843, -0.177609, -0.0138822, -0.12216, 0.020584, -0.127421},
    {0.0111936, -0.000844822, -0.0244949, -0.0409744, 0.00562438, 0.0570254, -0.0337682, 0.0733932, -0.0271988, -0.012516, 0.0940829, -0.0172785, 0.0549932, 0.123048, -0.0742656, -0.171958, 0.00925109, -0.117959, 0.128273, -0.120167, 0.126781, 0.108247, 0.189592, 0.0395935, 0.152475, 0.0230216, -0.0292212, 0.138222, -0.197365, -0.20043, -0.266544, -0.049532, 0.215369, -0.152963, -0.0502948, -0.118936, -0.0150119, -0.180141, -0.209749, -0.14365},
    {0.0118753, 0.0566735, -0.0289226, -0.0514863, -0.0211601, 0.049275, 0.167677, -0.0295737, -0.0636961, -0.263891, -0.157659, -0.15541, 0.0928992, 0.285897, -0.179471, -0.107155, 0.212423, 0.0586268, 0.481099, 0.0281961, 0.0828726, -0.640265, 0.0589467, 0.0272255, 0.228577, 0.0699454, 0.0872414, 0.0038329, 0.0742523, 0.117331, 0.281672, -0.376941, -0.020032, 0.170937, -0.526656, 0.11422, -0.0280741, 0.381743, 0.306754, 0.237977},
    {-0.108702, -0.00228524, 0.0751215, -0.0867039, -0.0134636, -0.00628402, -0.141519, -0.191756, -0.0599738, 0.112167, -0.0158166, 0.186957, -0.128098, -0.10696, -0.0770002, 0.0380725, 0.0790303, -0.11155, -0.109482, -0.188265, 0.000654262, 0.0212925, -0.230275, -0.00987733, -0.177254, 0.0303379, -0.107002, -0.250272, 0.198917, -0.0707927, -0.143917, 0.375417, -0.18663, -0.00552082, -0.0943231, -0.152526, 0.121842, -0.289001, -0.0482976, 0.027602},
    {-0.115624, 0.202494, 0.168201, -0.059889, 0.0484249, -0.0740267, 0.00993011, -0.0681635, 0.0706378, -0.0378399, -0.0902114, -0.0581836, 0.0143098, -0.198348, -0.00868954, -0.031736, -0.00426321, -0.124384, -0.185343, 0.110749, 0.072066, -0.253182, -0.0241545, -0.192314, 0.0496487, -0.0491073, 0.0571311, -0.217263, -0.0953082, -0.0790694, 0.189303, -0.0308348, -0.00659084, -0.030314, 0.265831, 0.0653463, -0.063701, 0.0526954, -0.138712, 0.143821},
    {0.0387332, 0.0786915, -0.0311014, 0.062503, 0.0211327, 0.0105615, 0.124878, 0.0748252, 0.0612218, -0.0620982, 0.215415, -0.0138032, 0.0754135, 0.171611, 0.0393048, 0.0864183, -0.0317607, 0.146293, 0.0500936, 0.230715, 0.0743855, -0.276691, 0.0590107, 0.0985992, -0.231999, 0.0605242, 0.0646212, 0.0708491, -0.0821043, 0.221115, -0.0280232, -0.243042, -0.0991832, 0.0530347, -0.156374, -0.236305, -0.0101597, 0.0947625, 0.105152, 0.199194},
    {0.121413, -0.0349064, -0.0250242, -0.0298892, -0.0146354, -0.0068088, 0.0136164, 0.0115505, -0.0160599, -0.082847, 0.134157, -0.0276349, 0.0762114, 0.0933728, 0.0498896, 0.13083, -0.0194073, 0.217169, 0.0704594, -0.0512655, 0.27533, -0.137448, 0.138063, 0.13573, -0.0470736, 0.250687, 0.0971221, 0.0225209, 0.0574547, 0.342448, 0.19426, -0.0405105, 0.0303089, -0.028574, -0.179953, -0.0394996, -0.0349357, 0.0139036, -0.0467633, -0.0752469},
    {-0.0539891, -0.12268, -0.0108006, 0.0235229, 0.107629, 0.0204421, -0.0838069, -0.158344, -0.0143064, -0.0193706, -0.365643, -0.123841, -0.0498233, -0.107109, 0.0189086, -0.267582, -0.150783, -0.0544267, 0.140531, 0.0759848, -0.219964, 0.00747383, 0.205974, 0.150736, -0.0232154, -0.119672, -0.067467, 0.216688, 0.0390844, 0.119592, -0.080515, 0.028743, 0.0333254, -0.0356312, 0.090918, -0.00916078, -0.0811637, 0.185343, -0.0681469, -0.0312439},
};

float layer_2_bias[nkoop] = {-0.00437318, 0.0690276, -0.0163864, 0.0300888, 0.0215311, -0.0359831, 0.037256, -0.159362, -0.129824, 0.146736, 0.0210449, 0.0559299, -0.140459, -0.0386057, 0.029871, 0.372505, -0.119258, 0.0435865, -0.0787167, 0.301294, 0.146613, 0.221943, 0.207126, -0.30199, -0.197677, 0.0809686, -0.00224662, -0.0523526, -0.0850016, -0.000838211, 0.0584462, 0.142389, 0.00394224, -0.192308, 0.145748, 0.0938844, 0.0501672, 0.14959, -0.134967, 0.175217};

