#include "controller_koopman.h"

int structure[NUM_LAYERS][2] = {
    {NUM_INPUTS, NUM_NEURONS},
    {NUM_NEURONS, NUM_NEURONS},
    {NUM_NEURONS, NUM_OUTPUTS}
};

float residual_weight[NUM_INPUTS][nkoop] = {
    {0.706356, 0.00478376, 0.219081, 0.0230858, -0.101993, 0.0269533, 0.00884494, -0.0672302, -0.00634257, -0.0438767, -0.0796329, -0.136222, -0.33205, -0.239855, -0.15935, -0.0397677, 0.1152, -0.0496616, -0.253941, -0.13026, -0.368236, 0.303513, 0.121342, -0.176734, -0.028633, 0.0216513, -0.0842598, -0.23483, -0.0454872, 0.262301, 0.265934, -0.139179, 0.167008, -0.0754892, -0.224221, 0.304062, -0.158188, 0.422965, -0.0412371, 0.133136},
    {-0.0145547, 0.955112, -0.0322276, 0.00291841, -0.0574635, 0.00708399, 0.0474588, -0.0444314, -0.0198011, 0.359472, 0.243911, -0.216593, 0.091181, -0.0692987, -0.246995, 0.144678, 0.0346257, -0.428001, -0.186383, 0.0704619, -0.141978, 0.218568, -0.132526, -0.394901, 0.358009, -0.0759377, 0.0156607, -0.470994, 0.304171, -0.0607091, -0.0766011, 0.271158, 0.184549, 0.261777, 0.107992, -0.211137, 0.45997, -0.0596725, -0.115761, -0.125272},
    {0.185247, -0.0473914, 0.633141, -0.0241255, -0.0479814, -0.0129598, -0.0134102, -0.0383352, -0.008849, 0.0264814, 0.176792, 0.176845, -0.0762052, 0.00966015, -0.0721884, -0.151968, 0.333157, 0.197754, 0.122163, -0.00283883, -0.217769, 0.235003, 0.0385439, 0.0673503, -0.192205, 0.174325, 0.0559509, -0.0940627, 0.00516185, 0.15612, 0.301117, 0.137118, 0.100884, 0.293848, -0.148255, 0.0630501, -0.114912, -0.353271, -0.261047, -0.0706561},
    {0.0391228, -0.00896956, -0.0147334, 0.950021, -0.048755, 0.025968, -0.0417374, -0.0303204, 0.00938192, -0.0959378, -0.109719, -0.100045, -0.433994, 0.335872, -0.529666, -0.124998, -0.156284, 0.0350685, 0.214268, -0.144298, 0.0986369, -0.0268023, 0.416742, 0.195867, 0.0892603, -0.428222, 0.152342, 0.220921, 0.000431475, 0.310158, -0.00296417, 0.144221, -0.23378, 0.0915555, -0.00988405, -0.0520319, 0.113919, 0.0116954, 0.256069, -0.388831},
    {-0.0988852, -0.0680553, -0.0135939, -0.0284165, 0.782367, 0.0116974, -0.0137629, -0.143861, -0.0368676, 0.127487, -0.288647, 0.130991, -0.164774, 0.249428, 0.0816669, 0.110539, -0.0386159, 0.130556, 0.42827, 0.0732437, -0.269974, 0.129311, 0.0779393, -0.016554, 0.380217, 0.199938, 0.156532, -0.0320071, -0.246955, 0.124594, -0.294608, -0.252948, -0.28887, -0.250827, 0.199312, 0.0137677, 0.34077, -0.184762, 0.00244544, 0.338619},
    {0.00668109, 0.00238156, -0.0151749, 0.00129989, 0.0355975, 0.973123, -0.00445084, 0.0165107, -0.0144389, 0.127087, 0.0767932, 0.00509972, 0.276529, 0.224159, -0.1166, -0.0725769, 0.000825141, 0.132644, -0.0327483, 0.0883907, -0.180229, 0.0543313, -0.195299, 0.162322, 0.100165, 0.0807448, -0.126729, -0.0574793, -0.0833053, 0.0749435, 0.0127063, 0.182126, 0.0808653, -0.335927, 0.0985197, 0.0102407, -0.0919422, 0.125875, -0.149013, 0.0437109},
    {0.0382484, 0.0116126, 0.00650289, 0.0122431, -0.00579715, -0.0051859, 0.94065, -0.00313758, -0.0171027, -0.177084, 0.0325757, 0.0181928, -0.046518, -0.155026, -0.0198072, -0.0987071, -0.000954507, 0.00680439, -0.00437275, -0.142556, 0.0227121, 0.0651586, 0.0357697, -0.0777127, -0.0412556, -0.0432006, 0.10931, -0.0110511, -0.00807775, 0.0282422, 0.0612695, -0.0564338, -0.069688, -0.0514796, 0.136549, 0.017261, 0.0993621, -0.00471015, -0.0463847, -0.034501},
    {-0.0172297, -0.0183763, 0.0106792, -0.00533819, -0.0782399, -0.00448743, -0.0166896, 0.891958, -0.0201349, 0.0752558, -0.082499, -0.0336125, -0.112589, -0.0425252, 0.196952, 0.00431242, -0.0147027, 0.164372, -0.00550642, 0.00417835, -0.047876, -0.0504485, -0.0788455, 0.0195014, 0.13817, -0.0421793, 0.0536029, -0.00206966, 0.00190404, 0.0148946, -0.0715104, -0.179476, 0.210885, 0.100489, 0.0830379, -0.164366, -0.153018, -0.0677225, 0.0288537, -0.0704666},
    {0.0097582, -0.00936932, -0.0146661, 0.00604427, -0.0164439, 0.00260667, -0.0175662, -0.00451726, 0.949077, 0.0254951, 0.0130256, 0.0441587, 0.0415754, 0.0558843, -0.0746825, -0.105534, -0.0316219, -0.0439543, -0.092482, -0.039387, 0.0360016, -0.0821348, -0.0290699, 0.0577895, 0.0491608, 0.0993145, 0.173291, -0.0181352, 0.0120619, -0.0415958, 0.136807, -0.018401, -0.0122518, 0.0914571, 0.102424, 0.0892169, 0.094445, 0.0846372, -0.0072738, 0.0269841},
};

float residual_bias[nkoop] = {0.0185706, -0.00336987, 0.0565864, -0.00493111, -0.0146397, -0.0103909, 0.00484174, -0.0543382, -0.0193528, -0.274338, -0.220629, 0.0779242, 0.0558045, -0.0711214, -0.195935, -0.0220413, 0.0410537, -0.13596, 0.0997865, -0.134431, -0.230921, -0.0992291, -0.074988, -0.132029, -0.125999, 0.0546258, 0.0948877, 0.0671559, 0.0915442, -0.00262987, -0.254632, 0.293654, 0.359596, 0.135195, 0.0428357, 0.0966425, -0.206809, -0.141613, 0.271719, 0.202265};

float layer_0_weight[NUM_INPUTS][NUM_NEURONS] = {
    {-0.146468, -0.0140367, 0.153847, -0.113086, -0.111209, -0.0090132, 0.0528897, -0.125429, 0.13012, -0.0737454, 0.110541, 0.0169559, -0.0339157, -0.0265746, -0.0224436, 0.0482251, 0.122576, 0.0169564, 0.0922697, -0.0974884, -0.0905346, -0.0510783, -0.109389, -0.0984652, -0.051847, -0.0275179, -0.0107806, -0.0290556, -0.240517, 0.113902, -0.056677, -0.270196, 0.165647, 0.0622814, 0.00197765, -0.000618411, 0.222396, 0.0325726, 0.0457836, 0.0502439, 0.27909, -0.106331, 0.00149395, -0.298956, 0.0145443, -0.120856, 0.0699295, 0.0729843, 0.162872, -0.173659},
    {-0.0298904, -0.0998889, 0.0647506, -0.0236754, -0.0310818, 0.0484226, -0.0201747, -0.0113599, -0.137698, -0.0723644, -0.0359606, -0.0983154, -0.0169845, -0.0421661, 0.0382778, -0.0662654, 0.0391456, -0.037405, 0.0286717, -0.0245183, -0.0356746, -0.0630532, -0.0229953, -0.0322735, 0.0811021, -0.0205759, -0.0406308, 0.0368731, 0.019053, 0.0218407, 0.0391106, 0.216623, 0.0166053, -0.0232623, -0.0148714, 0.0366464, -0.0205944, -0.0338426, 0.180559, 0.0504889, 0.00325528, -0.0257678, -0.0368895, -0.0110327, 0.0178093, -0.0660185, -0.000171571, -0.0348362, 0.0141993, 0.0460217},
    {0.0453217, -0.0440999, -0.28159, -0.0988365, -0.0604727, 0.0608882, 0.121643, 0.0979416, 0.0534455, 0.0781233, -0.170875, 0.0765116, -0.112528, -0.142347, 0.148978, 0.0155249, -0.0386623, -0.0343275, 0.116915, -0.105187, -0.12978, 0.0322226, -0.114541, -0.127186, -0.0915176, 0.0917715, -0.135807, 0.154712, 0.229153, 0.100709, 0.163566, -0.223738, -0.127731, -0.160299, -0.0544069, 0.133196, -0.219165, -0.141601, 0.18946, 0.111231, -0.233713, -0.114728, -0.136038, 0.247438, 0.120167, 0.0728299, 0.0924425, -0.15361, 0.125097, 0.217135},
    {0.0141258, 0.0864591, -0.185083, 0.0262991, 0.0208344, 0.043107, 0.108044, 0.0598881, -0.0652802, -0.0136496, -0.00661557, -0.0610543, 0.0227708, 0.0514316, 0.00548801, -0.0206705, 0.0249452, 0.0132611, -0.0593766, 0.0660767, 0.079242, -0.0238059, -0.0281233, 0.079244, 0.10867, -0.00983896, 0.00994475, 0.0151696, 0.0157068, -0.0466531, 0.0249835, -0.241636, 0.0128583, -0.0581694, -0.0466374, -0.0129598, -0.0178793, 0.00780997, -0.112712, -0.0769866, -0.00888044, 0.0658149, 0.00951998, 0.0106999, 0.0383338, -0.0328134, -0.0227844, 0.00360018, 0.0774681, 0.00161751},
    {-0.0933373, -0.345305, -0.0929384, -0.0663294, -0.0787007, 0.18207, 0.244273, -0.031875, -0.123226, -0.209534, -0.0166479, -0.209786, -0.0252359, -0.0595526, 0.0325932, -0.0851202, 0.13021, -0.0440808, 0.0598893, -0.0507124, -0.0666197, -0.157943, -0.0734415, -0.0647507, 0.124947, -0.0558676, -0.0530054, 0.0430629, -0.0400777, 0.059812, 0.0911558, 0.00753415, 0.102109, -0.0915875, -0.0648839, 0.0393851, 0.0343659, -0.0239441, -0.00240682, 0.0604544, 0.0777011, -0.0601812, -0.0402515, -0.0868665, 0.0564589, -0.185113, 0.0127896, -0.0110023, 0.127878, 0.0226174},
    {0.00979733, 0.0409845, 0.0410317, 0.00170523, 0.00268493, -0.0331001, -0.0774632, -0.00341028, -0.0216288, 0.026887, -0.00578857, -0.00786351, 0.000618225, -0.00486203, 0.00433219, -0.000928256, -0.0256258, -0.00277543, 0.00294057, -0.00252329, -0.00601111, 0.0241938, 0.00678173, -0.00557255, 0.0228775, 0.00397168, -0.00299214, 0.0018594, 0.0205199, 0.000444379, -0.0092773, -0.0838572, -0.0290445, 0.0129287, 0.00905803, 0.00349957, -0.0169339, -0.00458221, 0.0405116, 0.00886508, -0.0314251, -0.0031941, -0.00334425, 0.0332008, -0.00505573, 0.0399465, -0.00434757, -0.00741183, -0.0149423, 0.00859169},
    {0.00459958, 0.114889, -0.100367, 0.0137799, 0.0105552, 0.0109759, 0.0719846, 0.0311134, -0.0144498, 0.0117151, 0.00332085, 0.0461862, 0.00677124, 0.0371716, 0.0124762, -0.000412223, 0.0183517, 0.0152244, -0.0370095, 0.0385049, 0.0526513, -0.00836628, -0.026273, 0.0517021, -0.00955995, -0.00160941, 0.00249005, 0.0156354, -0.0041198, -0.0269162, 0.00466193, 0.00276303, 0.0149106, -0.0292978, -0.0354351, -0.00357271, 0.00227637, 0.00111207, -0.0156362, -0.0520561, 0.00424112, 0.0408255, 0.000700053, -0.00182493, 0.0359935, -0.0158325, -0.00222771, 0.00262108, 0.0464658, -0.0159604},
    {-0.00565789, -0.213957, -0.0800155, 0.0287703, 0.0133179, 0.0939745, 0.14266, 0.0105656, -0.0810987, -0.111198, -0.00750554, -0.137059, 0.022881, 0.0122076, -0.00715452, -0.0553852, 0.040821, -0.0175591, -0.0295396, 0.0330015, 0.0293097, -0.0741384, 0.0223584, 0.0323424, 0.0945253, -0.0371142, 0.00566133, 0.000767134, 0.0019367, -0.0334914, 0.0379885, 0.0447525, 0.0284981, -0.0444254, -0.0276369, -0.0088514, -0.00274706, 0.0078952, -0.078694, -0.015789, 0.00439959, 0.0342122, 0.00838062, -0.00509324, 0.00493243, -0.0837166, -0.0348951, 0.00409246, -0.0524672, 0.0162742},
    {9.71852e-05, -0.0574437, -0.0607777, -0.000848701, 0.00133598, 0.027408, 0.035234, 0.00816389, -0.0437341, -0.0200869, -0.00504876, -0.0544197, 0.00280019, 0.00166085, -0.00739588, -0.0116897, 0.00157239, -0.000636659, -0.00103758, 0.00241259, 0.00242201, -0.0108493, 0.00526869, 0.00177776, 0.0360838, -0.000986323, 0.00564954, -0.00504369, 0.00675213, 0.000711124, 0.0127221, 0.0419566, -0.00179641, -0.0150296, -0.00320026, -0.00499281, -0.00701318, 0.00347008, -0.0738181, -0.00820741, -0.00295168, 0.000460038, 0.0054405, 0.00236387, -0.00589712, -0.00690577, -0.00176939, 0.000545528, -0.0117584, 0.0122177},
};

float layer_0_bias[NUM_NEURONS] = {0.00782971, 0.0176543, -0.031485, 0.0573733, 0.0358252, 0.0443792, 0.0533233, -0.00326205, -0.128532, -0.0398839, 0.0143373, -0.0929462, 0.0418746, 0.0370458, -0.0369444, -0.0487997, 0.00583307, -0.0119155, -0.0540722, 0.0537267, 0.0557861, -0.0338054, 0.0740847, 0.0597345, 0.103687, -0.0384523, 0.0340751, -0.032998, -0.0139493, -0.058937, -0.000437547, -0.000969522, 0.0201701, -0.00709546, 0.000279012, -0.0328622, 0.0134286, 0.0300246, 0.0348166, -0.028094, 0.0216105, 0.0602164, 0.0339535, -0.0271361, -0.0355883, -0.0283622, -0.0542739, 0.0245293, -0.110004, -0.0043684};

float layer_1_weight[NUM_NEURONS][NUM_NEURONS] = {
    {-0.00765348, -0.0121424, -0.026689, 0.0277546, 0.0187417, 0.0123367, -0.029007, 0.0238893, -0.0260483, 0.00837729, 0.0318395, -0.0171855, -0.0220667, 0.00534259, 0.0283736, 0.0115345, -0.00143018, -0.0382871, 0.0341444, -0.0302301, -0.0382128, 0.0200637, 0.0194552, -0.0139677, -0.0471089, 0.0313959, -0.0281878, -0.0778903, 0.0361991, 0.015055, -0.0190672, -0.00711501, 0.0166545, -0.0101939, 0.034856, 0.0213359, -0.0341421, 0.0387643, 0.000308847, 0.026913, 0.0229797, -0.00625846, 0.0382623, -0.0228563, -0.0135522, 0.0334043, -9.10382e-05, -0.0184414, 2.81356e-05, -0.0158234},
    {0.0342513, 0.0474635, -0.0695986, 0.0504755, 0.0746641, -0.0288719, 0.0143295, 0.0313119, -0.00996664, -0.0476229, -0.00675435, 0.0319912, -0.0875236, -0.0468629, 0.0122206, 0.00598287, -0.0427769, -0.0258057, 0.0756435, -0.0823027, -0.0237313, 0.08004, 0.0920357, 0.0377203, -0.180037, -0.00273954, -0.00298664, -0.171027, 0.0304177, -0.011853, 0.0311874, -0.00833344, -0.00994552, 0.0683716, 0.061192, -0.0417627, -0.0147601, 0.0233159, -0.0983553, 0.00492307, -0.028409, -0.0585555, 0.0133869, 0.0387245, -0.0945605, 0.0660183, -0.00022546, 0.150855, -1.48169e-05, 0.0444364},
    {0.0471058, 0.0363369, -0.202852, -0.0181705, 0.0221075, -0.0389392, 0.0547397, -0.0424064, 0.0425058, -0.0365416, -0.0718251, 0.0417673, -0.0338305, -0.0321053, -0.035312, 0.0809422, -0.0210985, 0.0586798, -0.00950655, -0.00406108, 0.055138, -0.00683621, 0.0479714, 0.0342057, 0.0168182, -0.0572725, 0.0503758, 0.00694788, -0.049412, -0.0333973, 0.04435, 0.00918521, -0.0163847, 0.133736, -0.0233902, -0.0494066, 0.0558697, -0.0613081, -0.135255, -0.0557139, -0.0491338, -0.0202607, -0.0632655, 0.049378, -0.0725467, -0.0228156, -9.4829e-05, 0.07633, 0.000196549, 0.0406242},
    {0.008072, 0.00772878, -0.0589672, 0.0119453, 0.0103971, -0.00480971, -0.00373231, 0.0124715, -0.00616184, -0.00940296, 0.00691877, 0.00332128, -0.0114225, -0.0104487, 0.00719057, 0.0520729, -0.00910788, -0.0121135, 0.0159619, -0.0147711, -0.0116184, 0.0221823, 0.0104048, 0.00542073, -0.0228021, 0.00608, -0.00561799, -0.126929, 0.0115792, -0.000430845, 0.00261056, -0.00210743, 0.000783908, -0.00180777, 0.0148577, -0.00206414, -0.00914057, 0.0120499, -0.000526963, 0.00683681, -0.000358493, -0.0162911, 0.010526, 0.00153822, -0.00797865, 0.0165135, -8.8253e-05, -0.0912085, 0.000283941, 0.00562924},
    {0.00474167, 0.00429658, -0.0456169, 0.015994, 0.0137162, -0.00148904, -0.00847622, 0.0149627, -0.0103247, -0.00617984, 0.0117018, -0.000406846, -0.0153842, -0.0075312, 0.0115085, 0.0391337, -0.00801338, -0.0176725, 0.0208102, -0.0193531, -0.0172109, 0.0221706, 0.0141691, 0.00201288, -0.0304505, 0.011046, -0.010217, -0.112327, 0.0169826, 0.00264531, -0.0013442, -0.00324302, 0.00363343, -0.00213381, 0.0198375, 0.00178627, -0.0143585, 0.0176566, -0.00255485, 0.0108846, 0.00383409, -0.0143876, 0.0161687, -0.00259211, -0.01113, 0.020788, -8.34104e-05, -0.0581104, 0.000231541, 0.00195261},
    {-0.0180515, -0.0189619, 0.0659283, -0.0229114, -0.0401267, 0.0134102, -0.007832, -0.00619366, 0.00225199, 0.0199442, 0.0096407, -0.0138767, 0.0491807, 0.0194492, -0.0056554, -0.00794958, 0.0191611, 0.00708018, -0.0354912, 0.0406785, 0.00752586, -0.0272668, -0.0541133, -0.014872, 0.0639123, 0.00391036, -0.00120438, 0.0833227, -0.0107527, 0.00604421, -0.0136056, 0.00299976, 0.00103151, -0.0603515, -0.0272773, 0.0184603, 0.00313427, -0.00566092, 0.0765442, 0.00328252, 0.0129609, 0.0233712, -0.00192393, -0.0166451, 0.0603811, -0.0274069, 7.94819e-05, -0.0953793, 3.69375e-05, -0.0181128},
    {-0.0254866, -0.0126519, 0.180312, -0.0297954, -0.0529763, 0.0131663, -0.00230469, -0.000581194, 0.0048846, 0.0176672, 0.0123547, -0.00926681, 0.0692313, 0.0181417, -0.0139556, -0.0285161, 0.0204281, 0.0102724, -0.0482396, 0.0548729, 0.0130357, -0.0245654, -0.0780513, -0.00801686, 0.0727141, 0.000163907, 0.00135493, 0.101253, -0.0154307, 0.00457735, -0.00860265, 0.00391827, -0.0108379, -0.104741, -0.0366592, 0.011168, 0.00612797, -0.00860231, 0.125907, 0.00559395, 0.00717904, 0.0250565, -0.00578833, -0.00845573, 0.0908122, -0.0342839, 0.000109746, -0.101062, -9.29037e-05, -0.0110565},
    {-0.0172161, -0.0183368, 0.0362793, 0.0207611, 0.00553469, 0.0182802, -0.0319767, 0.0235265, -0.0264867, 0.0159252, 0.0369251, -0.0221754, -0.00498775, 0.0129855, 0.0264295, -0.0260371, 0.00564826, -0.0373721, 0.0221971, -0.0166095, -0.0366918, 0.01083, 0.000265814, -0.0187217, -0.0311655, 0.0336518, -0.0298849, -0.0421336, 0.0339154, 0.0180975, -0.0239354, -0.00655276, 0.0155316, -0.0361321, 0.0261703, 0.0267097, -0.0345239, 0.0383261, 0.0302906, 0.0298681, 0.0273519, 0.00329499, 0.0388175, -0.0276591, 0.00865683, 0.0246625, -2.40162e-05, -0.027275, 0.000280163, -0.0215048},
    {0.0128534, 0.0252088, 0.0395583, 0.0150662, 0.034789, -0.0152636, 0.0190571, 0.00163684, 0.00489483, -0.0219179, -0.017745, 0.0206653, -0.0400192, -0.0194738, -0.00546117, -0.0101545, -0.0176819, 0.00342922, 0.0242421, -0.0308744, 0.00422139, 0.0208328, 0.0441489, 0.0219084, -0.0595619, -0.0141753, 0.00914346, 0.023084, 0.00079741, -0.00972015, 0.0212526, -0.00141831, -0.0117315, 0.0458037, 0.0167897, -0.0302926, 0.00638153, -0.00510978, -0.0600085, -0.00921751, -0.0229181, -0.0172682, -0.00974775, 0.0289688, -0.0489647, 0.0175653, 8.09826e-05, 0.234757, -0.000325395, 0.0264968},
    {0.00214044, 0.00103536, -0.028504, 0.0419647, 0.0469605, 0.00367831, -0.0208395, 0.025534, -0.0258211, -0.00427957, 0.0222884, -0.00680451, -0.0568738, -0.00632226, 0.0296579, -0.0194175, -0.0132835, -0.0401631, 0.0574355, -0.0580148, -0.0402417, 0.0355261, 0.0581392, -0.00322248, -0.102028, 0.0259653, -0.0253646, -0.0749875, 0.0410549, 0.0105102, -0.00858429, -0.00911514, 0.0140813, 0.0330865, 0.0518522, 0.00606461, -0.0336782, 0.0395187, -0.0558145, 0.0225622, 0.0119954, -0.0186712, 0.0362348, -0.00880653, -0.0570661, 0.0502648, -8.74181e-05, 0.121902, -0.000215279, -0.00238866},
    {0.0267205, 0.0360454, -0.0297584, -0.0152803, 0.00355792, -0.0290488, 0.0417213, -0.0159745, 0.0290935, -0.0321216, -0.0416016, 0.0354935, -0.00313834, -0.028491, -0.0306731, 0.0423555, -0.0171332, 0.0374663, -0.0145815, 0.00792431, 0.0381317, 0.00961678, 0.00735781, 0.0341917, 0.00981667, -0.0401393, 0.0344438, -0.0537684, -0.0334326, -0.0246983, 0.0373222, 0.00633039, -0.0253005, 0.0338591, -0.0203301, -0.0431032, 0.0368478, -0.0389089, -0.0294779, -0.0315731, -0.0403223, -0.019716, -0.0419865, 0.0438827, -0.0146814, -0.0161187, -3.16742e-05, -0.00164282, 0.000184483, 0.0387604},
    {0.00974186, 0.0133887, -0.000339783, 0.0362199, 0.0516994, -0.0060082, -0.0038238, 0.0161421, -0.0142115, -0.0144337, 0.00382638, 0.00617421, -0.0625922, -0.0145647, 0.017418, -0.035762, -0.0184577, -0.0241116, 0.0524026, -0.0568144, -0.024187, 0.0342894, 0.0666982, 0.00870813, -0.101938, 0.00939818, -0.0115622, -0.0375927, 0.027287, 0.00161186, 0.00528627, -0.00681229, 0.00472454, 0.0564702, 0.0439547, -0.0114345, -0.0183816, 0.0227325, -0.0811794, 0.00881787, -0.00387622, -0.0219276, 0.0182981, 0.00877196, -0.0703923, 0.0430148, -8.14116e-05, 0.199605, -7.79432e-05, 0.0117506},
    {0.0114375, 0.0141375, -0.0395426, -0.000451746, 0.00263433, -0.0107504, 0.0103341, 0.0016654, 0.00592141, -0.0137686, -0.00817305, 0.0118782, -0.00190293, -0.0132918, -0.00623755, 0.0433949, -0.00887269, 0.00571342, 0.000427299, -0.00127511, 0.00627895, 0.013033, 0.00206225, 0.012623, -0.00137839, -0.00886037, 0.00758712, -0.0846051, -0.00513737, -0.00753455, 0.0120687, 0.00110522, -0.00760175, 0.00287202, -0.0010126, -0.0130501, 0.00677952, -0.00605634, -0.000800377, -0.00567875, -0.0117532, -0.0134805, -0.00751609, 0.0131953, -0.00227017, 0.00129934, -6.457e-05, -0.070284, 0.000336125, 0.0138415},
    {0.0160961, 0.0245352, -0.020642, 0.00260241, 0.00884291, -0.0167751, 0.0167276, 0.00528795, 0.00780307, -0.0229096, -0.011736, 0.0198274, -0.00784903, -0.0218273, -0.00928001, 0.035158, -0.0153202, 0.00653795, 0.00490683, -0.00681571, 0.00790624, 0.0240846, 0.00806084, 0.0217655, -0.0169344, -0.0133212, 0.0106768, -0.135047, -0.00543095, -0.0114082, 0.0201352, 0.00100719, -0.0137514, 0.00383603, 0.00215467, -0.0234299, 0.00875579, -0.00722265, -0.00391993, -0.00721935, -0.0198655, -0.0220225, -0.0102462, 0.0234423, -0.00783841, 0.00592585, -6.09008e-05, -0.0668321, 0.000458311, 0.024216},
    {-0.0202454, -0.0250886, 0.0542868, 0.00475926, -0.00616298, 0.0199647, -0.024228, 0.00517771, -0.0156049, 0.0235201, 0.0231679, -0.02313, 0.00630971, 0.0217529, 0.0159543, -0.0625821, 0.014201, -0.0185222, 0.00276072, 0.000816641, -0.0190546, -0.014386, -0.00848397, -0.0230444, 0.000227506, 0.0224367, -0.0191465, 0.0761365, 0.0162045, 0.01548, -0.0239754, -0.00311402, 0.0148996, -0.0206786, 0.00674077, 0.0271129, -0.0192855, 0.0194437, 0.018151, 0.0169908, 0.0248953, 0.0187262, 0.0219078, -0.0274086, 0.0120448, 0.00351927, 3.45458e-05, 0.0345057, -9.12652e-05, -0.0259035},
    {0.00716319, 0.01251, 0.0122124, 0.0123018, 0.0218477, -0.00725092, 0.00642177, 0.00447424, -0.000817469, -0.0115416, -0.00543543, 0.00922146, -0.0253892, -0.0107494, 0.00109218, -0.0062702, -0.0104795, -0.00331531, 0.0184026, -0.0214661, -0.00293485, 0.0153035, 0.0273585, 0.010342, -0.0388064, -0.00349413, 0.00127551, -0.0138144, 0.00535034, -0.00353505, 0.0092413, -0.00171326, -0.00385824, 0.024656, 0.0142469, -0.0135028, -0.00109695, 0.00246204, -0.0334432, -0.00146739, -0.00942825, -0.0115743, -0.000118475, 0.0125799, -0.029303, 0.014652, 4.45266e-05, 0.103659, -0.000359557, 0.0125288},
    {0.00263862, 0.00898762, 0.0545972, -0.0311589, -0.0281853, -0.00901703, 0.025617, -0.0211736, 0.024489, -0.00477051, -0.0259944, 0.013983, 0.0346352, -0.00202488, -0.0283315, -0.0179913, 0.00491861, 0.0363617, -0.0408199, 0.0388214, 0.0368608, -0.021877, -0.0341483, 0.0114277, 0.0575713, -0.0281591, 0.0256916, 0.0700148, -0.0356503, -0.0129391, 0.0157693, 0.00727488, -0.0172649, -0.012759, -0.0389715, -0.0170553, 0.0318842, -0.0364201, 0.0263562, -0.0230166, -0.0193903, 0.0094804, -0.0353831, 0.018978, 0.0314673, -0.0370149, 8.06989e-05, -0.0280244, 0.000183783, 0.0124556},
    {0.00704295, 0.0121299, 0.00683108, 0.00446247, 0.00984843, -0.00767366, 0.00801697, 0.00280888, 0.00259042, -0.0110255, -0.00597802, 0.0096032, -0.0104907, -0.0103032, -0.00321902, 0.00405065, -0.00810089, 0.00161616, 0.00694184, -0.00870125, 0.00223901, 0.0120419, 0.0111925, 0.0106019, -0.017586, -0.00593762, 0.00422818, -0.0428239, -0.000537003, -0.00487845, 0.00975974, -0.000136065, -0.00621639, 0.00876415, 0.00475264, -0.0124808, 0.00295469, -0.00213257, -0.0116489, -0.00311978, -0.00989483, -0.0102623, -0.00397223, 0.0122011, -0.0117327, 0.00606174, 8.43954e-06, 0.0205668, -5.47298e-06, 0.0121726},
    {-0.00961348, -0.0140712, 0.0312223, -0.00838633, -0.00789057, 0.00860216, -0.00288783, -0.0118699, 0.00190857, 0.0142334, -0.00234492, -0.00904548, 0.00712192, 0.0145663, -0.00131291, -0.0372041, 0.011153, 0.00667591, -0.0109517, 0.0103272, 0.00552793, -0.0243011, -0.00579185, -0.0115868, 0.0205998, -0.000150275, 0.000714115, 0.145992, -0.00629237, 0.00393087, -0.00865015, 0.00111284, 0.00537845, 0.00770031, -0.0099617, 0.00950571, 0.00385311, -0.00649235, -0.00674106, -0.00345709, 0.00695632, 0.0186018, -0.00436752, -0.0092591, 0.00290962, -0.0127529, 7.59962e-05, 0.10017, -0.000409975, -0.0124735},
    {0.00745086, 0.0117114, -0.0240531, 0.00815816, 0.0059778, -0.00667748, 0.000635908, 0.0125133, -0.00321317, -0.0119459, 0.00481813, 0.00687511, -0.00470666, -0.0124582, 0.0024457, 0.0324714, -0.00959236, -0.00822606, 0.0100552, -0.00888529, -0.00704891, 0.0227686, 0.00289249, 0.00949356, -0.0185017, 0.00221972, -0.00242046, -0.14024, 0.00747766, -0.00252453, 0.00640217, -0.00130249, -0.00435869, -0.0126118, 0.00974965, -0.00684094, -0.00552248, 0.00817265, 0.0122155, 0.0051773, -0.00459905, -0.0166926, 0.0063269, 0.00663208, 0.000736422, 0.0123498, -7.15562e-05, -0.10454, 0.000418157, 0.0100266},
    {0.0107682, 0.018008, -0.0183138, 0.00836074, 0.00835208, -0.0107421, 0.00560494, 0.0131969, -0.000779686, -0.0174821, 0.00112778, 0.0121149, -0.00688903, -0.0175418, -0.000615408, 0.0304743, -0.0131123, -0.0057294, 0.0108164, -0.0103976, -0.00415742, 0.0279748, 0.00529823, 0.0151708, -0.0242643, -0.0018693, 0.000793919, -0.168117, 0.00537616, -0.00549156, 0.011799, -0.000965921, -0.00838767, -0.0108263, 0.00969502, -0.0134876, -0.0026021, 0.00546754, 0.00979998, 0.00284616, -0.0101787, -0.0213132, 0.00281311, 0.013295, -0.00186561, 0.0132046, -7.35136e-05, -0.106733, 0.000457419, 0.0164617},
    {0.0038707, 0.00283279, -0.0335328, 0.0304924, 0.035661, 0.000777483, -0.0130191, 0.0176237, -0.0173953, -0.005211, 0.0136866, -0.00294142, -0.043093, -0.00656642, 0.020447, 0.00145311, -0.0111465, -0.0273818, 0.0419, -0.0428367, -0.0275314, 0.0263652, 0.0444313, -0.000458616, -0.0696142, 0.0168176, -0.0166873, -0.0638786, 0.0284175, 0.00624547, -0.00416981, -0.00629401, 0.00940023, 0.028876, 0.0373961, 0.00209317, -0.0226798, 0.0267935, -0.0451414, 0.0145625, 0.00656893, -0.0152496, 0.0242368, -0.00411039, -0.0444015, 0.0363107, -4.70361e-05, 0.0866462, -0.000241946, 0.000413392},
    {0.0124308, 0.00729603, -0.107782, 0.011877, 0.0135549, -0.00658616, -0.00205982, 0.00815069, -0.00412153, -0.0100744, 0.00203504, 0.00402353, -0.0168452, -0.0111444, 0.0070392, 0.0874755, -0.00981738, -0.0089918, 0.0177406, -0.0174574, -0.00930577, 0.0199649, 0.0173587, 0.00493085, -0.020937, 0.00357445, -0.0031473, -0.101351, 0.00930982, -0.00181743, 0.0034062, -0.00170702, 0.00315302, 0.0150509, 0.0151176, -0.00226111, -0.00623908, 0.00873618, -0.0174189, 0.00287159, -0.00129391, -0.0169419, 0.00741143, 0.00162929, -0.0175683, 0.0162083, -9.51568e-05, -0.0760923, 5.72165e-05, 0.00533171},
    {0.010047, 0.0164957, -0.0213967, 0.00875486, 0.00789262, -0.00971386, 0.00392836, 0.0136692, -0.00179655, -0.0162505, 0.00266579, 0.0106913, -0.00648868, -0.0164931, 0.000584702, 0.0315982, -0.0124276, -0.00705132, 0.0111991, -0.0104569, -0.005551, 0.0275767, 0.00474665, 0.0137378, -0.0238944, -0.000338713, -0.000445383, -0.168037, 0.00651693, -0.00460982, 0.0102969, -0.00115783, -0.00722237, -0.0119646, 0.0103004, -0.0115751, -0.00391201, 0.00685846, 0.0110183, 0.00393974, -0.00851159, -0.0206911, 0.00437609, 0.0113676, -0.00108281, 0.0136643, -7.66053e-05, -0.113129, 0.000447536, 0.0148054},
    {-0.00501552, -0.00471919, -0.000390415, -0.0220721, -0.0350999, 0.00211926, 0.00212193, -0.00471859, 0.00784672, 0.00555794, 0.00104883, -0.00196928, 0.0438168, 0.00539275, -0.0109458, 0.0174119, 0.00932904, 0.0123948, -0.0332055, 0.0371161, 0.0131694, -0.0139685, -0.0478704, -0.00233868, 0.0614123, -0.00464903, 0.00615091, -0.0367914, -0.0152392, -0.00161854, -0.00158335, 0.00400684, -0.00552801, -0.0497276, -0.0269322, 0.00571011, 0.0095317, -0.011374, 0.0667244, -0.00263684, 0.00143697, 0.00863494, -0.00903862, -0.00387887, 0.0526611, -0.0250141, 4.02715e-06, -0.201977, 0.000164704, -0.00435974},
    {-0.00798647, -0.00970957, 0.0170564, 0.0167318, 0.0140655, 0.00955969, -0.0169624, 0.0111706, -0.0154562, 0.0081614, 0.0172836, -0.0117055, -0.0171123, 0.00679448, 0.01673, -0.0265264, 0.00118422, -0.0215449, 0.0209509, -0.0197521, -0.0217133, 0.00608478, 0.0165229, -0.0103323, -0.0324324, 0.0181297, -0.0167037, 0.0117117, 0.0209617, 0.0100721, -0.0126502, -0.00441695, 0.0106632, 0.00217183, 0.0207912, 0.012795, -0.0196383, 0.0216755, -0.0107944, 0.0149435, 0.0141289, 0.00150411, 0.0214704, -0.0138685, -0.0144687, 0.0188833, 3.36353e-05, 0.0683514, -0.000430917, -0.0111574},
    {0.0173207, 0.0223118, -0.0469489, 0.00131603, 0.00954885, -0.0166569, 0.0173362, 0.000986051, 0.0093429, -0.0213043, -0.0149692, 0.0190106, -0.00993136, -0.0201935, -0.00962636, 0.0531989, -0.0142006, 0.00936721, 0.00425445, -0.00678893, 0.0100917, 0.0190762, 0.0112207, 0.0198943, -0.0111646, -0.0148551, 0.0122876, -0.0995098, -0.00770593, -0.0117321, 0.0194212, 0.00144341, -0.011687, 0.0148094, 0.000798267, -0.0222205, 0.0110525, -0.0101352, -0.0146544, -0.0101094, -0.019468, -0.0197083, -0.0127239, 0.022198, -0.0129565, 0.00379192, -5.10144e-05, -0.0418471, 0.000226186, 0.0222994},
    {-0.0219136, -0.0262133, 0.0621502, 0.00420802, -0.00851487, 0.0211492, -0.0255733, 0.00622965, -0.0164213, 0.0247574, 0.0252486, -0.0243101, 0.00951532, 0.0228802, 0.0163466, -0.0627865, 0.0152241, -0.0195942, 0.00137818, 0.00278154, -0.0199577, -0.0147935, -0.0123454, -0.0239984, 0.00258686, 0.0237782, -0.0202555, 0.0763184, 0.0168736, 0.0163282, -0.025203, -0.00319758, 0.0149452, -0.0274668, 0.00608784, 0.0286039, -0.0204, 0.0206358, 0.0259021, 0.018466, 0.0262305, 0.0197263, 0.0232355, -0.0288086, 0.0169473, 0.00296053, 4.41371e-05, 0.0250839, -8.52984e-05, -0.0271129},
    {-0.036844, -0.051614, 0.00946582, 0.0386679, 0.00990151, 0.0433119, -0.0707996, 0.0363186, -0.0536134, 0.0440684, 0.072503, -0.0546418, -0.0130028, 0.037511, 0.0573645, -0.0389263, 0.0190824, -0.0725904, 0.0426516, -0.0319241, -0.0733947, 0.00330808, 0.00619206, -0.050791, -0.0460432, 0.0706526, -0.0615112, 0.00484974, 0.0663211, 0.0402656, -0.0582075, -0.0127358, 0.0424782, -0.046121, 0.0499183, 0.0667894, -0.0687848, 0.0746431, 0.0336861, 0.0570311, 0.0646763, 0.0185243, 0.0779444, -0.0688685, 0.0066158, 0.0437709, -5.92301e-05, -0.00995449, -0.000166169, -0.0575679},
    {-0.00727929, -0.00857507, 0.044735, -0.0108414, -0.0082943, 0.00492409, 0.00314878, -0.0132446, 0.00580182, 0.0098093, -0.00740795, -0.00390711, 0.00833292, 0.0107691, -0.00612839, -0.0430746, 0.00899603, 0.0117241, -0.0139766, 0.0125195, 0.0109425, -0.0227305, -0.00680216, -0.00631351, 0.0215365, -0.00569604, 0.00530968, 0.136562, -0.0109293, 0.000674252, -0.00322727, 0.0019541, 0.000706075, 0.00786502, -0.0133895, 0.00284108, 0.00878811, -0.0117181, -0.00628656, -0.00717481, 0.00100566, 0.0163371, -0.0101334, -0.00243404, 0.00356535, -0.0154108, 8.47276e-05, 0.103919, -0.000352511, -0.00650787},
    {-0.0266314, -0.032203, 0.0630427, -0.000273039, -0.0195012, 0.0254038, -0.0301984, 0.00698031, -0.0178088, 0.0304633, 0.0308129, -0.0293733, 0.023132, 0.0280676, 0.0170772, -0.0426395, 0.0201872, -0.0208013, -0.00625715, 0.0125876, -0.0210101, -0.0197597, -0.0279194, -0.0290433, 0.0196331, 0.0274656, -0.0227869, 0.0903298, 0.0167183, 0.0189736, -0.0303724, -0.00288319, 0.0166309, -0.0479993, 0.00100596, 0.0357728, -0.0222726, 0.0223192, 0.0516353, 0.0217078, 0.0317403, 0.0246896, 0.0259271, -0.0355075, 0.0353103, -0.00201273, 7.24584e-05, -0.0182686, -0.000206134, -0.0333315},
    {0.0128411, -0.0417558, -0.340439, -0.000963343, 0.0019312, 0.0127214, -0.0257467, -0.0288301, -0.00480615, 0.0273662, -0.00423984, -0.0297961, -0.0174592, 0.0234667, 0.0230022, 0.146021, 0.0157347, -0.000870464, 0.00707382, -0.00628206, -0.00918165, -0.0369209, 0.0254926, -0.0399071, 0.019433, 0.0145643, -0.00758572, 0.064297, 0.00276805, 0.0103074, -0.0306812, 0.000518807, 0.0453456, 0.0930654, 0.00348333, 0.0444467, -0.00421768, 0.001328, -0.0869939, -0.00834084, 0.0327172, 0.0165382, 0.00847661, -0.0456227, -0.0410167, -0.00520452, -0.00011801, -0.0281902, 0.00062663, -0.0434585},
    {0.0170059, 0.0269897, 0.027606, -0.0359888, -0.0232783, -0.0235939, 0.044951, -0.0276101, 0.0374198, -0.021328, -0.0454745, 0.0312417, 0.0290167, -0.0170033, -0.0414707, 0.0106687, -0.00473652, 0.0525171, -0.0439723, 0.0386728, 0.0532428, -0.0142291, -0.0262552, 0.0281681, 0.0562531, -0.0464984, 0.0413403, 0.0333177, -0.0497302, -0.0247478, 0.0338017, 0.00988004, -0.0284761, 0.00736845, -0.0455343, -0.0378118, 0.0481856, -0.0533329, 0.0071363, -0.0375167, -0.0385772, -0.0022459, -0.0539977, 0.0399551, 0.0198461, -0.0415047, 7.06189e-05, -0.0285518, 0.000264214, 0.0314816},
    {0.0271093, 0.0288451, -0.0872089, -0.000385546, 0.0204481, -0.0243796, 0.0293394, -0.0108036, 0.0183132, -0.0279145, -0.0327055, 0.0273853, -0.0256667, -0.0256191, -0.0162586, 0.0492431, -0.0186578, 0.0223304, 0.00625145, -0.0130827, 0.0218325, 0.0145691, 0.0315904, 0.0260388, -0.0148531, -0.0275873, 0.0231867, -0.0644317, -0.0178042, -0.0184867, 0.028414, 0.00308113, -0.0135818, 0.0595764, -0.00158555, -0.0331378, 0.0232703, -0.0238855, -0.0637099, -0.0235596, -0.0299709, -0.02194, -0.0269288, 0.0327792, -0.0410674, 0.000487163, -6.56188e-05, 0.0339981, 0.000101014, 0.0301588},
    {0.0109959, 0.00825822, -0.0620108, 0.00599365, 0.014245, -0.00765797, 0.00606609, -0.00153, 0.00255939, -0.00924933, -0.00857319, 0.00725459, -0.0183518, -0.00900379, -0.000245039, 0.0336301, -0.00796599, 0.00216411, 0.0109951, -0.013448, 0.00153359, 0.00843383, 0.0210492, 0.00677164, -0.0149473, -0.00531974, 0.00423691, -0.0248055, -0.000319237, -0.00462777, 0.0073001, -0.000138719, -0.000384283, 0.0312339, 0.00719425, -0.00843588, 0.00325264, -0.00278715, -0.035475, -0.00554341, -0.00718941, -0.00993657, -0.00396713, 0.00788242, -0.0250869, 0.00730002, -5.38845e-05, 0.0249412, -0.000232991, 0.0080894},
    {-0.0169077, -0.0222636, 0.0401148, 0.00138789, -0.00677596, 0.0168196, -0.0188864, 0.000852083, -0.0110873, 0.0209318, 0.0166334, -0.0195123, 0.00656934, 0.0196287, 0.0116929, -0.0495433, 0.0132684, -0.0121196, -0.000596011, 0.00320252, -0.0128604, -0.0164766, -0.00783557, -0.0201484, 0.00580397, 0.0167104, -0.0140265, 0.089314, 0.0104577, 0.0124065, -0.0200589, -0.00200437, 0.0127423, -0.0130228, 0.00256256, 0.0228635, -0.013361, 0.0128642, 0.0116462, 0.0117007, 0.0204122, 0.0181683, 0.0152685, -0.0230048, 0.00970503, -0.000480389, 4.6145e-05, 0.0430244, -0.000248713, -0.0225475},
    {0.0352612, 0.0488823, -0.0139487, -0.0355765, -0.00818266, -0.0410452, 0.0664999, -0.0338834, 0.0501826, -0.0419173, -0.0682169, 0.0515878, 0.0107967, -0.0357864, -0.0535205, 0.0397629, -0.0184761, 0.0677804, -0.0389026, 0.0287426, 0.0684945, -0.00224739, -0.00427434, 0.0479877, 0.0416581, -0.0662773, 0.0576761, -0.0083978, -0.061812, -0.0379373, 0.0549117, 0.0118591, -0.0397207, 0.0450985, -0.0459544, -0.0629998, 0.0643475, -0.069739, -0.0337692, -0.0535681, -0.0609171, -0.0181769, -0.0729213, 0.064895, -0.00791607, -0.0401942, 4.80633e-05, 0.0101308, 0.00013818, 0.0544072},
    {0.0190471, 0.0252304, -0.0366451, -0.00651089, 0.0040238, -0.0197449, 0.0251164, -0.00573311, 0.0164583, -0.0231693, -0.0235684, 0.023428, -0.00343583, -0.0212261, -0.0174077, 0.0483494, -0.0134589, 0.0198947, -0.00542953, 0.00186945, 0.0205894, 0.0129882, 0.00539216, 0.0233931, 0.00191222, -0.0233515, 0.0199379, -0.0736204, -0.0176876, -0.0156984, 0.0243592, 0.00340845, -0.0161496, 0.0169472, -0.00899993, -0.0277405, 0.0203907, -0.0207793, -0.0139205, -0.0174408, -0.0255099, -0.017463, -0.0231766, 0.0281471, -0.00866794, -0.00567065, -3.85224e-05, -0.0354544, 0.000237907, 0.0262601},
    {-0.0102183, -0.0448476, -0.083303, 0.00286395, -0.000257798, 0.0237607, -0.0312987, -0.0157004, -0.0132749, 0.0358526, 0.0118917, -0.0352648, -0.0123401, 0.0326899, 0.0242412, -0.058311, 0.0216246, -0.010816, 0.00904577, -0.007448, -0.0162732, -0.0342642, 0.0173415, -0.0418253, -0.0119497, 0.022952, -0.0171534, 0.204626, 0.0110618, 0.0178739, -0.0361123, -0.0020324, 0.038045, 0.0512519, 0.00745004, 0.0458635, -0.0141265, 0.0115268, -0.0566245, 0.00589777, 0.0371148, 0.0273939, 0.0174695, -0.0465957, -0.0263309, 5.93407e-05, -0.00018145, 0.0432464, -0.00023074, -0.0457363},
    {-0.010675, -0.0208272, -0.0073572, -0.00662305, -0.00881073, 0.012288, -0.0098883, -0.0111964, -0.00190015, 0.0191531, 0.00277826, -0.0150739, 0.00676711, 0.0185963, 0.00417034, -0.0201854, 0.0136963, 0.0018627, -0.00848125, 0.00900289, 4.90751e-05, -0.0263147, -0.0054292, -0.018096, 0.0233876, 0.0058564, -0.00392818, 0.143316, -0.00200389, 0.007252, -0.0150197, 0.000430173, 0.0116747, 0.00991265, -0.00710512, 0.0181114, -0.000974501, -0.00142937, -0.00891036, -1.38851e-05, 0.0141231, 0.0204891, 0.00157565, -0.0179727, 0.0023579, -0.0106828, 3.84184e-05, 0.0649141, -0.00049555, -0.0199267},
    {0.0365764, 0.0522245, 0.00651049, -0.0485344, -0.019753, -0.0447082, 0.0770182, -0.0429336, 0.0603889, -0.0436706, -0.0791881, 0.057129, 0.0248032, -0.0364448, -0.0651307, 0.0310417, -0.0163276, 0.0831549, -0.0557344, 0.0446767, 0.0840052, -0.0115029, -0.0179477, 0.0523436, 0.0654724, -0.077999, 0.0683967, 0.0254605, -0.0768319, -0.0432613, 0.0612004, 0.0149137, -0.0463866, 0.0409545, -0.062167, -0.0696599, 0.0777632, -0.0851469, -0.0240717, -0.0632815, -0.0687037, -0.0141836, -0.0878427, 0.0723738, 0.00443149, -0.0555716, 7.37497e-05, -0.00254481, 0.000194167, 0.0591723},
    {0.00855582, 0.0125548, -0.0316832, 0.00943912, 0.00755078, -0.00731834, 0.000497411, 0.0134088, -0.00364898, -0.013004, 0.00502259, 0.00734141, -0.00670811, -0.0135948, 0.00312294, 0.0362954, -0.010598, -0.00916122, 0.0120373, -0.0108884, -0.00799505, 0.0249913, 0.00500526, 0.0100774, -0.0219271, 0.00255198, -0.0027458, -0.153174, 0.00845408, -0.00269731, 0.00681352, -0.00149434, -0.00414658, -0.0107852, 0.0113947, -0.00723239, -0.00616699, 0.00907564, 0.00974127, 0.00550382, -0.00482163, -0.0184008, 0.0070662, 0.00695342, -0.00147258, 0.0141309, -8.01352e-05, -0.111762, 0.000411087, 0.0106893},
    {0.0174274, 0.0225519, -0.0438715, -0.00148154, 0.00704721, -0.0171848, 0.0193245, -0.00122711, 0.0114389, -0.0212633, -0.0172679, 0.0198571, -0.00699249, -0.019935, -0.0119328, 0.0522218, -0.0134817, 0.0125938, 0.000639841, -0.00335886, 0.0132891, 0.0164676, 0.00839506, 0.0204118, -0.00560749, -0.0171825, 0.014451, -0.0887844, -0.010845, -0.0127003, 0.0204224, 0.00207767, -0.012796, 0.0144364, -0.00266876, -0.0232342, 0.0138233, -0.0133629, -0.0130535, -0.0121944, -0.0208029, -0.0184145, -0.0157835, 0.0233733, -0.0104991, 0.000375592, -4.60939e-05, -0.0423214, 0.000223513, 0.0228609},
    {-0.0384914, -0.0543962, -0.0052491, 0.0527025, 0.0225219, 0.0470021, -0.081593, 0.046488, -0.064496, 0.0454254, 0.084271, -0.0600121, -0.0279802, 0.0377829, 0.0694372, -0.0326303, 0.0164558, -0.0891434, 0.060758, -0.0491133, -0.089953, 0.0139083, 0.0206862, -0.0547105, -0.0727418, 0.0829623, -0.072888, -0.0337054, 0.0824828, 0.0457965, -0.0643635, -0.0160537, 0.0488143, -0.04308, 0.0673994, 0.0730155, -0.0831468, 0.0912162, 0.0245258, 0.0675573, 0.0723849, 0.0139579, 0.0938509, -0.0759767, -0.00619376, 0.0604682, -6.52476e-05, 0.00812701, -0.000187477, -0.0618311},
    {-0.0167636, -0.014887, 0.0864737, -0.00182236, -0.0107704, 0.013302, -0.0127878, 0.00296205, -0.00780006, 0.0155848, 0.0144559, -0.0135321, 0.0136515, 0.0149927, 0.00585191, -0.0648865, 0.0110301, -0.00850808, -0.00600471, 0.00864403, -0.00812995, -0.01197, -0.0162183, -0.0130375, 0.0066689, 0.0118709, -0.0102189, 0.0602107, 0.00653739, 0.00927475, -0.013818, -0.00123848, 0.00509654, -0.0289367, -0.00199378, 0.0149378, -0.00957747, 0.00921826, 0.0296406, 0.0103288, 0.0137747, 0.0151369, 0.0107793, -0.014734, 0.0202954, -0.00345909, 7.24593e-05, 0.024427, 1.29215e-05, -0.014809},
    {-0.00236095, -0.00811349, -0.0528532, 0.0418172, 0.0416469, 0.00967071, -0.029559, 0.0265007, -0.0303007, 0.00345814, 0.0299913, -0.014933, -0.0510912, 0.000451627, 0.0350026, 0.00374563, -0.00842488, -0.0454298, 0.0558723, -0.0545925, -0.0459723, 0.0299808, 0.0513705, -0.0115962, -0.086739, 0.0334826, -0.0312052, -0.0786833, 0.0452771, 0.0151952, -0.0170768, -0.00959493, 0.0201585, 0.0248055, 0.0521207, 0.0170504, -0.0393773, 0.0452227, -0.045292, 0.0275971, 0.0212239, -0.0134904, 0.0432172, -0.019738, -0.0490373, 0.0495551, -6.0266e-05, 0.0871821, -0.000267573, -0.0121554},
    {-0.00660734, -0.00573344, 0.0484497, -0.00104902, 0.000554324, 0.00478556, -0.00153089, -0.0039303, -0.000623461, 0.00659061, -6.44603e-05, -0.00406757, -0.00133048, 0.00700596, 0.000276516, -0.0450917, 0.00465305, 0.000925778, -0.00134598, 0.000504334, 0.000667342, -0.00970056, 0.00207933, -0.00478161, -0.00228577, 0.000850441, -0.00105024, 0.0763558, -0.000517005, 0.00264436, -0.00387995, -0.000147872, 0.00177349, 0.00470022, -0.00134284, 0.00287518, -3.64979e-05, -0.000960542, -0.0073309, -0.000169031, 0.00283878, 0.00907014, -0.000456282, -0.00297852, -0.00323762, -0.00281209, 7.80149e-05, 0.093353, -0.000308545, -0.00480666},
    {0.0222094, 0.0301761, -0.0292853, -0.0121148, 0.00186036, -0.0240445, 0.0334788, -0.0111733, 0.023137, -0.0270569, -0.0324553, 0.0291965, -0.000867066, -0.0242495, -0.0246369, 0.0455207, -0.0145667, 0.0293152, -0.0118285, 0.00692553, 0.0300514, 0.0102397, 0.00371207, 0.0285022, 0.00864375, -0.0319387, 0.0274419, -0.0598186, -0.0263459, -0.0201495, 0.0306083, 0.00505398, -0.021031, 0.0223492, -0.016133, -0.0350521, 0.02908, -0.0304247, -0.0177997, -0.0245798, -0.0327458, -0.0177, -0.0330383, 0.035743, -0.00868931, -0.0123, -2.90494e-05, -0.0221154, 0.000219105, 0.0321176},
    {-0.0159308, -0.00350062, 0.174426, -0.021487, -0.0245938, 0.0052547, 0.00928246, -0.0108244, 0.0102053, 0.00894008, -0.00608034, 0.000220802, 0.0321188, 0.0109976, -0.0163561, -0.124034, 0.0117526, 0.0181361, -0.0322357, 0.0318795, 0.0194546, -0.0249805, -0.0338513, -0.000277247, 0.0381941, -0.0107078, 0.00931834, 0.11233, -0.0188839, -0.00114007, 0.00135235, 0.0036922, -0.0115212, -0.034519, -0.0277465, -0.00381638, 0.014071, -0.017766, 0.0409362, -0.00666126, -0.00461961, 0.0207246, -0.0163979, 0.00516582, 0.0356456, -0.0276388, 0.000105177, 0.0799533, -4.00734e-05, -0.000452953},
    {-0.0353975, -0.0498338, 0.0195967, 0.0219432, -0.00469321, 0.0396853, -0.058573, 0.0228843, -0.0407679, 0.0438278, 0.0582302, -0.049248, 0.0038803, 0.0385498, 0.0434712, -0.0391578, 0.023037, -0.0528966, 0.0214144, -0.0118724, -0.0539257, -0.0115708, -0.00982154, -0.0474393, -0.0128603, 0.0563397, -0.0481859, 0.0624521, 0.047208, 0.0341195, -0.0518788, -0.00885194, 0.0359328, -0.0464599, 0.029293, 0.0604963, -0.0517945, 0.0549223, 0.0410772, 0.0441456, 0.0563909, 0.025563, 0.0592008, -0.0615894, 0.0201104, 0.0235865, 8.05672e-06, -0.0148015, -0.000288266, -0.0539065},
};

float layer_1_bias[NUM_NEURONS] = {0.0423178, 0.00158548, -0.131349, -0.0197565, -0.0446151, -0.0178399, 0.00234121, 0.00439095, 0.0137108, -0.0146019, -0.00455969, 0.00353908, 0.0378075, -0.018898, -0.0020363, 0.258947, -0.000636513, 0.016484, -0.00544251, 0.0168318, 0.0148467, 0.0476527, -0.0420033, -0.00136096, -0.0903631, -0.00941256, 0.0149996, 0.0405049, -0.0209653, -0.0121988, 0.0038796, 0.00693758, 0.0175769, -0.0547775, -0.0123856, 0.0173156, 0.0178194, -0.0152957, 0.089391, -0.00862456, 0.00237375, -0.035897, -0.0139416, -0.0124831, 0.0502124, 0.00241141, -0.000164031, -0.36092, -0.000769875, -0.00360753};

float layer_2_weight[NUM_NEURONS][nkoop] = {
    {0.0225141, -0.00945082, -0.0525254, -0.00765525, -0.0217829, -0.000620468, -0.00782537, -0.0120562, -0.0039238, -0.0291697, -0.0354569, -0.0220437, -0.000114297, -0.0251121, -0.00622725, 0.0104053, -0.0262158, -0.0338735, -0.0372809, -0.00700242, 0.0104374, -0.0214572, -0.00346231, -0.0170848, -0.0100087, -0.0104575, -0.0254666, 0.00952533, 0.00281553, -0.00807908, -0.0212911, 0.00159958, 0.0209495, -0.0301615, -0.0091659, 0.0212571, -0.0283672, 0.0585984, 0.0393531, 0.0237619},
    {0.0374086, -0.0295556, -0.0669254, 0.0137725, -0.0202732, -0.00794683, 0.00963759, -0.00535518, -0.00558733, -0.0356421, -0.029607, -0.0300255, -0.0235268, -0.0337286, -0.000877109, 0.00923299, -0.0350885, -0.0177109, -0.0366765, -0.0271659, 0.018028, -0.0246124, 0.0158221, -0.00915655, -0.0073321, -0.0337593, -0.011411, 0.0240955, -0.00559846, -0.000840385, -0.00297621, -0.0343404, -0.00161143, -0.0441222, -0.0132785, 0.0263165, -0.0258413, 0.0935859, 0.0428426, 0.0158495},
    {0.0725511, -0.0329979, 0.0889529, 0.0744272, 0.110556, -0.0469819, 0.143218, 0.0907533, -0.0355123, 0.0183608, 0.131976, 0.00985056, -0.0987052, -0.057978, 0.030282, -0.0139006, 0.0404744, 0.193242, 0.142771, -0.145735, -0.102706, 0.0463522, 0.065183, -0.0217031, 0.0351216, -0.0840294, 0.205328, 0.00395227, -0.0152161, 0.0560518, 0.114107, -0.172692, -0.0477647, 0.0707104, 0.0411568, -0.0210253, 0.0634724, -0.0367702, -0.0528083, -0.0165563},
    {-0.0423177, -0.0194653, 0.0231719, -0.000460274, -0.0506658, 0.00679707, -0.00102045, -0.0124523, -0.00314187, -0.00778186, 0.0412055, 0.0171312, 0.0309957, 0.0114982, 0.00592614, -0.0150271, 0.0109848, 0.00774785, -0.00722108, 0.00967335, 0.0576538, -0.0220753, -0.00161647, 0.041546, -0.0486218, -0.00415001, -0.0209859, 0.0262551, 0.0126492, -0.019776, 0.0341393, 0.0365406, -0.00913672, 0.0216363, -0.0200255, -0.0152543, -0.0260479, -0.0297898, -0.018589, -0.042195},
    {-0.0151927, -0.0253544, -0.00929634, -0.0121582, -0.0665553, 0.00669237, -0.00709801, -0.0238126, -0.00756778, -0.0107288, 0.0345381, -0.00332559, 0.0254912, -0.00831844, 0.0141592, -0.00718296, -0.00509082, -0.00665633, -0.044091, 0.0104384, 0.0721581, -0.0240531, 0.00101069, 0.0334592, -0.0518663, -0.0110323, -0.0467375, 0.0219091, 0.00858089, -0.0233816, 0.0446372, 0.0159835, -0.0129481, -0.00667077, -0.0355168, -0.00107593, -0.0356903, 0.0252282, -0.0127598, -0.0333314},
    {-0.0320678, 0.0142428, 0.0543471, -0.00199903, 0.0117872, 0.00447538, -0.000732789, 0.00599498, 0.00380099, 0.0255842, 0.0321306, 0.0250974, 0.0144574, 0.0271291, 0.00269818, -0.0104542, 0.0280055, 0.0226125, 0.0318765, 0.0152372, -0.00577877, 0.0162985, -0.00574179, 0.016365, 0.00113336, 0.0183766, 0.0141805, -0.0102067, 0.00316142, 0.00126067, 0.0131522, 0.0198817, -0.00848601, 0.0353121, 0.00784495, -0.0223207, 0.0195182, -0.070367, -0.0363356, -0.0219564},
    {0.065177, -0.0107944, -0.0723517, 0.00215361, 0.00930063, -0.00857446, 0.00257053, -0.00200003, -0.00445928, -0.0200029, -0.047625, -0.0405599, -0.0370291, -0.0392902, -0.000140225, 0.0182908, -0.0371282, -0.0229858, -0.0384359, -0.0218558, -0.0153804, -0.00321823, 0.0122921, -0.0350513, 0.0216885, -0.0215323, -0.00956394, -0.00308251, -0.0131179, 0.0103664, -0.0157641, -0.0534982, 0.0035354, -0.0557015, -0.00568222, 0.0340705, -0.00733443, 0.106071, 0.0412708, 0.0408055},
    {-0.042303, -0.020929, 0.0235829, 0.0201643, -0.0267704, 0.000199229, 0.0122504, 0.00239492, -1.354e-06, -0.0162167, 0.0276278, 0.0209912, 0.0154073, 0.0142162, -0.00314457, -0.0158618, 0.0103842, 0.0172437, 0.0198627, -0.00729977, 0.0346205, -0.0235039, 0.00456443, 0.03549, -0.0335641, -0.0120986, 0.0103765, 0.034314, 0.009943, -0.0102006, 0.0165509, 0.0277083, -0.00712855, 0.0277361, -0.00402539, -0.0155081, -0.0169574, -0.0383426, -0.00382711, -0.0350399},
    {0.0511614, 0.00376245, -0.0495392, -0.00307837, 0.0213569, -0.00623512, -0.00129507, 0.00121521, -0.00159167, -0.00808137, -0.0428073, -0.0292263, -0.02836, -0.0266638, -0.00240635, 0.0165318, -0.0245897, -0.0198445, -0.0221993, -0.01266, -0.0289823, 0.00600656, 0.00440424, -0.036417, 0.0285378, -0.00769776, -0.00216654, -0.0135147, -0.010502, 0.0111726, -0.0232965, -0.0385622, 0.00889591, -0.0389744, 0.00329768, 0.0248354, 0.00383646, 0.0691362, 0.0301001, 0.0398773},
    {-0.0287127, 0.0258129, 0.0613018, -0.00895666, 0.0244523, 0.00559251, -0.00551064, 0.00770497, 0.00527604, 0.0357938, 0.0288313, 0.0258944, 0.0145023, 0.0301488, 0.00274399, -0.00824371, 0.0318021, 0.0217806, 0.0359637, 0.0218199, -0.0199129, 0.0265373, -0.010323, 0.0080218, 0.012072, 0.0282744, 0.0155218, -0.0233862, 0.00189276, 0.00447776, 0.00702769, 0.0204161, -0.00474434, 0.0379026, 0.0127592, -0.0235174, 0.0289902, -0.0803762, -0.0419343, -0.0148453},
    {-0.0694629, -0.000774341, 0.0713507, 0.0136378, -0.00964838, 0.00477293, 0.00828384, 0.00802458, 0.00469256, 0.0107359, 0.0504692, 0.0431572, 0.0296334, 0.0395782, -0.00184845, -0.0220635, 0.0356369, 0.0327249, 0.0488152, 0.00955701, 0.0199656, -0.00455601, -0.00417707, 0.0431616, -0.0251246, 0.00959453, 0.0233398, 0.0177275, 0.0124216, -0.00834639, 0.0195317, 0.0470534, -0.0101944, 0.0583716, 0.00734886, -0.0352986, 0.00527916, -0.104289, -0.0353148, -0.048139},
    {0.0440245, -0.0198471, -0.0644402, 0.00723671, -0.00891651, -0.00715885, 0.0052307, -0.00429064, -0.00464063, -0.0272626, -0.0346646, -0.0316163, -0.0253226, -0.0331294, -0.000646379, 0.0121861, -0.0335644, -0.0197729, -0.0356671, -0.0220129, 0.00506133, -0.0154156, 0.0124251, -0.0182157, 0.00330461, -0.0259062, -0.0114985, 0.0118891, -0.00750379, 0.00256839, -0.00859899, -0.0367817, 0.00162781, -0.0451156, -0.00963135, 0.0270946, -0.0178688, 0.0906019, 0.039541, 0.0241834},
    {0.0185082, 0.024319, 0.00838317, 0.0228662, 0.0822648, -0.0106188, 0.0140953, 0.0327844, 0.00964144, 0.0126792, -0.0381269, 0.00301018, -0.0367731, 0.0102629, -0.0143809, 0.00716418, 0.00356269, 0.0157398, 0.0562538, -0.0176031, -0.0829597, 0.0274339, 0.00473361, -0.0357784, 0.0640335, 0.00649856, 0.0629158, -0.0208554, -0.0126688, 0.0297381, -0.0486791, -0.0292525, 0.00654257, 0.00641332, 0.0432999, -6.45437e-05, 0.0453694, -0.0252601, 0.0147468, 0.034902},
    {-0.0217881, 0.0245815, 0.0555443, -0.00854069, 0.0257016, 0.00471963, -0.00492152, 0.00756444, 0.00486308, 0.0353311, 0.025924, 0.0220986, 0.0101294, 0.0267036, 0.00353286, -0.00673069, 0.0287912, 0.020969, 0.0322805, 0.0198271, -0.0213282, 0.0275623, -0.00835937, 0.00534262, 0.0146373, 0.0261257, 0.0148627, -0.024374, -1.79234e-05, 0.00603696, 0.00761721, 0.0134509, -0.00622798, 0.0324173, 0.0117366, -0.0204362, 0.0293596, -0.0699311, -0.0399255, -0.0119003},
    {-0.0556845, 0.0002715, 0.0515155, -0.00540243, -0.0280278, 0.00905121, -0.00488038, -0.00611598, 0.0011907, 0.00811717, 0.0423297, 0.0307269, 0.0377588, 0.0273939, 0.00154104, -0.0160661, 0.0261996, 0.0125793, 0.0168067, 0.0192931, 0.0316908, -0.00730295, -0.0105679, 0.0355294, -0.033843, 0.0137477, -0.00692425, 0.010585, 0.0139352, -0.0154759, 0.019944, 0.0513925, -0.00156169, 0.0413774, -0.00516424, -0.0253052, -0.0087141, -0.0756462, -0.0306352, -0.0387175},
    {-0.0424231, -0.0232219, -0.103625, -0.0443192, -0.0317671, -0.00941191, -0.0938476, 0.0263352, 0.03862, -0.0860894, -0.155716, -0.0333715, 0.0515412, -0.0142045, -0.0162671, -0.00304211, -0.0640218, -0.073259, -0.0307731, 0.0754969, 0.0592375, -0.106842, -0.0624999, -0.0263461, -0.0151235, 0.0529145, -0.0597393, 0.0707195, 0.0191277, -0.0273433, -0.137179, 0.0741547, 0.0767127, -0.00433235, 0.0076047, 0.0230337, -0.077468, 0.0221854, 0.124638, 0.0583093},
    {-0.00780472, 0.0204502, 0.0347744, -0.00438851, 0.0281148, 0.00172357, -0.00280331, 0.0081048, 0.00421482, 0.0232294, 0.0073312, 0.0131442, 0.00085121, 0.0165991, -0.000988394, -0.00220648, 0.0182244, 0.012166, 0.0260927, 0.0104661, -0.0282177, 0.0221444, -0.00579967, -0.00488864, 0.0190945, 0.0189031, 0.016304, -0.0205449, -0.00186398, 0.00865858, -0.00447114, 0.00484712, 9.14543e-05, 0.0196717, 0.013155, -0.0106184, 0.0239264, -0.0450284, -0.0210805, 0.00121921},
    {0.0732896, 0.0118412, -0.0625527, -0.00812844, 0.0385646, -0.00784905, -0.00356859, 0.00352258, -0.00130624, -0.00358291, -0.0588083, -0.0396275, -0.0393424, -0.0347496, -0.00255679, 0.0236174, -0.0307863, -0.0251524, -0.0268782, -0.0140405, -0.049232, 0.0156812, 0.0038915, -0.0550605, 0.0467574, -0.00461381, -0.000487262, -0.0268754, -0.0158022, 0.0175849, -0.0333442, -0.0555621, 0.0125434, -0.0514563, 0.00783181, 0.033127, 0.0124892, 0.0890074, 0.0357627, 0.0585067},
    {-0.0490251, -0.0248923, 0.0222207, -0.00714857, -0.0747097, 0.00976499, -0.00559802, -0.0232482, -0.00631448, -0.018419, 0.0453704, 0.0187048, 0.0427467, 0.00805962, 0.00437907, -0.0173187, 0.0118798, -0.00220802, -0.0200087, 0.0130088, 0.0761412, -0.0325703, -0.00558845, 0.0489202, -0.0693256, -0.00444329, -0.0373347, 0.0342989, 0.0189276, -0.0282163, 0.0398552, 0.0541597, -0.00202288, 0.0227175, -0.0311267, -0.0130387, -0.0431816, -0.0272907, -0.0156139, -0.047442},
    {0.0380628, 0.0266721, -0.0108899, 0.0105658, 0.0781585, -0.00949947, 0.00718028, 0.0261398, 0.00756902, 0.0182188, -0.0430642, -0.0110938, -0.0393799, -0.00116834, -0.00758317, 0.0144587, -0.0060413, 0.00582746, 0.0320921, -0.0128159, -0.0799372, 0.0320764, 0.00406327, -0.0454289, 0.0685384, 0.00689589, 0.045081, -0.0318408, -0.0167539, 0.0285776, -0.0441258, -0.0443929, 0.00443933, -0.0125801, 0.0359495, 0.00814005, 0.0448333, 0.00733224, 0.0143283, 0.0439703},
    {0.0736885, 0.00882431, -0.0637555, -0.00391429, 0.0389859, -0.00902472, -0.000750747, 0.00512951, -0.00132544, -0.00583728, -0.0586376, -0.0397782, -0.0422951, -0.0352713, -0.00284469, 0.0228506, -0.0316504, -0.0226342, -0.0247972, -0.0174403, -0.0483428, 0.0140857, 0.00635108, -0.0535508, 0.0465392, -0.00795304, 0.00293954, -0.0234399, -0.0163885, 0.0185278, -0.032151, -0.0586977, 0.0104057, -0.05173, 0.00803241, 0.0333732, 0.0122402, 0.0913456, 0.0374372, 0.0572092},
    {-0.0235118, -0.0399034, -0.0237269, 0.0207239, -0.0568666, -0.00234323, 0.0133473, -0.0124984, -0.00755096, -0.0545926, 0.000672767, 0.00276765, 0.0120069, -0.0125168, -0.0110514, -0.00913935, -0.0107824, -0.0118944, -0.0120195, -0.0234892, 0.0513008, -0.0500654, 0.00709618, 0.027964, -0.0544343, -0.0316887, -0.00945609, 0.0562701, 0.0146827, -0.0177988, 0.00450111, 0.0294716, 0.00906308, -5.1146e-05, -0.0172521, 0.00614957, -0.0511567, 0.0205253, 0.036482, -0.0193856},
    {-0.0116931, -0.0229255, -0.0157511, -0.0298344, -0.0871094, 0.011934, -0.0182906, -0.0374633, -0.0109637, -0.0116126, 0.0360498, -0.0082721, 0.0381801, -0.015171, 0.0164057, -0.00418858, -0.006808, -0.0222721, -0.0679339, 0.0207414, 0.0855765, -0.0265199, -0.00644463, 0.0320901, -0.0649029, -0.00533237, -0.0730924, 0.0165325, 0.0121026, -0.0314119, 0.0501227, 0.0270698, -0.00509821, -0.0136746, -0.0475321, 0.00380806, -0.0480081, 0.0375962, -0.0144192, -0.031038},
    {0.0387653, -0.0251673, -0.0628039, 0.0128031, -0.0126809, -0.00800018, 0.00911848, -0.00298807, -0.00470011, -0.0301934, -0.0296409, -0.0292948, -0.0253756, -0.0316769, -0.000370932, 0.00985102, -0.0330775, -0.0152946, -0.0324963, -0.025357, 0.011343, -0.0193939, 0.0152998, -0.011823, -0.00112555, -0.0304917, -0.00815147, 0.0188212, -0.00697693, 0.00161658, -0.00418965, -0.0368999, -0.00238894, -0.0426032, -0.0103997, 0.0249907, -0.0196635, 0.0887068, 0.0392879, 0.0177227},
    {0.0520151, 0.0524928, -0.0289871, -0.00428623, 0.136442, -0.0075291, 0.00541784, 0.0543936, 0.0198745, 0.0813274, -0.0349718, -0.0300624, -0.0390163, 0.00534001, 0.0224863, 0.0339647, -0.0217695, 0.0288147, 0.0327375, -0.0032557, -0.118777, 0.0677236, -0.00191045, -0.0749936, 0.137664, 0.0163762, 0.0638759, -0.0825423, -0.0349666, 0.0345487, -0.0519088, -0.10375, -0.0170848, -0.0318526, 0.0718495, -0.00954938, 0.104801, 0.0145074, -0.017231, 0.0541997},
    {-0.066815, 0.00305996, 0.0689496, 0.00252165, -0.0169067, 0.00785003, 0.00058704, 0.00123469, 0.00358987, 0.0151426, 0.0513146, 0.0400392, 0.036066, 0.0377928, 0.00112854, -0.0199178, 0.0348828, 0.0251392, 0.0359185, 0.0181601, 0.0250684, -0.00221698, -0.00849684, 0.0413389, -0.0282202, 0.0151701, 0.0086438, 0.0108578, 0.0132126, -0.0118293, 0.0218314, 0.0514673, -0.00787258, 0.0538814, 0.00202099, -0.0337442, 0.00235171, -0.0995596, -0.039633, -0.0464919},
    {0.057817, 0.000637945, -0.0592557, -0.0034283, 0.0180702, -0.00678615, -0.00152457, -0.000471985, -0.0025741, -0.0124678, -0.047648, -0.0342162, -0.0308221, -0.0321248, -0.002328, 0.0181941, -0.0297033, -0.0236721, -0.0293229, -0.0149764, -0.0266164, 0.00319064, 0.00556553, -0.0389527, 0.0273544, -0.0109185, -0.00614341, -0.0118415, -0.0111447, 0.0107715, -0.0237961, -0.0426064, 0.00992671, -0.0457652, 0.000670435, 0.0292101, -0.000391833, 0.0831101, 0.0357276, 0.0434062},
    {0.128535, 0.0604278, 0.0329073, -0.0510451, 0.10802, 0.0368508, -0.173101, 0.161779, 0.0584932, 0.120408, -0.10258, -0.0589472, -0.0502534, 0.0451212, -0.00906008, -0.0635074, -0.0686823, 0.127438, 0.0163635, 0.214799, -0.012477, 0.0705032, -0.0641856, -0.109079, 0.0875965, 0.200067, -0.0867069, -0.175465, -0.0373779, 0.069837, 0.00156416, -0.0305448, 0.0464955, 0.0903914, -0.0243139, -0.0146082, 0.0315359, -0.152605, -0.05451, 0.0932156},
    {-0.0668388, -0.0126822, 0.0556227, 0.00477878, -0.0414607, 0.00820837, 0.00157996, -0.00599316, 0.000366945, 0.00335324, 0.0567357, 0.0349375, 0.0384385, 0.0304906, 0.00427676, -0.0217948, 0.0272481, 0.0217842, 0.0186744, 0.0149172, 0.0517655, -0.0156667, -0.00377754, 0.0526822, -0.0471143, 0.00398536, -0.00577932, 0.02512, 0.0149274, -0.0181996, 0.0351843, 0.0515553, -0.0127467, 0.0451574, -0.0110771, -0.0298931, -0.0145877, -0.0773523, -0.0346423, -0.0558361},
    {-0.0337452, 0.00666181, 0.0446327, -0.00083233, -0.00114637, 0.00466222, -0.000650039, 0.00238295, 0.00242852, 0.0158469, 0.0303761, 0.0226351, 0.0176938, 0.0229197, 0.00194839, -0.0108038, 0.0228492, 0.0175132, 0.0234905, 0.0126417, 0.00625221, 0.00648594, -0.00513083, 0.020006, -0.0090119, 0.0127875, 0.00738052, -0.00118341, 0.00534197, -0.00337346, 0.0138637, 0.0238995, -0.0064549, 0.0312212, 0.00303383, -0.0196334, 0.00850337, -0.059871, -0.0286681, -0.0239818},
    {0.0479052, -0.0196525, -0.0673119, 0.00705743, -0.00719713, -0.00757224, 0.00518641, -0.00417177, -0.00477903, -0.0275444, -0.0373183, -0.0335836, -0.0275752, -0.034921, -0.000738282, 0.0131789, -0.0350137, -0.0207142, -0.0370229, -0.0228813, 0.00282872, -0.0145965, 0.0128974, -0.0206555, 0.00535753, -0.0263251, -0.0115139, 0.010737, -0.00838199, 0.00362718, -0.00966494, -0.0398215, 0.00196255, -0.0477105, -0.0095339, 0.0288612, -0.0174373, 0.0952688, 0.041145, 0.0268501},
    {0.012548, 0.00334297, -0.0105999, -0.000579025, 0.00919999, -0.00189759, -0.000462897, 0.00154254, 0.000240887, -0.000951973, -0.0122149, -0.0062652, -0.00785895, -0.00543097, -0.00150228, 0.00423876, -0.00460631, -0.00492951, -0.00257056, -0.00292296, -0.0120746, 0.00333106, 0.000345202, -0.0106947, 0.0100996, -0.000528735, 0.00252131, -0.00519438, -0.0027249, 0.00425914, -0.00882932, -0.00914034, 0.00313642, -0.00820753, 0.00304542, 0.00572435, 0.00334614, 0.0134649, 0.00764299, 0.0115411},
    {-0.0374236, 0.015783, 0.0441255, -0.0165583, -0.00994208, 0.00925457, -0.0124345, -0.00615091, 0.0018732, 0.0142163, 0.02305, 0.0231429, 0.0327149, 0.0220318, -0.00111507, -0.00850046, 0.0237954, 0.00138876, 0.0131584, 0.0235099, 0.00604371, 0.0044661, -0.0172921, 0.0132943, -0.0154985, 0.0243162, -0.00824671, -0.0080747, 0.0113007, -0.0101243, 0.00227581, 0.0461702, 0.0103419, 0.0334186, 0.0012925, -0.017902, -0.000488478, -0.0678181, -0.0253227, -0.0164267},
    {0.0429818, 0.00446876, -0.0606168, -0.0712475, -0.0729945, 0.0188447, -0.0481926, -0.0541283, -0.0137825, 0.0100475, -0.00251751, -0.043609, 0.0316407, -0.0375443, 0.0250716, 0.0207543, -0.0264682, -0.0625922, -0.121364, 0.0438495, 0.0573055, -0.000431682, -0.0192421, -0.0126398, -0.0329293, 0.0134981, -0.116593, -0.0310178, 0.000434514, -0.0264524, 0.0272485, 0.00392775, 0.00842876, -0.063359, -0.0524387, 0.0286893, -0.0404545, 0.102129, -0.0086004, 0.0157825},
    {-0.0546575, -0.0220603, 0.0320845, -0.00201208, -0.0634446, 0.00884937, -0.00257038, -0.0167385, -0.00399801, -0.0115458, 0.0490614, 0.0235196, 0.0404246, 0.0152068, 0.00475126, -0.0188958, 0.0159647, 0.0066962, -0.007104, 0.0127947, 0.0687895, -0.0276185, -0.00417388, 0.0505631, -0.0617603, -0.00277898, -0.0261981, 0.0321831, 0.0172447, -0.024702, 0.0386277, 0.0517955, -0.00651691, 0.0295517, -0.0243344, -0.0186342, -0.0338279, -0.0425571, -0.0213867, -0.0506378},
    {-0.0568967, 0.0272639, 0.0762968, -0.0100354, 0.0119252, 0.00922262, -0.00818469, 0.00593937, 0.00654942, 0.02889, 0.034477, 0.0396567, 0.0344947, 0.0406168, -0.00339737, -0.013903, 0.0398007, 0.01848, 0.0456423, 0.0271525, -0.0103782, 0.0152903, -0.0192336, 0.0180322, -0.00376569, 0.0340542, 0.0147206, -0.0141023, 0.0116532, -0.00449028, -0.000597656, 0.0539037, 0.00701048, 0.0573374, 0.0154417, -0.0327105, 0.0190915, -0.115734, -0.0407084, -0.0243973},
    {0.0673057, 0.0065193, -0.0622875, -0.00597525, 0.0291176, -0.00754366, -0.00267149, 0.00153575, -0.00203236, -0.00865844, -0.0550223, -0.0377684, -0.0359797, -0.0344062, -0.00285061, 0.0213786, -0.0308655, -0.0252784, -0.028572, -0.0150141, -0.0393404, 0.00957618, 0.00465735, -0.0485055, 0.0378849, -0.00779506, -0.00324866, -0.0197905, -0.0136657, 0.014592, -0.0297493, -0.0498645, 0.0121573, -0.0496067, 0.00441826, 0.0321683, 0.00592672, 0.0879572, 0.0370645, 0.0526572},
    {-0.0752196, -0.0109029, 0.0650883, 0.00866415, -0.0370696, 0.0078476, 0.00389029, -0.00273041, 0.00167875, 0.0043602, 0.0594447, 0.0411389, 0.0397875, 0.0362867, 0.00211647, -0.0240239, 0.0321143, 0.026126, 0.0295242, 0.0142313, 0.0477812, -0.0150833, -0.00421399, 0.0554019, -0.0460598, 0.00538206, 0.00238272, 0.0266258, 0.0160066, -0.0173096, 0.0325365, 0.0568267, -0.0123781, 0.0535156, -0.00656818, -0.0342708, -0.011258, -0.0931941, -0.0365785, -0.0590494},
    {-0.030231, 0.00630565, 0.0530101, 0.0766599, 0.102358, -0.0206773, 0.048999, 0.0635744, 0.0175325, -0.0118843, -0.0243205, 0.0410971, -0.0439652, 0.0392929, -0.034011, -0.0176701, 0.024273, 0.0588001, 0.13584, -0.0480932, -0.0904784, 0.00836425, 0.0169635, -0.00677092, 0.0569425, -0.00908035, 0.136148, 0.023008, -0.00291521, 0.0359631, -0.0565458, -0.0072196, 0.00268819, 0.0607501, 0.0684898, -0.0237508, 0.0520772, -0.103755, 0.022982, 0.00502839},
    {-0.0551014, -0.00573498, 0.0537349, 0.0118322, -0.0148575, 0.0040039, 0.00710156, 0.00443936, 0.00278624, 0.00537423, 0.0426125, 0.03299, 0.0241289, 0.0295686, -0.000312536, -0.0185933, 0.026431, 0.0261396, 0.0340914, 0.00662498, 0.0240617, -0.00729913, -0.00160803, 0.038208, -0.0258176, 0.00434797, 0.0145796, 0.0184966, 0.0101662, -0.0083982, 0.0207158, 0.036879, -0.0102982, 0.0442962, 0.00168094, -0.0270204, -0.000747646, -0.0766886, -0.0275852, -0.041643},
    {-0.0560384, 0.0187538, 0.0713997, -0.00616222, 0.00301649, 0.00827877, -0.00505199, 0.00391535, 0.00512526, 0.0253284, 0.0400109, 0.0375296, 0.0325538, 0.0378597, -0.000563557, -0.015099, 0.0370522, 0.0209019, 0.0398547, 0.0235733, 0.00115668, 0.010989, -0.0144114, 0.0246908, -0.0103562, 0.0267477, 0.0118652, -0.00696707, 0.010858, -0.00613268, 0.00896294, 0.0480467, -0.000109498, 0.0530122, 0.00985137, -0.0316061, 0.0145458, -0.10431, -0.0410779, -0.0308243},
    {0.000510288, 0.0272239, 0.0424883, -0.00903817, 0.0396057, 0.00203812, -0.00446087, 0.0107408, 0.00528527, 0.0416751, 0.0165146, 0.0113015, -0.00463979, 0.0191548, 0.00697206, -0.00112924, 0.0213835, 0.0212743, 0.0259126, 0.0168352, -0.0341121, 0.0372555, -0.0038232, -0.00689221, 0.0311582, 0.0243772, 0.0167008, -0.0348924, -0.00759777, 0.0133444, 0.00663894, -0.01064, -0.0112292, 0.0178561, 0.0129311, -0.0131439, 0.0386998, -0.0448908, -0.0383472, -0.000275015},
    {-0.0771694, -0.00536581, 0.0708414, 0.00631605, -0.0312084, 0.00848775, 0.00245122, -0.00148721, 0.00268106, 0.00950214, 0.0598154, 0.0434923, 0.0412863, 0.0396083, 0.00187176, -0.0236059, 0.0353238, 0.0268226, 0.0338266, 0.0172548, 0.0414, -0.0105945, -0.00650925, 0.0531427, -0.0414422, 0.0100509, 0.0047334, 0.0214102, 0.0159246, -0.0163389, 0.0296189, 0.0588569, -0.0111593, 0.0570067, -0.00322827, -0.0365108, -0.00612596, -0.102353, -0.0402547, -0.0576758},
    {0.0591708, -0.0263679, -0.0775338, 0.0107954, -0.0083773, -0.00973766, 0.00862476, -0.0046008, -0.0062667, -0.0296427, -0.0379765, -0.0403267, -0.0365137, -0.0413412, 0.00214576, 0.0145492, -0.040476, -0.0188579, -0.0439038, -0.0285014, 0.0060818, -0.0146961, 0.019222, -0.0208289, 0.00653197, -0.0339073, -0.0123426, 0.0132755, -0.0121121, 0.00593004, -0.00259854, -0.0552245, -0.00532287, -0.0578891, -0.0136413, 0.0337667, -0.0180979, 0.116611, 0.0431454, 0.0274799},
    {-0.00128945, 0.0186924, 0.028715, 0.0418516, 0.0911861, -0.0140922, 0.0258212, 0.0442898, 0.0128142, 0.00761001, -0.030638, 0.0179353, -0.0391877, 0.0230211, -0.0200667, -0.00187571, 0.0125808, 0.0332653, 0.0866767, -0.026576, -0.0859761, 0.0227569, 0.0094682, -0.0236554, 0.0625201, 0.0024647, 0.0889767, -0.00676442, -0.010062, 0.0328611, -0.0500258, -0.0214705, 0.00283326, 0.0270704, 0.0526926, -0.0102233, 0.0499032, -0.0581613, 0.0139973, 0.022424},
    {-0.0511139, -0.0257863, 0.0240955, 0.00292626, -0.0632643, 0.00675958, 0.000754336, -0.0158799, -0.00464813, -0.0209059, 0.041094, 0.0214142, 0.0361728, 0.0108373, 0.000981658, -0.0183561, 0.012324, 0.00389412, -0.0062162, 0.00579777, 0.0663308, -0.0329172, -0.00246797, 0.0476836, -0.0624314, -0.00791748, -0.0219674, 0.0382534, 0.0177695, -0.0239545, 0.0325588, 0.0505593, -0.0026909, 0.0268368, -0.0232127, -0.014697, -0.0382158, -0.034378, -0.0106415, -0.0460725},
    {4.32732e-05, -8.24012e-05, -0.000106577, 5.99028e-05, -2.47066e-05, -0.000133761, -0.000246382, -6.94344e-05, -0.000103923, -9.89812e-05, -0.000196299, -0.000108649, -0.0002014, 4.53356e-05, 5.38803e-05, 2.34777e-05, 0.000157711, 2.73413e-05, 7.9563e-06, 0.000210227, 0.000141936, -1.91168e-05, -3.13889e-05, 4.11146e-05, -6.94643e-05, -7.14174e-05, -9.86933e-05, 0.000222874, -5.89299e-05, 4.31082e-06, -0.00019429, -5.49835e-05, -0.000113886, -3.89645e-05, 2.13105e-05, 2.42547e-05, -9.02945e-05, -3.69918e-05, 5.84616e-05, 0.000107623},
    {0.0778403, -0.0295922, 0.128632, -0.0216565, -0.0521878, -0.0716935, -0.0461923, -0.243331, -0.0518213, 0.0602768, 0.0209832, 0.0957106, -0.131734, 0.0198069, -0.000197711, 0.0461509, 0.0632889, -0.134779, -0.153706, -0.0240626, 0.00770355, 0.16709, 0.149534, 0.0677795, -0.0774131, 0.022082, -0.18211, -0.113521, -0.0470201, -0.00280297, 0.190407, -0.0706147, -0.121813, -0.076893, -0.19831, 0.0570757, 0.0115012, 0.1026, -0.12048, 0.00612358},
    {0.000487701, 0.000408565, -0.000132241, 0.000211139, 0.000241394, -0.000402785, -0.000298435, -0.000395623, 0.00046746, 0.000135122, -0.000934454, 7.17431e-05, -0.000885239, 0.000425231, -0.000261842, 8.22454e-05, -0.000270472, -0.000664082, -0.000272513, 0.000351753, 0.000136726, 0.000361283, 0.00040884, -0.000181587, 0.000566903, 6.34815e-05, -0.000204196, -0.000108168, -0.000258025, -6.63646e-05, -0.000480284, -0.000109985, -0.000332114, -0.000174447, -0.000469895, 7.50883e-05, 0.000538082, 0.000846437, 0.000189459, -6.09006e-06},
    {0.0448449, -0.0285966, -0.0706352, 0.0129419, -0.0162112, -0.00860736, 0.00942303, -0.00500475, -0.00576622, -0.0335849, -0.0323965, -0.0335358, -0.0280859, -0.036312, 0.000201713, 0.0110446, -0.0370092, -0.0179657, -0.0391188, -0.0277453, 0.0140054, -0.0212432, 0.0171276, -0.0130464, -0.00253384, -0.0339616, -0.0115768, 0.0204798, -0.00789662, 0.00150312, -0.00276581, -0.041689, -0.00306382, -0.0488899, -0.0133903, 0.028845, -0.0231296, 0.101609, 0.0429651, 0.0197025},
};

float layer_2_bias[nkoop] = {0.018518, -0.00385566, 0.0559131, -0.00492531, -0.017223, -0.0103926, 0.00442148, -0.0541752, -0.0193526, -0.274335, -0.220859, 0.0779167, 0.0558547, -0.0711199, -0.195903, -0.0220411, 0.0410586, -0.135745, 0.100549, -0.13459, -0.230853, -0.0992701, -0.0749945, -0.132141, -0.125828, 0.0548171, 0.0948467, 0.0671372, 0.0915029, -0.00259259, -0.254639, 0.293667, 0.359587, 0.135179, 0.0432667, 0.0965015, -0.205032, -0.141622, 0.271714, 0.202162};

