#include "controller_koopman.h"

int structure[NUM_LAYERS][2] = {
    {NUM_INPUTS, NUM_NEURONS},
    {NUM_NEURONS, NUM_NEURONS},
    {NUM_NEURONS, NUM_OUTPUTS}
};

float residual_weight[NUM_INPUTS][nkoop] = {
    {0.857852, 0.0156665, -0.00339573, -0.0053056, -0.063736, -0.0132997, -0.00222162, -0.10224, 0.02553, -0.082119, 0.0729687, 0.1198, -0.12611, -0.410638, 0.0815534, -0.305759, -0.00627005, 0.107668, 0.261355, -0.042082, 0.0583564, 0.0194386, -0.0905314, -0.113061, 0.131205, 0.184715, -0.17637, -0.0531844, 0.0705915, 0.00202566, -0.0655314, 0.322512, -0.0359003, -0.266658, 0.133066, 0.270869, -0.0154612, 0.0952466, 0.386146, -0.0270502},
    {0.0222755, 0.909696, -0.0198262, 0.0242075, 0.0260305, -0.0112618, 0.0642826, 0.00155051, 9.2892e-05, 0.0467622, 0.0920664, -0.0840594, 0.229861, -0.0180507, 0.0920007, -0.125794, -0.182671, -0.103281, -0.26168, 0.152938, 0.00274177, 0.2034, -0.198286, -0.245868, 0.0977172, 0.19779, 0.191484, 0.10754, -0.154996, 0.0603016, 0.0608086, -0.115193, -0.102187, -0.030738, -0.201207, -0.138336, 0.205909, 0.193258, -0.00320485, -0.0613826},
    {-0.019197, 0.00611323, 0.939997, -0.00670898, -0.0477868, -0.0037205, -0.00722589, -0.0113959, -0.00431813, -0.236952, -0.0352501, 0.263193, -0.0616805, -0.0270897, 0.213364, -0.170222, -0.169977, -0.0885723, -0.171179, -0.10302, 0.106402, -0.107379, -0.142419, -0.112143, -0.192594, 0.0844949, -0.0806985, -0.0350517, -0.0893335, -0.0204349, 0.0879834, 0.0844079, -0.0191317, 0.0827594, 0.0228053, 0.167392, 0.0353644, -0.125332, -0.356555, -0.217768},
    {0.00200528, 0.0736776, 0.00593928, 0.799942, -0.0527124, -0.0105282, -0.0765075, -0.0129599, -0.00164412, -0.315377, -0.0064417, 0.0596697, -0.0640842, -0.0833845, -0.180679, 0.148845, 0.105129, -0.146939, 0.0925324, -0.244097, -0.0921243, 0.334839, -0.0996999, 0.224667, -0.0926005, 0.0893575, -0.0200938, 0.0767265, 0.186524, 0.160026, 0.0847676, 0.0471328, 0.103463, 0.136456, -0.141601, -0.180603, 0.200545, 0.0500032, 0.00755262, 0.0848467},
    {-0.0804697, 0.0183165, -0.0234644, -0.063889, 0.77087, -0.00219629, -0.00970856, -0.0173829, -0.0252934, -0.0682125, 0.115578, 0.120318, 0.0278225, 0.159619, 0.142564, -0.300818, 0.147333, 0.0839922, -0.0450472, 0.0724307, -0.00408786, 0.120487, 0.0822188, 0.0902633, -0.199809, 0.0231372, -0.0169553, 0.332598, -0.0921, -0.0238671, -0.0608107, -0.0424209, -0.0478063, -0.079673, -0.221259, 0.0380284, -0.0672459, -0.11367, -0.185028, 0.0317135},
    {-0.0130344, -0.00472019, -0.00416315, 0.00142783, -0.00497617, 0.914909, 0.00323645, -0.00392001, -0.0461348, 0.0214939, 0.134901, 0.0364847, -0.214865, -0.239089, 0.14563, 0.117749, -0.170444, 0.0684564, 0.119239, -0.0250901, -0.104233, 0.00866793, -0.120487, -0.0110092, -0.162787, -0.110846, -0.018418, -0.104761, 0.109898, 0.104582, -0.135261, -0.0648387, -0.209001, -0.043339, 0.141332, -0.0748076, 0.0284698, 0.220926, -0.119072, -0.209878},
    {-0.00403691, 0.0663862, 0.0143307, -0.0516709, 0.00244811, 0.0144591, 0.888465, 0.0130998, -0.00649386, 0.100856, -0.378402, -0.0215191, 0.107281, 0.240682, -0.0174597, -0.0315404, 0.0780184, 0.00213775, 0.247171, -0.0680179, -0.251412, 0.104525, -0.150884, -0.127059, -0.215416, 0.116814, 0.211684, -0.153579, -0.198961, 0.149773, 0.24731, 0.167554, 0.0184831, -0.0499158, -0.0783608, 0.0645392, 0.0949305, -0.0868298, 0.13426, -0.217573},
    {-0.0796768, 0.00759014, 0.0103789, -0.00250327, -0.0238026, -0.00681228, 0.0101391, 0.84686, 0.0358863, -0.107882, 0.107928, -0.289685, -0.294079, -0.149684, -0.131967, -0.16325, -0.347846, -0.17288, 0.241249, -0.0253542, -0.198642, 0.0211924, -0.183196, -0.00748956, 0.375462, -0.0407848, -0.0133753, 0.146082, -0.0847378, -0.122199, -0.157432, 0.0304012, 0.18862, 0.110229, -0.264391, -0.12158, -0.0923847, -0.177138, -0.0320122, -0.0760325},
    {0.0238382, 0.00938749, 0.0046984, 0.00856238, 0.00588787, -0.0223082, -0.0118831, 0.00807814, 0.925184, 0.242727, -0.0306952, 0.0954941, -0.148909, 0.0517773, -0.0387114, -0.00434978, 0.227057, 0.0736422, 0.118114, -0.16038, 0.041982, -0.181754, -0.164331, -0.0438063, 0.0877828, -0.167677, 0.0930619, 0.0544213, -0.0547074, -0.00806843, 0.208459, -0.105903, -0.296438, -0.0592218, 0.0671223, -0.102217, 0.130734, -0.0931581, -0.182293, 0.0276427},
};

float residual_bias[nkoop] = {0.00052238, -0.000464583, -0.0337702, -0.00312029, 0.00609229, 0.000622724, 0.00223557, -0.00304198, -0.00813932, 0.00950789, -0.00493453, 0.000199366, 0.0159481, 0.0138941, -0.00329663, -0.00543465, -0.00325453, 0.00510862, -0.00234688, 0.00380675, 0.00751548, -0.00513095, -0.003201, 0.00323115, 0.0181058, -0.00689645, 0.00171134, 0.00472617, 0.0284002, 0.028559, -0.0193532, -0.00464161, 0.0132302, 0.0198648, -0.00505804, 0.0117738, 0.00590426, 0.00658027, 0.0173765, 8.88035e-05};

float layer_0_weight[NUM_INPUTS][NUM_NEURONS] = {
    {0.0185372, -0.0129816, 0.00756971, 0.0445243, -0.0503494, -0.21131, 0.0174135, -0.0181587, -0.034627, 0.00687635, -0.024078, 0.0234161, 0.00847078, -0.0223899, 0.0849484, -0.0247049, 0.024527, -4.43387e-06, -0.0205118, -0.0355493, -0.0245869, 0.0343688, 0.0304916, 0.0179165, 0.0130689, 0.0418398, 0.0386298, 0.0205584, -0.0668467, -0.0434586, 0.0730622, -0.0249769, -0.0281214, 0.0634944, 0.0457487, 0.0192464, -0.0203814, -0.0294679, -0.0513595, -0.0290043, 0.0421622, -0.0658877, 0.00406776, -0.0526465, -0.0158301},
    {-0.0009608, 0.00328898, 0.000143947, -0.00685288, 0.0470789, 0.0213757, -0.00253458, 0.00228211, 0.0265757, -0.00243564, 0.00339972, -0.00345094, -0.00282477, 0.00311726, -0.0342519, 0.00604827, -0.00377575, 0.00015446, 0.00230041, 0.00519482, 0.00331989, -0.00524222, -0.00522992, 0.107992, -0.040133, -0.0515387, -0.00705037, 0.00725634, -0.0958565, 0.00376075, -0.00523504, 0.00344063, 0.00426205, -0.00472282, 0.0888425, -0.0645459, 0.00393677, 0.00371756, 0.00392568, 0.00384811, -0.00593846, 0.00481777, -0.000323981, 0.0365741, 0.00160337},
    {0.0079053, -0.00110147, 0.0049933, 0.0116691, 0.0140657, -0.00971186, 0.0115573, -0.00918143, -0.0251771, 8.25389e-05, -0.0113326, 0.0114666, -0.000272046, -0.0108526, -0.0137525, -0.0148379, 0.0110497, 1.98719e-07, -0.00845735, -0.00999587, -0.0105178, 0.0138, 0.0106597, -0.0218668, 0.025493, -0.0402352, 0.00884336, 0.0191652, -0.0968156, -0.0145008, 0.0195391, -0.0109036, -0.0107075, 0.0182699, -0.0113332, -0.0143472, -0.00454938, -0.0118493, -0.0160215, -0.0109037, 0.00852347, -0.0184784, 0.00156411, -0.0806873, -0.00832963},
    {0.018674, 0.0381209, 0.0308225, -0.0396675, 0.2492, -0.0194464, 0.0800408, -0.0494732, 0.0171371, -0.0137976, -0.0550143, 0.0598306, -0.0240617, -0.0551946, 0.00845459, -0.110701, 0.0533288, 0.000175412, -0.0269674, -0.00359569, -0.0428147, 0.0524657, 0.0368218, -0.331709, -0.300594, -0.299514, 0.0101091, 0.114144, -0.00304691, -0.0137476, 0.00566946, -0.046543, -0.0375425, 0.00231956, -0.0285823, 0.210488, 0.00190104, -0.0391697, -0.00657609, -0.0310241, 0.00622887, -0.0076546, -0.00113838, 0.29457, -0.0449804},
    {0.0509194, -0.0217957, 0.0313345, 0.0944901, -0.175242, -0.254496, 0.101074, -0.0729677, -0.227311, 0.0228881, -0.0915792, 0.0945974, 0.0243085, -0.0877782, 0.206335, -0.17243, 0.0918426, -6.83315e-05, -0.0628906, -0.0864311, -0.0829909, 0.112895, 0.0941122, 0.305103, 0.119908, -0.0518275, 0.101488, 0.180414, -0.188952, -0.103929, 0.155809, -0.086685, -0.0880325, 0.136814, -0.359441, 0.233041, -0.0584309, -0.0907157, -0.116051, -0.0847441, 0.118176, -0.144136, 0.00984234, 0.0603878, -0.063184},
    {-0.0289175, -0.0208416, -0.0185835, -0.00696899, 0.225834, 0.00359881, 0.00125472, 0.00308853, -0.0165881, 0.053848, 0.00554913, -0.00368843, 0.0618456, 0.00452133, 0.0528539, -0.00800125, -0.00169714, 0.000497052, 0.00887212, -0.00330691, 0.00607679, -0.0091005, 0.00568832, -0.0309461, 0.241385, 0.201119, 0.0226431, 0.00374406, -0.150542, 0.0320284, -0.0441123, 0.00614742, 0.00132267, -0.038769, -0.005062, 0.021758, -0.0333161, 0.01273, 0.0371941, 0.00781965, 0.0451739, 0.0423655, -0.00129561, 0.204301, 0.00689902},
    {0.00445934, 0.0136412, 0.00851274, -0.0217372, 0.0795715, 0.00426812, 0.0236443, -0.0130422, 0.0340941, -0.00695336, -0.0149699, 0.0166609, -0.0102217, -0.0149951, -0.0269098, -0.0387191, 0.0142278, 3.10211e-06, -0.00584935, 0.00402687, -0.0106951, 0.0141466, 0.00790375, 0.0155698, -0.0824743, -0.0763117, -0.00284526, 0.0592348, -0.0744564, -0.000686348, -0.00401889, -0.0119699, -0.00855415, -0.00500099, 0.0258378, -0.0274781, 0.00460797, -0.00940173, 0.00204839, -0.00646519, -0.00432094, 0.00264482, -0.000761104, 0.0530252, -0.011795},
    {-0.0122985, 0.00165975, -0.0104062, -0.0122418, 0.155126, 0.124025, -0.0273116, 0.022299, -0.0430252, -0.0100902, 0.0248872, -0.0256481, -0.00872844, 0.0245442, -0.0432037, 0.0335971, -0.0257748, 0.00047835, 0.0181292, 0.022517, 0.0233063, -0.0270626, -0.0272722, -0.0959565, -0.152481, 0.152461, -0.0275931, -0.0143613, 0.104635, 0.0212897, -0.0267228, 0.0240006, 0.0249506, -0.0242897, -0.147188, -0.0940058, 0.018782, 0.0234126, 0.0217001, 0.022969, -0.0352973, 0.0256949, -0.00317806, -0.142743, 0.0196831},
    {-0.022189, -0.0148749, -0.0137158, -0.0032104, 0.0216853, 0.00124495, -0.00475515, 0.00562499, -0.0267133, 0.0302459, 0.00939121, -0.00781704, 0.0333556, 0.00804142, 0.0721022, -0.00547058, -0.00483192, -0.000248492, 0.00907185, -0.00519268, 0.00859912, -0.0157372, 0.0056422, -0.00862509, 0.00907882, -0.0482509, 0.0259259, -0.00469584, -0.0709292, 0.0363525, -0.060352, 0.00915733, 0.00297362, -0.0503588, 0.00332017, 0.017466, -0.0251908, 0.0164625, 0.0431487, 0.00994018, 0.0419724, 0.0553957, -9.35658e-05, -0.0478028, 0.00828705},
};

float layer_0_bias[NUM_NEURONS] = {-0.00470224, 0.000451965, -0.00220347, -0.00646736, -0.26236, 0.00245648, 0.00147933, 0.000577706, -0.00819963, 0.00448504, 0.00108843, -0.000597479, 0.00452681, 0.000841327, -0.0173154, -0.00489199, -0.000657768, -0.000257167, 0.0023206, 0.00326893, 0.00166028, -0.00207353, -0.000838443, 0.0229285, -0.244077, 0.224548, -0.00130462, 0.00690025, -0.0883873, 0.00573036, -0.00497352, 0.00154673, 0.00153013, -0.00539709, -0.00213191, 0.000646029, -0.00123387, 0.00280349, 0.00616521, 0.00256188, 0.00286507, 0.00566152, -0.000888204, 0.195463, 0.00105577};

float layer_1_weight[NUM_NEURONS][NUM_NEURONS] = {
    {-0.00148829, -0.00167211, 0.00344771, 0.00975604, -0.044926, -0.00606882, -0.00465269, -0.00964848, -0.00645047, 0.00715822, -0.00709258, 0.0039357, 0.00368398, -0.00717407, 0.00138952, -0.0025227, -0.00233017, 0.00412137, -0.00774669, 0.00442705, 0.00336303, 0.00328994, -0.00380551, 0.0045926, 0.00660506, 0.0425797, 0.00665052, 0.0030751, -0.00458953, -0.00455227, -0.00485672, 0.0056741, -0.00621757, -0.00384453, 0.00438669, -0.00462109, 0.00549227, -4.84714e-05, 0.00352016, 0.00404524, 0.00577614, -0.00154821, -0.00538166, 0.00757623, 0.00444511},
    {-0.00347493, 0.00215536, -0.00382273, 0.00522716, -0.0244136, 0.00824199, -0.0014859, 0.00673604, 0.00133304, -0.00633518, 0.00243076, 0.00187734, 0.00215356, 0.00278154, 0.0436352, -0.00239975, -0.00279019, 0.00161386, 0.00343944, 0.00163145, 0.00181186, 0.00220816, -0.00210962, 0.00148136, -0.00196925, -0.0116766, -0.00182461, 0.00201501, -0.00143704, -0.00173783, -0.00111468, 0.000118904, 0.000936331, -0.00188311, 0.00157665, -0.00123982, 0.000246818, -0.00222037, 0.00204502, -0.00424063, 8.94027e-05, 0.00261681, -0.000685652, -0.00359995, 0.00143092},
    {-0.00286492, -0.000217458, 0.00075707, 0.0177241, -0.0382886, -0.000438051, -0.00435268, -0.00402328, -0.00436789, 0.0023402, -0.00432684, 0.00397944, 0.00392121, -0.00421661, 0.00881053, -0.00313037, -0.00317635, 0.00399417, -0.00433991, 0.00424796, 0.00349456, 0.00363669, -0.00399509, 0.00430243, 0.00416663, 0.0198437, 0.00427771, 0.00337021, -0.00427634, -0.00440211, -0.00432622, 0.00447802, -0.00438017, -0.00391124, 0.00418583, -0.00420325, 0.00439635, -0.00112808, 0.00373643, 0.0010092, 0.00454579, 0.000101698, -0.00452996, 0.00412256, 0.00415949},
    {0.00454923, -0.00607341, 0.0115241, -0.00650659, -0.0114631, -0.0229792, -0.00309434, -0.0249787, -0.010737, 0.0210047, -0.0136392, 0.00149694, 0.000654611, -0.014414, -0.0678694, 0.00118721, 0.00218715, 0.00223545, -0.016391, 0.00254676, 0.000961734, 9.2994e-05, -0.000881272, 0.00303607, 0.012153, 0.0722252, 0.01193, 0.000223266, -0.00312229, -0.00247073, -0.00407053, 0.00698257, -0.00968809, -0.00138061, 0.00261247, -0.00355205, 0.00652052, 0.00392781, 0.000684251, 0.0130861, 0.00715786, -0.00675673, -0.00552202, 0.0164823, 0.00297024},
    {-0.0528638, 0.00687129, -0.0106724, 0.171986, 0.100431, 0.0802223, -0.0648471, -0.00696212, -0.0553098, -0.0133345, -0.0510856, 0.0597375, 0.0603999, -0.0476827, -0.078163, -0.0489659, -0.0522216, 0.0586482, -0.0478323, 0.0636254, 0.0512388, 0.0557641, -0.0614614, 0.0638218, 0.0490259, -0.231683, 0.0518399, 0.0503756, -0.0630012, -0.0673283, -0.0624789, 0.0618759, -0.0566114, -0.0586285, 0.0619799, -0.0607707, 0.0605792, -0.0222911, 0.0565083, -0.0106019, 0.0632789, 0.0129626, -0.0649552, 0.0423966, 0.0608197},
    {0.00667419, 0.014463, -0.0284393, -0.0689938, 0.100333, 0.041066, 0.0319852, 0.074109, 0.0494637, -0.0551875, 0.0557715, -0.0260678, -0.0239041, 0.0567113, 0.144712, 0.0151114, 0.0133128, -0.0277693, 0.0619973, -0.0301057, -0.0218979, -0.0209103, 0.0248595, -0.031524, -0.0512438, -0.173874, -0.0515344, -0.0195535, 0.0315314, 0.0309701, 0.0339608, -0.0415807, 0.0471273, 0.0253918, -0.0298235, 0.0320166, -0.0399666, -0.00224476, -0.0227952, -0.0329284, -0.0424552, 0.0140009, 0.0385993, -0.0605136, -0.030445},
    {-0.0101919, 0.000174673, 0.000706046, 0.0775247, -0.0771662, 0.00330302, -0.0143079, -0.00966705, -0.0134431, 0.00438347, -0.0129824, 0.0131319, 0.0130594, -0.0124798, -0.0128094, -0.0104903, -0.0108381, 0.0130713, -0.0127383, 0.013993, 0.0114331, 0.0120965, -0.0132985, 0.0141223, 0.012512, 0.0271853, 0.0129653, 0.0111056, -0.0140047, -0.0146047, -0.0140577, 0.0142745, -0.0135952, -0.0128988, 0.0137371, -0.0136665, 0.014011, -0.00417558, 0.0123644, 0.00128837, 0.0145216, 0.00131852, -0.0146562, 0.0118794, 0.013585},
    {0.0057735, 0.000684917, -0.00195773, -0.0492391, 0.0542251, 0.00112414, 0.0092832, 0.00923894, 0.00970522, -0.00550643, 0.00977687, -0.00837198, -0.00821783, 0.00956984, 0.0145466, 0.00641162, 0.0064905, -0.00843101, 0.00995951, -0.00902455, -0.00727188, -0.00756141, 0.00839161, -0.00916493, -0.00931907, -0.0277592, -0.00956317, -0.00697505, 0.00910577, 0.00937985, 0.00925783, -0.00974817, 0.00967051, 0.00821598, -0.00888007, 0.00895751, -0.00953456, 0.00211962, -0.00780169, -0.0025287, -0.00991638, 5.45579e-05, 0.00979596, -0.00946082, -0.00883445},
    {0.00317688, 0.011112, -0.0219654, -0.0295493, -0.0019147, 0.0321548, 0.0222798, 0.0564489, 0.0363542, -0.0424588, 0.0415674, -0.0177574, -0.0160911, 0.0424257, 0.114984, 0.00959583, 0.00817131, -0.0190935, 0.0467402, -0.0208408, -0.0147133, -0.0138702, 0.0168086, -0.0219338, -0.0379182, -0.0932985, -0.0380957, -0.0129396, 0.0219439, 0.02147, 0.0238503, -0.0298916, 0.0344329, 0.0172608, -0.0206317, 0.0223652, -0.0286256, -0.00262204, -0.0153016, -0.0254087, -0.0305718, 0.0110429, 0.0274744, -0.045652, -0.0211377},
    {0.000571584, -0.000662645, 0.00126629, 0.0296664, 0.028248, -0.00220284, -0.00039563, -0.00273333, -0.00136047, 0.00230164, -0.001733, 0.000159271, 6.22121e-05, -0.0018265, -0.0539445, 0.000215487, 0.000315108, 0.000246828, -0.00209244, 0.000320899, 4.81969e-05, -3.32168e-05, -9.58961e-05, 0.000381601, 0.00151217, -0.0141037, 0.00150001, -4.47988e-05, -0.000384819, -0.000335363, -0.000503827, 0.00088816, -0.00122162, -0.000140942, 0.000314034, -0.000429558, 0.000816784, 0.000523246, 4.32909e-05, 0.00144184, 0.000922338, -0.000762067, -0.000712497, 0.00208072, 0.000354491},
    {0.00686674, 0.00109018, -0.00285317, -0.0553947, 0.0650108, 0.00213746, 0.0114938, 0.0123358, 0.0123399, -0.00754414, 0.0125568, -0.0102973, -0.0100747, 0.0123309, 0.0174933, 0.00776946, 0.00783172, -0.0103983, 0.0129039, -0.0111497, -0.00891213, -0.00923866, 0.0102993, -0.0113437, -0.0119207, -0.0382842, -0.0122152, -0.00851731, 0.0112732, 0.0115916, 0.0114998, -0.0122313, 0.0122508, 0.0100987, -0.0109721, 0.0111045, -0.011945, 0.00240802, -0.00955828, -0.0036088, -0.012449, 0.000350044, 0.0122307, -0.012282, -0.0109286},
    {-0.00758464, -0.000882869, 0.00251649, 0.0602535, -0.0673704, -0.00115599, -0.0122047, -0.0120589, -0.0127641, 0.00709656, -0.0128647, 0.0109888, 0.010789, -0.0125849, -0.017884, -0.00839389, -0.00850878, 0.0110628, -0.0131129, 0.0118593, 0.0095216, 0.00991454, -0.0110205, 0.0120453, 0.0122451, 0.0363509, 0.0125739, 0.00913153, -0.0119649, -0.0123401, -0.0121651, 0.0128198, -0.0127159, -0.0107803, 0.011664, -0.0117629, 0.0125317, -0.00276671, 0.0102308, 0.00325331, 0.0130472, -5.70371e-05, -0.0128869, 0.0124358, 0.0116004},
    {0.00143271, -0.00101045, 0.00187468, 0.0278309, 0.0383916, -0.0035722, 0.000245754, -0.0036052, -0.00123752, 0.00322891, -0.00181579, -0.000517599, -0.000659466, -0.0019837, -0.0632968, 0.000908822, 0.00108257, -0.00038305, -0.00235993, -0.00033672, -0.00057151, -0.000737935, 0.000624924, -0.000253924, 0.00152397, -0.0147175, 0.00147551, -0.00069018, 0.000240086, 0.000357364, 6.65598e-05, 0.000486835, -0.00102428, 0.000530296, -0.000327624, 0.000151646, 0.000399743, 0.00101171, -0.000640989, 0.00210534, 0.00051989, -0.00122172, -0.000201217, 0.00239596, -0.000257664},
    {0.00679821, 0.000926195, -0.00252686, -0.0553311, 0.0631715, 0.0016036, 0.0111371, 0.0114661, 0.0117897, -0.00689664, 0.0119349, -0.0100085, -0.00981003, 0.0116982, 0.0167837, 0.00760657, 0.00768829, -0.0100908, 0.0122106, -0.0108146, -0.00867264, -0.00900896, 0.0100236, -0.0109925, -0.0113499, -0.0351243, -0.0116413, -0.0083043, 0.0109221, 0.0112455, 0.0111218, -0.0117685, 0.0117267, 0.00981794, -0.0106405, 0.010749, -0.0115005, 0.00243999, -0.00930726, -0.00323022, -0.0119762, 0.000188846, 0.0118002, -0.0116046, -0.0105906},
    {-0.00920008, -0.0062273, 0.0127129, 0.0896019, -0.0125751, -0.0117573, -0.0226818, -0.035727, -0.0298643, 0.0253944, -0.0323474, 0.0193009, 0.0183506, -0.0324679, -0.176534, -0.0128432, -0.0123429, 0.0199956, -0.0348733, 0.0216675, 0.0163621, 0.0163952, -0.0189238, 0.0223514, 0.0300368, 0.0347262, 0.0304614, 0.0151392, -0.0222569, -0.0224851, -0.0233472, 0.0268685, -0.0289027, -0.0188628, 0.0213378, -0.0222525, 0.0259721, -0.0014341, 0.0173847, 0.0149353, 0.0274293, -0.0053348, -0.0258006, 0.0337031, 0.021511},
    {0.0183517, -0.000519265, -0.000682614, -0.119435, 0.107644, -0.00886349, 0.025586, 0.0156837, 0.0238795, -0.00628902, 0.022993, -0.0234111, -0.0233183, 0.022027, 0.0332688, 0.018637, 0.019345, -0.023268, 0.0224901, -0.025006, -0.0202654, -0.0215387, 0.0237584, -0.0252331, -0.0221018, -0.0365191, -0.0229654, -0.0196941, 0.0250036, 0.0261834, 0.025079, -0.0254601, 0.024165, 0.0229789, -0.0245123, 0.0243517, -0.0249584, 0.00745793, -0.0220093, -0.00158807, -0.0259349, -0.00257247, 0.0262011, -0.0208335, -0.0242135},
    {-0.00683356, -0.00110893, 0.00288243, 0.0571715, -0.0615813, -0.0021125, -0.0114829, -0.0123234, -0.0123639, 0.00756169, -0.0125918, 0.0102795, 0.0100543, -0.0123691, -0.0230085, -0.00774449, -0.00780345, 0.0103837, -0.0129475, 0.011137, 0.00889359, 0.00921647, -0.0102797, 0.0113325, 0.0119488, 0.0355016, 0.0122431, 0.00849639, -0.0112619, -0.0115788, -0.0114926, 0.012238, -0.0122697, -0.010081, 0.0109588, -0.0110956, 0.0119493, -0.00238671, 0.00953817, 0.00363945, 0.012457, -0.000372602, -0.0122306, 0.0123255, 0.0109172},
    {0.000104719, -7.46683e-05, 0.000195409, -0.000242813, 0.000512132, -7.59097e-06, 5.10692e-05, 1.13058e-05, 1.56123e-05, 4.26481e-05, 6.69979e-06, -5.48861e-05, -5.99727e-05, 2.57699e-06, 0.000135411, 6.97344e-05, 8.07707e-05, -4.96175e-05, 1.34255e-06, -5.23849e-05, -4.90267e-05, -6.06383e-05, 5.93942e-05, -5.0577e-05, -6.70759e-06, -0.000324851, -1.00732e-05, -5.49347e-05, 4.97415e-05, 5.48581e-05, 4.51654e-05, -3.31479e-05, 1.96597e-05, 5.43471e-05, -5.11321e-05, 4.53868e-05, -3.35784e-05, -2.42499e-06, -5.68599e-05, 0.00017311, -3.35797e-05, -9.80758e-05, 4.12168e-05, 2.49065e-06, -4.81692e-05},
    {0.00294909, 0.00152434, -0.00331549, -0.0294953, 0.0420822, 0.00491041, 0.00655023, 0.0103961, 0.00813994, -0.00730046, 0.00868461, -0.00568988, -0.0054429, 0.00868761, 0.0165392, 0.00395641, 0.00383096, -0.00585672, 0.00927232, -0.00628945, -0.00488952, -0.00492314, 0.00559403, -0.0064648, -0.00814231, -0.0343954, -0.00825684, -0.0045685, 0.00644261, 0.00650221, 0.00670461, -0.00751995, 0.00793793, 0.00556919, -0.00620963, 0.00642254, -0.00730513, 0.000684273, -0.00518129, -0.00396199, -0.00765615, 0.00123409, 0.00729763, -0.00897688, -0.00624268},
    {0.000969283, 0.00347516, -0.00691825, -0.0282196, 0.0291301, 0.0118695, 0.0068246, 0.0175779, 0.0109265, -0.0135684, 0.0124276, -0.00548974, -0.00497952, 0.012699, 0.0535037, 0.00300904, 0.00255623, -0.0058951, 0.0139079, -0.00639959, -0.00458293, -0.00431544, 0.00519429, -0.00672603, -0.0114154, -0.0460628, -0.0114444, -0.00404073, 0.00673363, 0.00657055, 0.00729904, -0.0090543, 0.0103757, 0.00534144, -0.00634605, 0.00686433, -0.00869621, -0.00081194, -0.00475138, -0.00801641, -0.00924149, 0.00346101, 0.00834526, -0.013668, -0.00649981},
    {0.00521333, 0.00145575, -0.0034061, -0.0457606, 0.0558288, 0.00392793, 0.00969176, 0.0123814, 0.0110732, -0.00812463, 0.0115098, -0.00857379, -0.00831446, 0.0113975, 0.0203562, 0.00626576, 0.00622301, -0.00872431, 0.0120372, -0.00936237, -0.00739756, -0.00758254, 0.00851796, -0.00956487, -0.0108628, -0.0384853, -0.0110803, -0.00700717, 0.00951587, 0.0097128, 0.00978696, -0.0106451, 0.0109065, 0.00840167, -0.00922467, 0.00941891, -0.0103717, 0.00161815, -0.00789765, -0.00417011, -0.0108369, 0.000910051, 0.0105112, -0.0115451, -0.00922259},
    {-0.00715947, -0.00209251, 0.00483262, 0.0559669, -0.0730539, -0.00535366, -0.0134954, -0.0174971, -0.0155421, 0.0114191, -0.0162048, 0.0118984, 0.0115288, -0.0160513, -0.0239114, -0.00863425, -0.00857312, 0.0121143, -0.0169936, 0.0130231, 0.0102334, 0.0104913, -0.0118182, 0.0133138, 0.0152601, 0.0552783, 0.015568, 0.00968072, -0.0132443, -0.0135244, -0.0136358, 0.0148854, -0.0152906, -0.0116535, 0.0128273, -0.0131078, 0.0144899, -0.00216301, 0.0109378, 0.00589859, 0.0151618, -0.00134902, -0.014681, 0.0162829, 0.0128255},
    {-0.00524632, -0.00196955, 0.00438908, 0.0528133, -0.048205, -0.00525291, -0.010568, -0.0146268, -0.0126002, 0.00990792, -0.0132711, 0.0092461, 0.00891256, -0.0132014, -0.0423131, -0.00658141, -0.0064732, 0.00945852, -0.0140227, 0.0101749, 0.00793979, 0.00808298, -0.00914772, 0.0104258, 0.0124628, 0.0359624, 0.0126867, 0.00747048, -0.0103765, -0.010553, -0.0107349, 0.0118715, -0.0123442, -0.00905327, 0.0100265, -0.0103016, 0.0115405, -0.00144078, 0.00846224, 0.00529612, 0.0120942, -0.00143267, -0.0116246, 0.01349, 0.0100489},
    {0.0680761, -0.0163089, 0.0274074, -0.109722, 0.0461604, -0.107203, 0.0703471, -0.0185153, 0.0469877, 0.038608, 0.037765, -0.067374, -0.0693598, 0.0328834, -0.143538, 0.0592675, 0.0643352, -0.0649793, 0.0300888, -0.0698702, -0.0586945, -0.0650817, 0.0701874, -0.0693312, -0.0380552, 0.139787, -0.0413745, -0.0588288, 0.0683387, 0.0739943, 0.066194, -0.0605003, 0.0502013, 0.0662905, -0.068046, 0.0651406, -0.059927, 0.0318579, -0.0650088, 0.0290528, -0.0616672, -0.0243506, 0.0663525, -0.0242386, -0.066162},
    {0.0349948, 0.00359042, -0.00916806, -0.0118629, 0.193202, -0.0122175, 0.0559839, 0.0518668, 0.0597377, -0.0255622, 0.0606684, -0.0499941, -0.0490768, 0.0590461, -0.28678, 0.0379158, 0.0386417, -0.0503103, 0.062296, -0.0542277, -0.0429717, -0.0449215, 0.0501894, -0.0551761, -0.0570596, -0.120737, -0.058853, -0.0411956, 0.0547856, 0.0566676, 0.055824, -0.0594813, 0.0593369, 0.048968, -0.0532766, 0.0537574, -0.0579145, 0.0126887, -0.0463676, -0.011873, -0.0607099, -0.000401223, 0.0596509, -0.0581015, -0.0529442},
    {0.0254779, -0.0266825, 0.0484818, -0.0638372, 0.335846, -0.0835232, -0.00377733, -0.0978381, -0.0386813, 0.0829585, -0.0519418, -0.00215314, -0.00574296, -0.0556389, -0.14195, 0.0115392, 0.0160814, 0.00114207, -0.0643142, 0.00167374, -0.00299842, -0.00733576, 0.00497696, 0.00369653, 0.0455629, 0.102002, 0.0443111, -0.00593901, -0.0041783, -0.000754423, -0.00832947, 0.0211583, -0.0338572, 0.00244095, 0.00218382, -0.00640723, 0.0193105, 0.0192361, -0.00500063, 0.0543971, 0.0217386, -0.0299705, -0.014256, 0.064953, 0.00390961},
    {-0.00267572, -0.00339273, 0.00687232, 0.0487734, -0.0233021, -0.0102255, -0.0091434, -0.0184378, -0.0130929, 0.01376, -0.014502, 0.00760883, 0.00709614, -0.014682, -0.0769703, -0.00470497, -0.00432567, 0.00800025, -0.0159165, 0.00866822, 0.00641616, 0.00626953, -0.00735019, 0.00901217, 0.0134055, 0.0332259, 0.0135193, 0.00582484, -0.00899609, -0.00894914, -0.00956769, 0.0113634, -0.0125663, -0.0074233, 0.00856453, -0.00906914, 0.0109569, 0.000114851, 0.00674665, 0.00802627, 0.0115967, -0.0031812, -0.0107207, 0.0155184, 0.00869187},
    {-0.0187182, -0.000936999, 0.00344414, 0.111713, -0.106225, 0.00539809, -0.0284504, -0.0228292, -0.0286545, 0.0114593, -0.0284577, 0.0256679, 0.0253517, -0.0275814, -0.0164863, -0.0198256, -0.0203472, 0.0257034, -0.028633, 0.0276739, 0.0221229, 0.0232816, -0.025887, 0.0280504, 0.0270638, 0.0458118, 0.0279641, 0.0213187, -0.0278233, -0.0289366, -0.0281582, 0.0293668, -0.0286835, -0.0251689, 0.0271541, -0.027227, 0.0286893, -0.00708666, 0.0239403, 0.00475813, 0.0299376, 0.00113454, -0.0297787, 0.0267803, 0.0269229},
    {-0.00249455, 0.00390885, -0.00758861, -0.214459, -0.0786371, 0.0148141, 0.00365367, 0.0154359, 0.00926421, -0.0136446, 0.0111708, -0.00222032, -0.00159281, 0.0116108, 0.196781, -6.24417e-05, -0.000750807, -0.0027846, 0.0129179, -0.00319972, -0.00160091, -0.00104166, 0.00179344, -0.00357691, -0.00998896, 0.0331439, -0.00996446, -0.00102058, 0.00360346, 0.00324245, 0.0043443, -0.00665052, 0.00851386, 0.00211904, -0.0031716, 0.00390263, -0.00622971, -0.00236454, -0.00152295, -0.00866357, -0.00685386, 0.00430645, 0.00560308, -0.0128055, -0.00343713},
    {0.00114535, 0.00435699, -0.00869183, -0.0160253, 0.0633254, 0.015688, 0.00839431, 0.0224889, 0.0134424, -0.0172268, 0.015301, -0.00677024, -0.00613133, 0.0156393, 0.0184414, 0.0037179, 0.00314163, -0.00727215, 0.0171399, -0.00787053, -0.00567071, -0.00532524, 0.00639425, -0.00827676, -0.0140751, -0.0832228, -0.0140959, -0.00499977, 0.00829336, 0.00806611, 0.00899035, -0.0111365, 0.0127697, 0.0065864, -0.00781842, 0.00845612, -0.0107054, -0.00102888, -0.00586251, -0.0100755, -0.0113573, 0.0043495, 0.0102602, -0.016861, -0.00800851},
    {4.37975e-06, -0.00769386, 0.0150862, 0.00921708, -0.0834358, -0.0275337, -0.0119488, -0.0376176, -0.0210918, 0.0292235, -0.0244824, 0.00931161, 0.00819551, -0.025169, -0.0259681, -0.00446248, -0.00337503, 0.0102124, -0.0277959, 0.0110833, 0.00771604, 0.00696909, -0.00861152, 0.011778, 0.0223866, 0.131607, 0.022342, 0.00659827, -0.0118319, -0.0113052, -0.0130581, 0.0168294, -0.0198667, -0.00903364, 0.0110441, -0.0121888, 0.0161145, 0.00262029, 0.00786324, 0.0173841, 0.0171738, -0.00789555, -0.0151943, 0.0274363, 0.0114118},
    {0.00573536, 0.00139327, -0.00333512, -0.0488224, 0.0591489, 0.00354514, 0.0103432, 0.0126229, 0.0116191, -0.00814047, 0.0120099, -0.00918193, -0.00892656, 0.0118665, 0.0198147, 0.0067707, 0.00675385, -0.00932297, 0.0125034, -0.0100031, -0.00792834, -0.00815309, 0.00913966, -0.0102077, -0.0113516, -0.039292, -0.0115932, -0.00752883, 0.0101522, 0.0103842, 0.0104178, -0.0112622, 0.0114683, 0.00899949, -0.00985243, 0.010035, -0.0109796, 0.00184904, -0.00847579, -0.00411217, -0.0114646, 0.00078762, 0.0111591, -0.0119677, -0.00983977},
    {0.00491392, 0.00183769, -0.00411495, -0.0469452, 0.0514848, 0.00516889, 0.00987425, 0.0138182, 0.0117492, -0.0093568, 0.0123707, -0.00864974, -0.00833809, 0.0123065, 0.0310584, 0.00616904, 0.00606578, -0.00884702, 0.0130706, -0.00950928, -0.00743585, -0.00756794, 0.00855654, -0.0097428, -0.0116251, -0.0391057, -0.0118307, -0.00699867, 0.00969818, 0.00985803, 0.0100302, -0.011079, 0.0115142, 0.00847008, -0.00937359, 0.00962808, -0.010774, 0.00135916, -0.00792078, -0.00497009, -0.0112838, 0.00133563, 0.0108516, -0.0125801, -0.00939412},
    {0.000354208, -0.00678079, 0.0132921, 0.00861659, -0.0714308, -0.0246032, -0.0100475, -0.0328422, -0.0181287, 0.0256859, -0.0211308, 0.00776364, 0.00678283, -0.0217573, -0.028746, -0.00357851, -0.00260725, 0.00855996, -0.0240583, 0.00929664, 0.0064152, 0.0057342, -0.00714128, 0.00990357, 0.0193029, 0.115566, 0.0192465, 0.00544086, -0.00995455, -0.00947088, -0.0110329, 0.0143463, -0.0170441, -0.00752718, 0.00926991, -0.0102814, 0.0137261, 0.00245022, 0.00651363, 0.0153073, 0.014641, -0.00700193, -0.0128934, 0.0237805, 0.00959955},
    {0.0230869, 0.0140554, -0.0284072, -0.0433632, 0.0532197, 0.0223139, 0.0548186, 0.0847444, 0.0709719, -0.0573461, 0.0766347, -0.046668, -0.0444889, 0.0766187, 0.0957765, 0.0311784, 0.030214, -0.048186, 0.0825543, -0.0523451, -0.0393738, -0.0397135, 0.0458843, -0.0539783, -0.0710183, -0.122749, -0.0721937, -0.0365188, 0.0537297, 0.0545022, 0.0562302, -0.0643906, 0.068818, 0.0455596, -0.0515193, 0.0535307, -0.0622082, 0.0039452, -0.0420238, -0.033379, -0.0657942, 0.0117886, 0.0621157, -0.0792505, -0.0518214},
    {-0.0354044, 0.0156172, -0.0261352, 0.212714, -0.18457, 0.0562701, -0.0271113, 0.0338678, -0.0058378, -0.0376304, 0.00225539, 0.0279664, 0.0299029, 0.00529552, -0.0414443, -0.0277934, -0.0311989, 0.0259354, 0.00928355, 0.0276385, 0.0248206, 0.0287526, -0.0299746, 0.0267516, 0.000113179, -0.0114529, 0.00176795, 0.0258299, -0.026213, -0.0295136, -0.0239583, 0.0172288, -0.00877581, -0.0276341, 0.026777, -0.0242097, 0.0176807, -0.0193684, 0.0279692, -0.0282644, 0.0174496, 0.0197775, -0.0219186, -0.0114967, 0.0254596},
    {0.00064357, 0.00191444, -0.00380855, -0.0364186, 0.000290052, 0.00623295, 0.00397898, 0.00964525, 0.00626983, -0.00745478, 0.0071064, -0.00319689, -0.00291518, 0.00725174, 0.0605221, 0.00175559, 0.00151933, -0.00342115, 0.00793461, -0.00373439, -0.00264595, -0.00251799, 0.00304112, -0.00391792, -0.00651773, -0.0106207, -0.00654763, -0.00233791, 0.00391616, 0.00385052, 0.00423378, -0.00523068, 0.00595914, 0.00310958, -0.00369221, 0.00398135, -0.00501965, -0.00044091, -0.002767, -0.0044167, -0.00534525, 0.00190157, 0.00484186, -0.00778195, -0.00377473},
    {0.00473025, 0.0020836, -0.0045889, -0.0410755, 0.0607803, 0.00634134, 0.0099759, 0.0149913, 0.0121255, -0.0102883, 0.0128573, -0.00869944, -0.00835488, 0.0128237, 0.0188946, 0.00612211, 0.00597841, -0.00892363, 0.0136646, -0.00959114, -0.00747004, -0.00756728, 0.00858114, -0.00984332, -0.0120631, -0.0503339, -0.0122558, -0.00700549, 0.00980374, 0.00993353, 0.0101697, -0.0113185, 0.0118536, 0.00851506, -0.00946152, 0.00974917, -0.0109996, 0.00120217, -0.00794141, -0.00551109, -0.0115268, 0.00161037, 0.0110379, -0.0131838, -0.00949481},
    {0.000161794, 0.00540188, -0.0106443, -0.0098739, 0.0664793, 0.0197204, 0.00862827, 0.0266207, 0.0149928, -0.0207286, 0.0173519, -0.00676068, -0.00597782, 0.0178296, 0.0212642, 0.00330904, 0.00255206, -0.00739014, 0.0196611, -0.00801762, -0.00560955, -0.00509914, 0.00627389, -0.00850543, -0.015887, -0.0977386, -0.0158596, -0.00481949, 0.00854061, 0.00818442, 0.00939833, -0.0120334, 0.0141406, 0.00656173, -0.00798484, 0.008784, -0.0115306, -0.00177954, -0.00573129, -0.0122807, -0.0122775, 0.00553204, 0.0108999, -0.0194132, -0.00823922},
    {0.00383354, 0.00218748, -0.00470012, -0.0379694, 0.0510715, 0.00687681, 0.00886457, 0.0144952, 0.0112068, -0.0102126, 0.0120196, -0.00765655, -0.00730522, 0.0120391, 0.0261954, 0.00525125, 0.00506424, -0.00789772, 0.0128865, -0.00849698, -0.00655613, -0.00658619, 0.0075157, -0.00874596, -0.0112394, -0.045492, -0.0113929, -0.00610652, 0.00871661, 0.00878913, 0.00909359, -0.0102728, 0.0109055, 0.00748971, -0.00838787, 0.00869692, -0.00996723, 0.000804082, -0.00694817, -0.00559708, -0.0104646, 0.00181691, 0.00993777, -0.0124769, -0.00843961},
    {-0.00280433, -0.00367254, 0.00741145, 0.0696487, -0.0086362, -0.0106993, -0.0098156, -0.0196283, -0.0141584, 0.0147155, -0.0156992, 0.00813879, 0.00758258, -0.0158983, -0.105536, -0.00499244, -0.00458111, 0.0085678, -0.0172381, 0.00929876, 0.00684689, 0.00668451, -0.00785851, 0.00967233, 0.014495, 0.02322, 0.0146222, 0.00620503, -0.00965279, -0.00960548, -0.010279, 0.0122539, -0.0135774, -0.00793932, 0.00918183, -0.0097369, 0.0118065, 0.000178045, 0.00720359, 0.00864722, 0.0125114, -0.00345418, -0.0115453, 0.0168027, 0.00932341},
    {0.000251738, 0.00689506, -0.0135582, -0.0107406, 0.0800624, 0.0247806, 0.0110737, 0.0339899, 0.0192275, -0.0263618, 0.0222482, -0.0086812, -0.00767984, 0.0228519, 0.0235298, 0.00426503, 0.00329989, -0.00948591, 0.0252052, -0.0102907, -0.00720568, -0.00655486, 0.00805895, -0.0109159, -0.0203644, -0.121123, -0.0203343, -0.00619545, 0.0109609, 0.010506, 0.0120594, -0.0154376, 0.018136, 0.00842588, -0.0102487, 0.011271, -0.0147917, -0.00224937, -0.0073631, -0.0156376, -0.0157518, 0.00705046, 0.0139859, -0.0248687, -0.0105735},
    {0.00019653, -0.000456108, 0.000871962, 0.00218489, -0.00439929, -0.00175888, -0.000404195, -0.0019354, -0.00092347, 0.00161724, -0.00111879, 0.000278556, 0.000217662, -0.00116964, -0.00658303, -5.49631e-05, 1.42043e-05, 0.000330317, -0.00130605, 0.000362295, 0.000221722, 0.000166374, -0.000236581, 0.000398093, 0.0010149, 0.0070198, 0.00100208, 0.00016474, -0.000402886, -0.000363785, -0.000469737, 0.000673193, -0.000852944, -0.00026767, 0.000364159, -0.000429404, 0.000639072, 0.000228668, 0.000211921, 0.000993441, 0.000687383, -0.000489656, -0.000576374, 0.00131026, 0.000387689},
    {-0.0258773, 0.0262999, -0.0469836, 0.34776, -0.105024, 0.0777643, 0.00186931, 0.0894664, 0.0354392, -0.0778402, 0.048054, 0.00374474, 0.00717829, 0.0516305, 0.0999504, -0.0125392, -0.0169426, 0.000567867, 0.0596383, 0.000121114, 0.00438728, 0.00863892, -0.00645959, -0.00180369, -0.0421111, -0.127066, -0.0408517, 0.007193, 0.00226838, -0.00102875, 0.00625136, -0.018562, 0.0308102, -0.00399767, -0.000375305, 0.00444667, -0.0168152, -0.0193609, 0.00641402, -0.0524531, -0.0190966, 0.0295697, 0.0118974, -0.0604098, -0.00205046},
    {0.00495543, 0.00062541, -0.00176257, -0.0416158, 0.0507608, 0.00123263, 0.00800623, 0.00813749, 0.00839611, -0.00490487, 0.00846705, -0.00722328, -0.00708578, 0.0082945, 0.00878016, 0.00553159, 0.00559073, -0.00727822, 0.0086328, -0.00778333, -0.00628248, -0.00652322, 0.00723511, -0.00790575, -0.00807489, -0.0267132, -0.00828048, -0.00602386, 0.0078565, 0.0080833, 0.00799089, -0.00841933, 0.00836359, 0.0070896, -0.00766192, 0.00773299, -0.00823684, 0.00181655, -0.00673216, -0.00226677, -0.00856199, 8.45045e-05, 0.00845335, -0.00821213, -0.00762524},
};

float layer_1_bias[NUM_NEURONS] = {0.00145, 0.00033331, -9.89616e-05, 0.242657, 0.236395, -0.0119089, 0.00186111, -0.00201963, 0.00131605, 0.00164349, 0.00120207, -0.00157417, -0.0016562, 0.00111801, 0.143238, 0.0010274, 0.00125106, -0.00148307, 0.00110142, -0.00179924, -0.00110409, -0.00137549, 0.00171991, -0.00179119, -0.00112709, 0.0730262, -0.00120871, -0.00107157, 0.00173032, 0.0020833, 0.00166739, -0.00158793, 0.00135138, 0.00150866, -0.00168089, 0.00157809, -0.00152202, 6.41317e-06, -0.00140089, 1.89779e-05, -0.00166466, 0.000219597, 0.00178941, -0.00096711, -0.00159604};

float layer_2_weight[NUM_NEURONS][nkoop] = {
    {-0.00182445, 0.0195134, 0.00645323, -0.0540133, -0.0153497, -0.0118068, -0.0202336, -0.012678, -0.0100174, 0.0230558, 0.013663, -0.00793848, 0.0190169, 0.00142264, 0.0180227, -0.00440288, -0.022308, 0.00689826, -0.0430919, 0.0335425, 0.0226394, -0.0253898, 0.00957743, -0.0260272, 0.0174616, -0.00248779, 0.001592, -0.00873808, -0.0104016, -0.0179684, -0.012812, -0.0195857, -0.0106793, -0.00254362, 0.0152077, 0.00787807, -0.00944705, 0.011187, -0.00236565, 8.53803e-05},
    {-0.00798415, -0.00527442, -0.00271395, 0.0181001, -0.0234468, 0.00288239, 0.00678127, -0.00527436, 0.0019735, -0.000525794, -0.0122895, -0.00179379, 0.00220873, 0.00469789, -0.0108831, 0.0235116, 0.00644041, -0.00412019, 0.00456291, -0.0101353, -0.00474654, 0.00207758, 0.000800122, 0.00583914, -0.00710855, -0.00329101, 0.00494212, -0.0124518, 0.00772521, 0.00766062, 0.00920239, -1.02883e-05, 0.00313992, 0.00701987, 0.0068118, -0.0075448, 0.0077645, 0.00380325, 0.00289615, 0.000333188},
    {0.0154142, 0.00901802, 0.00559049, -0.0304332, 0.0460275, -0.00530302, -0.0115306, 0.00992201, -0.00381511, -0.00129345, 0.0224141, 0.00415437, -0.00476922, -0.00852214, 0.0198572, -0.0447572, -0.0108226, 0.00728993, -0.00653706, 0.0172547, 0.0076728, -0.00191748, -0.00169072, -0.00920992, 0.0113997, 0.00695751, -0.00973226, 0.0243832, -0.0141264, -0.0133339, -0.0167161, 0.00135061, -0.00499727, -0.0129906, -0.0141544, 0.0142841, -0.0141823, -0.00775846, -0.00534976, -0.000790827},
    {0.0131933, -0.0711907, 0.153633, 0.19144, -0.0203989, 0.0990688, 0.0338359, -0.0464721, 0.190921, -0.0507189, -0.0875434, 0.134131, -0.0899379, 0.0186557, -0.0168119, 0.0874347, 0.115127, -0.00114447, 0.102968, -0.190328, -0.0280946, -0.0201186, -0.0744915, 0.0560127, -0.163793, -0.0579152, 0.0214862, -0.0218058, 0.053577, 0.0970752, 0.125902, 0.0284829, -0.0764304, 0.0324452, 0.0428876, -0.0339475, 0.123574, -0.0252754, -0.137803, -0.0671397},
    {0.0247315, 0.0954982, 0.0513899, -0.176185, 0.00674831, 0.103588, -0.0911379, 0.0897247, 0.204479, 0.123852, 0.10234, 0.0228492, -0.0979638, -0.085191, 0.102793, -0.104693, -0.0862244, 0.0434593, -0.025954, 0.0447606, 0.0495683, -0.137325, -0.116513, -0.118744, 0.114993, -0.0661418, 0.011687, 0.0252792, -0.0824826, -0.0454141, -0.0205128, -0.0910381, -0.174512, -0.0397646, 0.0192797, -0.0136622, 0.0155489, 0.00403046, -0.125146, -0.0655449},
    {-0.0211881, -0.0311808, -0.0237257, 0.0859721, -0.0544855, 0.0254708, 0.0347806, 0.00938121, 0.0258211, -0.0110861, -0.0418984, -0.00421949, -0.0181076, 0.00562883, -0.0473369, 0.0684628, 0.0335259, -0.0160039, 0.0570417, -0.0550626, -0.0346106, 0.0218042, -0.0104487, 0.035211, -0.0217223, -0.0125335, 0.0140957, -0.0272681, 0.0278335, 0.0335084, 0.0338749, 0.0138944, 0.0127154, 0.0190297, 0.00616545, -0.032036, 0.0266853, 0.000179198, 0.010235, 0.000942234},
    {-0.0149112, 0.0198328, 0.00411768, -0.050567, -0.0579211, -0.0121303, -0.0191455, -0.0254289, -0.0110334, 0.0330493, 0.00147595, -0.0144551, 0.0300928, 0.00855237, 0.00924861, 0.0295492, -0.0224332, 0.00381224, -0.0547749, 0.0330519, 0.0252679, -0.0335741, 0.0145928, -0.0286699, 0.015382, -0.00909379, 0.00969695, -0.0312042, -0.00315151, -0.0144278, -0.00469856, -0.0284624, -0.010893, 0.00669878, 0.0322264, -0.000543453, -0.00194703, 0.0215452, 0.00106052, 0.000986505},
    {-0.0387987, -0.00801069, -0.0122578, 0.0323054, -0.121637, 0.00721631, 0.0116555, -0.0319461, 0.0078828, 0.0238067, -0.0431491, -0.016316, 0.023657, 0.0204025, -0.0352695, 0.107062, 0.0113716, -0.0113431, -0.0142754, -0.0172383, -0.0019875, -0.0158617, 0.0106877, 0.00297208, -0.0130687, -0.0214903, 0.0253706, -0.0652296, 0.0268989, 0.0189803, 0.0311917, -0.0196737, 0.000843929, 0.0282439, 0.0466303, -0.0308337, 0.0272961, 0.0272312, 0.0100875, 0.00276964},
    {-0.0250341, 0.0121095, 0.000325859, -0.0262924, -0.086431, -0.00827375, -0.0104038, -0.0323865, -0.00848964, 0.0319662, -0.0143929, -0.016039, 0.0325249, 0.0145943, -0.00489609, 0.0597836, -0.0130424, -0.00123856, -0.0482412, 0.019387, 0.0190313, -0.0303449, 0.0157076, -0.0205048, 0.00565066, -0.013468, 0.0158598, -0.046579, 0.00716261, -0.00432447, 0.00738489, -0.0281208, -0.00677961, 0.0154471, 0.0407208, -0.0103105, 0.00814579, 0.0258807, 0.00452456, 0.00184491},
    {0.0291655, 0.0132083, 0.0114899, -0.0441334, 0.0887639, -0.00931751, -0.0169795, 0.0185831, -0.00827719, -0.00926289, 0.0382845, 0.0102175, -0.010953, -0.0148415, 0.0338794, -0.0828791, -0.0157875, 0.0117469, -0.00541496, 0.0254947, 0.0101674, 0.00264643, -0.00428584, -0.0114943, 0.015462, 0.0149811, -0.0187938, 0.0470213, -0.0240564, -0.0208778, -0.0283296, 0.00711642, -0.00579136, -0.022915, -0.0296588, 0.0261603, -0.0240503, -0.0164734, -0.0092463, -0.00174752},
    {-0.0287174, 0.00905135, -0.00112232, -0.0166191, -0.0967185, -0.00667569, -0.00693914, -0.0348852, -0.00730214, 0.0313452, -0.0204585, -0.016471, 0.0332331, 0.0168267, -0.0103624, 0.0710615, -0.00918736, -0.00317557, -0.0453158, 0.0138738, 0.0164679, -0.0288626, 0.0160084, -0.0171689, 0.00176526, -0.0151006, 0.0181547, -0.0521527, 0.011153, -0.000296606, 0.0120793, -0.0277781, -0.00523303, 0.0186715, 0.043736, -0.0140495, 0.0120467, 0.0273757, 0.00578999, 0.00217122},
    {0.0118665, -0.0189897, -0.00425608, 0.0494187, 0.0476638, 0.011454, 0.0185709, 0.021791, 0.0101878, -0.0299875, -0.00374154, 0.0127487, -0.0266735, -0.00679823, -0.0105165, -0.02197, 0.0215957, -0.00425687, 0.0502356, -0.0318424, -0.0237389, 0.0308015, -0.013007, 0.0271032, -0.0153451, 0.00754962, -0.00783807, 0.0257858, 0.00444855, 0.014585, 0.00607831, 0.0256748, 0.0104572, -0.00468417, -0.0277504, -0.00101696, 0.00332928, -0.0187504, -0.000371575, -0.000734885},
    {0.0106825, -0.0196312, -0.00471981, 0.051496, 0.0441742, 0.0118449, 0.0193389, 0.0210002, 0.0104749, -0.029778, -0.00534839, 0.0124028, -0.0262703, -0.00616327, -0.0119373, -0.0185877, 0.0223441, -0.00475564, 0.0505746, -0.0329985, -0.0242303, 0.0308461, -0.0128337, 0.0277115, -0.0161234, 0.00698772, -0.00710971, 0.0239329, 0.00547629, 0.0155005, 0.00727022, 0.0254703, 0.0107735, -0.00372749, -0.0266272, -0.0020822, 0.00434546, -0.0181334, 1.4102e-05, -0.000650761},
    {-0.0293556, 0.00750689, -0.00169209, -0.0121637, -0.0980388, -0.00581571, -0.00525407, -0.0346821, -0.00659761, 0.0301049, -0.0223365, -0.0161916, 0.0324316, 0.0171888, -0.0123264, 0.0734611, -0.0073825, -0.00391047, -0.0425999, 0.0111437, 0.0148658, -0.0273659, 0.0155917, -0.0152832, 0.000206196, -0.0152911, 0.0185445, -0.0528519, 0.0124197, 0.00135289, 0.0136264, -0.0267221, -0.00436325, 0.0194439, 0.043588, -0.0151505, 0.0132558, 0.0271191, 0.00615623, 0.00220834},
    {-0.104355, -0.0705117, 0.0728877, 0.0906153, -0.183502, -0.133415, 0.0644362, 0.000876461, -0.21938, -0.126367, -0.083167, -0.0340272, 0.0698801, 0.0484895, -0.0622281, 0.057446, -0.0545534, -0.0863474, -0.0241081, -0.0273811, -0.016869, 0.0677497, 0.0574891, 0.0485716, -0.0181408, 0.0715901, -0.0403491, -0.0592738, 0.0251777, 0.0064961, -0.000199146, 0.093272, 0.197038, 0.0891892, -0.0172415, 0.0547749, -0.0360269, -0.0325733, 0.0694921, 0.0115237},
    {-0.00635992, 0.0166877, 0.00434014, -0.045209, -0.0286468, -0.00993499, -0.0168023, -0.0150736, -0.0085336, 0.0235766, 0.00725428, -0.0092902, 0.0199999, 0.0037019, 0.0121517, 0.00860731, -0.0191575, 0.00481737, -0.0407072, 0.0284532, 0.0202128, -0.0248198, 0.0099136, -0.0232641, 0.0144621, -0.00464402, 0.00441873, -0.0157336, -0.00634226, -0.0141731, -0.00803856, -0.0199537, -0.00924984, 0.0011731, 0.0191781, 0.00356306, -0.00543402, 0.0133096, -0.000778726, 0.000338577},
    {-0.00530705, 0.0182629, 0.00516281, -0.0496987, -0.026034, -0.0109229, -0.0185369, -0.0150156, -0.00934947, 0.0244284, 0.00944454, -0.00931018, 0.0205833, 0.00318335, 0.01438, 0.00517526, -0.0209221, 0.00561508, -0.0431695, 0.0311652, 0.0217858, -0.0260463, 0.0102271, -0.0250748, 0.0159681, -0.00421323, 0.00377236, -0.0143589, -0.00779174, -0.0158768, -0.00977923, -0.0207118, -0.0100668, 0.000138837, 0.0188434, 0.00497245, -0.00683027, 0.0132664, -0.00126406, 0.000282078},
    {0.0128333, -0.0182151, -0.00382839, 0.0470554, 0.0503783, 0.0110325, 0.0176912, 0.0223352, 0.00989403, -0.0298642, -0.00222792, 0.0129267, -0.0268145, -0.0073344, -0.00912918, -0.0248335, 0.0207031, -0.00375938, 0.0494739, -0.0304874, -0.0230795, 0.0304595, -0.0130641, 0.0262894, -0.0144643, 0.0079694, -0.00842198, 0.0272311, 0.00347192, 0.0136161, 0.00493041, 0.0256008, 0.0100363, -0.00552008, -0.0285078, -6.04738e-05, 0.0023758, -0.0191294, -0.000720073, -0.000806233},
    {-0.0322977, 0.00645828, -0.00250658, -0.00828782, -0.106912, -0.00527413, -0.00398002, -0.0375084, -0.00619241, 0.0312691, -0.0260488, -0.0170471, 0.0342328, 0.0189746, -0.0153345, 0.0819266, -0.00580842, -0.00489534, -0.043233, 0.00914934, 0.0143923, -0.0279273, 0.0164604, -0.0144197, -0.00162937, -0.0167907, 0.0204179, -0.0576783, 0.0148338, 0.00328171, 0.0163963, -0.0278454, -0.00402234, 0.0216878, 0.0469536, -0.0175734, 0.015642, 0.0290291, 0.00695999, 0.00251039},
    {0.0139351, -0.0197022, -0.00423597, 0.0505708, 0.0547065, 0.0120316, 0.0191013, 0.0243456, 0.0108878, -0.0321933, -0.0023054, 0.0139559, -0.0291354, -0.00799919, -0.00979083, -0.0270397, 0.0223304, -0.00399581, 0.0536256, -0.0329012, -0.0249368, 0.0328431, -0.0141519, 0.0283463, -0.0154892, 0.00859214, -0.00909443, 0.0295006, 0.00364925, 0.0146078, 0.00523961, 0.0276833, 0.0107992, -0.00603207, -0.0308718, -3.57934e-05, 0.00246697, -0.02071, -0.000828056, -0.000906533},
    {0.00991675, -0.0163736, -0.00361975, 0.0431753, 0.040014, 0.00980913, 0.0160911, 0.0183686, 0.00863176, -0.025821, -0.00360066, 0.0108917, -0.0226822, -0.00566924, -0.00938466, -0.0180384, 0.018724, -0.00383277, 0.0430567, -0.0276258, -0.0204984, 0.0265573, -0.0111307, 0.0234644, -0.013478, 0.00639147, -0.00662172, 0.0217551, 0.00413755, 0.012835, 0.0055341, 0.0219834, 0.00906769, -0.00378373, -0.0235633, -0.00111466, 0.00317202, -0.0159457, -0.00019462, -0.000573675},
    {0.00922937, -0.0183573, -0.00446844, 0.0486577, 0.0388062, 0.011006, 0.018195, 0.0188133, 0.00962956, -0.027409, -0.00577578, 0.011267, -0.0238834, -0.00532107, -0.0117364, -0.0153597, 0.0209602, -0.00468191, 0.0466284, -0.0309924, -0.0225615, 0.0284974, -0.0117225, 0.0258636, -0.0153377, 0.00619135, -0.0062098, 0.0211066, 0.00561704, 0.0148079, 0.0073377, 0.0233577, 0.0101175, -0.00292066, -0.0239441, -0.00244565, 0.0045741, -0.0163763, 0.000237997, -0.000538929},
    {-0.0111595, 0.0198761, 0.00473124, -0.0519698, -0.0458462, -0.0120066, -0.0195386, -0.0216184, -0.0106488, 0.0303798, 0.00507834, -0.0127151, 0.026895, 0.006434, 0.0118392, 0.0197271, -0.0226031, 0.00472247, -0.0515048, 0.0333686, 0.024586, -0.0314139, 0.0131216, -0.0280984, 0.0162338, -0.00724097, 0.007405, -0.0248139, -0.00533456, -0.0155732, -0.00712982, -0.0260086, -0.0109047, 0.00402255, 0.0273985, 0.00188148, -0.00418297, 0.0186265, 8.03323e-05, 0.0006871},
    {0.0146965, -0.0195194, -0.00403317, 0.0498265, 0.0570636, 0.0119269, 0.0188474, 0.0250194, 0.0108342, -0.0325674, -0.00144338, 0.0142475, -0.0296193, -0.00842255, -0.0090985, -0.0291248, 0.0220931, -0.00375731, 0.053915, -0.0325434, -0.0248817, 0.0330827, -0.0143723, 0.0282416, -0.0151646, 0.00896891, -0.00956427, 0.0307549, 0.00310633, 0.0142168, 0.00462422, 0.0280326, 0.0107254, -0.00660414, -0.0317492, 0.000545537, 0.00192077, -0.0212242, -0.00104296, -0.000966668},
    {0.0262304, -0.00929947, 0.000762679, 0.0181514, 0.0889294, 0.00660856, 0.0073476, 0.032099, 0.00706357, -0.0297837, 0.0178371, 0.0155322, -0.0310754, -0.0152771, 0.00848676, -0.0643088, 0.0097249, 0.00255291, 0.0433299, -0.0144153, -0.0161208, 0.0276624, -0.0149573, 0.0170693, -0.00276565, 0.0138708, -0.016618, 0.0479378, -0.00950573, 0.00129786, -0.0102334, 0.026277, 0.00529133, -0.0168751, -0.0405342, 0.0123787, -0.0104027, -0.0254826, -0.00517108, -0.00190938},
    {0.0513221, 0.0251268, 0.0887918, -0.0700859, 0.165824, -0.12129, -0.00252726, -0.0175152, -0.170557, -0.107473, 0.0514141, 0.0203709, 0.0573325, 0.0113457, 0.0796112, -0.198096, -0.0609983, -0.00715865, -0.0701018, 0.0777005, 0.0302793, 0.0667837, 0.038612, -0.0206561, -0.0105815, 0.105106, -0.0666061, 0.0960042, -0.0500692, -0.0506478, -0.0724687, 0.0659191, 0.093463, -0.0206323, -0.0860665, 0.115169, -0.0733021, -0.0444281, 0.0334914, 0.00304762},
    {0.0263078, -0.0103108, 0.000427849, 0.0209122, 0.0896415, 0.00724993, 0.00841962, 0.0327998, 0.00765045, -0.0309434, 0.0170887, 0.0159249, -0.0320813, -0.0153481, 0.00752393, -0.0640324, 0.0108706, 0.00218631, 0.0456131, -0.0161856, -0.0172979, 0.0289359, -0.015465, 0.0183931, -0.0036463, 0.0139805, -0.0166583, 0.0483222, -0.00896749, 0.00223369, -0.00954501, 0.0272973, 0.00584414, -0.0167181, -0.0412869, 0.0119511, -0.00989748, -0.0260379, -0.00505658, -0.00193956},
    {0.00868508, -0.0164616, -0.00385175, 0.0438293, 0.0360715, 0.00982991, 0.0163113, 0.0171998, 0.0085728, -0.0250275, -0.00485051, 0.0103356, -0.0217242, -0.00498226, -0.0103197, -0.0147805, 0.0188543, -0.00416571, 0.0421851, -0.0278748, -0.0203706, 0.0259333, -0.0106935, 0.0233696, -0.0138108, 0.0057874, -0.00586168, 0.0196659, 0.00489207, 0.0132806, 0.00638796, 0.0212596, 0.00912153, -0.00288307, -0.0220291, -0.00194892, 0.00394616, -0.015022, 0.00013833, -0.00048872},
    {-0.0147247, 0.0192125, 0.00389854, -0.0490124, -0.0569945, -0.0117149, -0.0185329, -0.0248593, -0.0106308, 0.0322803, 0.00118495, -0.0141566, 0.0293518, 0.00842569, 0.00878512, 0.0293451, -0.0217454, 0.00364972, -0.053276, 0.0320242, 0.0245446, -0.0327451, 0.0142446, -0.0278593, 0.0148997, -0.00897472, 0.0095856, -0.0307252, -0.00292022, -0.0139341, -0.00439509, -0.0277776, -0.0105798, 0.00667861, 0.0315958, -0.000712345, -0.0017479, 0.0211016, 0.00108417, 0.000965473},
    {-0.0142735, 0.0209865, 0.00467924, -0.0537758, -0.0564857, -0.0128487, -0.0203651, -0.0254698, -0.0116557, 0.0337647, 0.00294536, -0.0145515, 0.0306101, 0.00822762, 0.0107688, 0.0273642, -0.0237432, 0.00434359, -0.0566601, 0.0350111, 0.0264094, -0.0345312, 0.0148372, -0.0300071, 0.0164916, -0.00882947, 0.00930794, -0.0304209, -0.00414413, -0.0156256, -0.00588517, -0.0290753, -0.0114751, 0.00604033, 0.0321235, 0.000393574, -0.00288864, 0.0216003, 0.000761696, 0.000940376},
    {-0.0160806, 0.0185005, 0.00345081, -0.0466681, -0.0609822, -0.0113578, -0.0176922, -0.0258904, -0.010422, 0.0325028, -0.000658021, -0.0145195, 0.0299134, 0.00920155, 0.00720024, 0.0332174, -0.0208887, 0.00308838, -0.0530316, 0.0307525, 0.0240463, -0.0327069, 0.0145032, -0.027187, 0.013952, -0.00959295, 0.0104087, -0.0328561, -0.00174211, -0.0128985, -0.0030313, -0.028032, -0.0102051, 0.00777917, 0.0329145, -0.00188689, -0.000585882, 0.0218264, 0.00151694, 0.001076},
    {0.0203511, -0.0165557, -0.00227468, 0.039987, 0.0736722, 0.0105246, 0.0153631, 0.0295177, 0.0100706, -0.0334564, 0.00628933, 0.015688, -0.0320893, -0.01174, -0.00250942, -0.0453282, 0.0184539, -0.0014235, 0.0530443, -0.0272458, -0.0228628, 0.0329101, -0.0155269, 0.0254264, -0.0110696, 0.0115247, -0.0129979, 0.0396632, -0.00184673, 0.00986312, -0.00110775, 0.0291076, 0.0091629, -0.0112063, -0.0373014, 0.005411, -0.0029639, -0.024276, -0.00282829, -0.00144809},
    {-0.0236652, 0.013184, 0.000804687, -0.0297047, -0.0825874, -0.00877813, -0.0116225, -0.0314039, -0.00880925, 0.0321679, -0.012193, -0.0158617, 0.0321804, 0.0137496, -0.00294551, 0.0556582, -0.0143791, -0.000536691, -0.0491561, 0.0213056, 0.0198983, -0.0308322, 0.0155504, -0.0216595, 0.00704706, -0.0128881, 0.0150239, -0.0445003, 0.00572934, -0.00574525, 0.00570119, -0.0282043, -0.00736198, 0.0142513, 0.0395764, -0.00898332, 0.00674444, 0.0253041, 0.00405513, 0.00172297},
    {-0.0115457, 0.0186583, 0.00420017, -0.0486641, -0.0464524, -0.0112637, -0.0182665, -0.0212861, -0.0100128, 0.0293964, 0.00379451, -0.0124777, 0.0261136, 0.00661831, 0.0104285, 0.0212679, -0.0212398, 0.00421935, -0.0492713, 0.0313198, 0.0233212, -0.0302196, 0.0127481, -0.0266338, 0.0151243, -0.0073584, 0.00763383, -0.0251466, -0.00445603, -0.0143918, -0.00606069, -0.0251533, -0.0102656, 0.00451944, 0.0271215, 0.00108809, -0.00335974, 0.0183336, 0.000331992, 0.000710226},
    {0.0138297, -0.0191438, -0.00401141, 0.0491459, 0.0540759, 0.011636, 0.0185435, 0.0238892, 0.0104964, -0.0315606, -0.00198643, 0.0137194, -0.0285102, -0.00791386, -0.00932704, -0.0270298, 0.0217047, -0.00383786, 0.0523197, -0.0319679, -0.0242914, 0.0321373, -0.0138551, 0.0276251, -0.015046, 0.00852647, -0.0090376, 0.0291782, 0.003402, 0.0141408, 0.0049246, 0.0271159, 0.0105357, -0.00605504, -0.0303887, 0.000168726, 0.00224612, -0.0203636, -0.000862804, -0.000891569},
    {-0.0150828, 0.0181939, 0.00350413, -0.0462174, -0.0576117, -0.0111491, -0.0174665, -0.0246695, -0.0101795, 0.0314448, 5.88687e-05, -0.0139531, 0.0287714, 0.00862814, 0.00758833, 0.0307231, -0.0205966, 0.00321391, -0.0514824, 0.0303078, 0.0235124, -0.0317545, 0.0139724, -0.0266377, 0.0139213, -0.00906675, 0.0097912, -0.0310674, -0.00215952, -0.0129303, -0.00346821, -0.0270721, -0.0100131, 0.00713096, 0.0314141, -0.00137233, -0.00103327, 0.0208851, 0.00130376, 0.000990579},
    {0.0194947, -0.016411, -0.00231847, 0.0399087, 0.0708594, 0.010359, 0.0152773, 0.0284663, 0.00984245, -0.0326954, 0.00557526, 0.0152678, -0.0311599, -0.0112179, -0.00293579, -0.0431379, 0.0183478, -0.00156822, 0.0518938, -0.0270418, -0.0225043, 0.0322373, -0.0150841, 0.0251021, -0.0111866, 0.0111006, -0.0124779, 0.0381606, -0.00142063, 0.00999155, -0.000648289, 0.0283929, 0.00908204, -0.0106248, -0.0360792, 0.00494501, -0.00252375, -0.0235245, -0.00263186, -0.00136433},
    {0.00198765, 0.00910069, 0.00302407, -0.027277, 0.00216797, -0.00525703, -0.00997081, -0.0027963, -0.00423087, 0.00938428, 0.00947634, -0.00251735, 0.00633702, -0.00113245, 0.0106716, -0.00975759, -0.0107705, 0.00417344, -0.0178834, 0.016391, 0.0102623, -0.0106223, 0.00332317, -0.0120543, 0.00945684, 7.32542e-05, -0.000945333, 0.000841618, -0.0067599, -0.00966304, -0.00811703, -0.00749995, -0.00527176, -0.00345259, 0.00347926, 0.00550618, -0.0064077, 0.0029171, -0.001916, -0.000119595},
    {0.0102184, -0.0183023, -0.00428455, 0.0481814, 0.0419772, 0.0110039, 0.0180368, 0.0197568, 0.00969511, -0.0280648, -0.00479041, 0.0117217, -0.0246674, -0.00586984, -0.0110039, -0.0179603, 0.0208778, -0.00442076, 0.0473664, -0.030826, -0.0226827, 0.0290172, -0.01208, 0.0259618, -0.0150931, 0.00667639, -0.00681665, 0.0227826, 0.00502331, 0.0144692, 0.00666835, 0.0239538, 0.0100806, -0.00363787, -0.0251818, -0.00178486, 0.0039662, -0.0171212, -2.95693e-05, -0.00060971},
    {0.0177479, 0.00967008, 0.00638471, -0.0327232, 0.0533389, -0.00579111, -0.012439, 0.0115913, -0.00422885, -0.00252607, 0.0251276, 0.00513115, -0.00599918, -0.00968135, 0.0221499, -0.0511635, -0.0115802, 0.00806554, -0.00608496, 0.0185542, 0.0079943, -0.0011662, -0.00220747, -0.00954015, 0.0121803, 0.00819911, -0.0112435, 0.0282591, -0.0158002, -0.0145791, -0.0186642, 0.00230316, -0.00525089, -0.0147275, -0.0168021, 0.0161785, -0.0158629, -0.00926063, -0.00603508, -0.000940896},
    {0.0207915, -0.0169026, -0.00235132, 0.0407528, 0.0752561, 0.0107847, 0.0156889, 0.0302256, 0.0103507, -0.0341361, 0.00644382, 0.0159993, -0.0328214, -0.012016, -0.00255437, -0.0463296, 0.0188144, -0.00144517, 0.0542258, -0.0278168, -0.0233522, 0.0335772, -0.0158773, 0.0259391, -0.0112457, 0.0117582, -0.0132639, 0.040505, -0.00191411, 0.0100444, -0.00115298, 0.0297281, 0.00934808, -0.0114518, -0.0381026, 0.00552473, -0.00304938, -0.024794, -0.00289744, -0.00149602},
    {-0.00791095, -0.00751612, -0.00351111, 0.0244696, -0.0221935, 0.00427676, 0.00913225, -0.00386091, 0.00315909, -0.00308597, -0.0140191, -0.000946904, 6.29854e-05, 0.00456299, -0.0131356, 0.0244347, 0.00904007, -0.0049797, 0.0095027, -0.0140899, -0.00736768, 0.00494199, -0.000326378, 0.00883771, -0.00911111, -0.00311731, 0.00484785, -0.0116766, 0.00906806, 0.00983049, 0.0108095, 0.0021745, 0.00436485, 0.00740747, 0.00526024, -0.00859259, 0.00899518, 0.00259848, 0.00321549, 0.000358707},
    {-0.0185632, 0.0184679, 0.00313112, -0.0456982, -0.0689314, -0.011527, -0.017459, -0.0285949, -0.0107975, 0.0342321, -0.00306918, -0.0156054, 0.0321459, 0.0106755, 0.00551652, 0.0397518, -0.0207195, 0.00249996, -0.055341, 0.0305661, 0.0245554, -0.0341208, 0.0155534, -0.0275538, 0.013268, -0.0107945, 0.0119158, -0.0370911, -0.000269905, -0.0121246, -0.00139666, -0.0296711, -0.0101908, 0.00955533, 0.0361469, -0.0034539, 0.000913639, 0.0237754, 0.0021516, 0.00129999},
    {0.0316094, -0.00472938, 0.00300592, 0.0037813, 0.103962, 0.00417935, 0.00215478, 0.0355042, 0.00519396, -0.0288337, 0.0267728, 0.0161938, -0.0319316, -0.0184565, 0.016638, -0.0808181, 0.00397946, 0.00544533, 0.0386873, -0.00613557, -0.0122053, 0.0253929, -0.0152863, 0.0120749, 0.00285708, 0.0162957, -0.0199761, 0.0560283, -0.0153868, -0.0046892, -0.0171708, 0.0256505, 0.00297056, -0.0215688, -0.0448493, 0.0179345, -0.016125, -0.0275745, -0.00705943, -0.00239051},
    {0.0142172, -0.0185403, -0.00374732, 0.0474315, 0.0550062, 0.0113065, 0.0178959, 0.0239544, 0.0102465, -0.0311942, -0.00115394, 0.0136817, -0.0283164, -0.00813172, -0.00849925, -0.0283037, 0.021019, -0.00353841, 0.0514137, -0.0309407, -0.0237137, 0.0316544, -0.0137629, 0.0269309, -0.0144304, 0.00866842, -0.0092664, 0.0296794, 0.00285106, 0.0134953, 0.00426428, 0.0268153, 0.0102016, -0.00644694, -0.0305075, 0.000672741, 0.00172017, -0.0203724, -0.00103862, -0.000920692},
};

float layer_2_bias[nkoop] = {0.000524818, -0.000464595, -0.0337616, -0.00311987, 0.00604007, 0.000621707, 0.00223152, -0.00303234, -0.0173874, 0.00945236, -0.00493498, 0.000198614, 0.0159344, 0.0138941, -0.00329661, -0.00543506, -0.00330734, 0.00510872, -0.00234805, 0.00376303, 0.00751339, -0.0051301, -0.00324001, 0.00323115, 0.0180984, -0.00694199, 0.0017122, 0.0047257, 0.0284002, 0.0285594, -0.0193351, -0.00463184, 0.0140841, 0.0198648, -0.00506049, 0.0117619, 0.00591118, 0.00658005, 0.0173351, 8.88043e-05};

