#include "controller_koopman.h"

int structure[NUM_LAYERS][2] = {
    {NUM_INPUTS, NUM_NEURONS},
    {NUM_NEURONS, NUM_NEURONS},
    {NUM_NEURONS, NUM_OUTPUTS}
};

float residual_weight[NUM_INPUTS][nkoop] = {
    {0.96976, 0.0313039, -0.00880183, -0.00635674, -0.018352, -0.00867495, 0.0213077, -0.0410426, 0.00889865, -0.216992, 0.0708275, -0.221551, 0.0261688, 0.188226, 0.242061, -0.013289, 0.0338373, 0.0533637, -0.375449, -0.028187, -0.351346, -0.184325, 0.154596, 0.228669, 0.24721, 0.153646, 0.0862944, -0.268419, 0.331214, 0.175984, -0.127714, 0.184331, -0.233232, -0.257284, -0.346193, 0.210222, -0.153267, -0.0243111, -0.30768, 0.0103926},
    {0.00204521, 1.00546, -0.00648872, 0.0152548, 0.00860608, -0.0240898, 0.0978523, -0.00225248, -0.00269516, 0.0698487, -0.205079, -0.25998, 0.0188124, -0.325936, -0.237036, -0.0281134, 0.118752, 0.0990297, -0.166402, -0.100016, -0.21988, -0.0197434, -0.310211, -0.206619, -0.144034, 0.0706003, 0.147876, -0.15436, -0.125852, 0.29189, -0.0527858, 0.458569, -0.109577, 0.0828912, 0.0728787, -0.14269, 0.243226, -0.0569389, 0.305466, -0.0878969},
    {0.0152673, -0.00209465, 0.93485, -0.00416195, -0.0326771, 0.0137158, -0.00369918, -0.0544879, -0.00665924, 0.165077, -0.387615, -0.0810368, 0.168701, 0.0229127, 0.218277, 0.093409, 0.00858275, 0.116547, 0.0830874, 0.00490471, 0.00146225, 0.312085, 0.0983869, -0.102925, -0.231975, 0.0062728, 0.215946, 0.0680869, 0.319363, 0.281777, 0.0985506, -0.0713947, 0.213564, 0.511537, 0.0333337, -0.0281935, -0.207916, 0.037916, 0.234703, -0.275337},
    {0.00734811, -0.00221749, 0.0171391, 0.973479, 0.0198979, -0.00580153, -0.0836818, -0.0173951, 0.00950227, -0.117677, -0.171646, 0.189481, -0.257189, -0.0641016, -0.251043, -0.111513, -0.170262, -0.0805073, 0.097936, -0.0963376, -0.18476, 0.185759, 0.329574, -0.162487, -0.0503986, 0.256237, -0.254115, -0.282456, -0.0203601, -0.232965, -0.328115, -0.110602, -0.507301, 0.24501, -0.244228, -0.0499131, -0.306735, -0.295274, 0.0769717, -0.019994},
    {-0.0149454, 0.00134368, -0.0326502, 0.00274994, 0.864893, 0.00559182, 0.00203326, -0.054621, -0.00209971, 0.214848, -0.316288, 0.488256, -0.213258, -0.338123, -0.0210543, 0.168486, -0.110674, -0.26941, -0.342962, 0.0288786, -0.257791, 0.00958209, 0.0146433, 0.0671427, 0.0317051, 0.217089, 0.216741, 0.278034, 0.256895, -0.18299, 0.0183567, 0.102534, -0.0451837, -0.047847, -0.144169, 0.269271, 0.262789, 0.205739, -0.36951, -0.176424},
    {0.00432812, 0.0122998, -0.00632536, 0.0162129, 0.0166127, 0.943246, 0.015867, 0.0107092, -0.0180223, 0.153056, 0.0695944, -0.0296971, 0.0309961, -0.0592717, -0.0383214, 0.0483746, 0.17732, -0.0681763, -0.0579655, 0.0263558, 0.200127, 0.144513, -0.125378, 0.121613, -0.0306891, 0.128503, -0.0865563, 0.0220115, 0.144122, 0.0374524, 0.257453, 0.0633884, -0.0741508, -0.102016, -0.127789, -0.100231, -0.124707, -0.0446642, 0.0870369, 0.059927},
    {-0.00747482, -0.0163306, 0.00610701, -0.012932, -0.00762627, -0.011743, 0.890025, 0.0140683, 0.00237924, 0.075564, 0.124818, 0.132742, -0.172229, 0.0579275, -0.0100426, -0.0102653, 0.0125911, -0.0957591, 0.0307911, -0.126652, -0.199594, 0.00582293, -0.0608466, -0.0208831, -0.0431657, -0.11037, -0.0276391, 0.054938, 0.112233, 0.0777415, -0.0813427, -0.0574225, -0.0440586, 0.0505252, 0.109167, 0.0448759, -0.0971851, -0.0573913, 0.121722, 0.079372},
    {0.0108795, 0.00968491, 0.00790213, -0.0135052, -0.0178017, 0.00822017, -0.033561, 0.910901, 0.00646195, 0.156043, -0.15331, -0.0419866, -0.0791858, 0.00379753, -0.0121479, 0.0342308, 0.0988712, 0.0311804, -0.0929563, -0.10083, -0.0173363, -0.265409, 0.00102567, 0.171096, 0.0458787, 0.185151, -0.120619, -0.0985417, -0.0883398, -0.0444507, -0.0377991, -0.0162292, 0.00756459, -0.0199136, -0.0286268, -0.0501831, -0.0788106, -0.0309419, -0.0219781, -0.0327022},
    {0.00330824, 0.0109923, -0.0104772, 0.0013527, 0.0217738, -0.00701911, 0.00562246, 0.0135442, 0.958845, 0.13297, -0.0384739, -0.0901596, -0.020464, 0.0472105, 0.107848, 0.00357764, -0.0159479, -0.0649233, -0.0178156, -0.107307, -0.00809799, 0.157509, 0.00355983, -0.0775343, 0.16289, 0.0318775, -0.00551258, -0.112406, -0.100962, -0.0823667, 0.127122, 0.0759283, -0.0491268, 0.0313488, -0.0208274, -0.0433685, -0.0300745, 0.00438178, 0.064896, -0.0384523},
};

float residual_bias[nkoop] = {-0.0121025, -0.0129499, -0.00280313, -0.0162852, 0.0069612, 0.00582012, -0.017548, -0.0143369, 0.00277071, -0.038257, 0.0284223, -0.3166, -0.0659818, 0.0385055, 0.0502807, 0.031352, 0.0923575, -0.223895, -0.0367411, 0.083718, -0.0229871, 0.0794211, 0.0547, 0.164587, -0.213705, 0.0253202, -0.0472918, 0.109602, -0.0913641, -0.0526319, 0.0767188, -0.125484, 0.0480981, -0.01499, 0.0258363, 0.182533, 0.194519, -0.283188, -0.00679728, -0.1228};

float layer_0_weight[NUM_INPUTS][NUM_NEURONS] = {
    {-0.0755188, 0.0460334, -0.0231018, -0.0604807, -0.0774079, -0.105284, -0.192291, -0.0501955, -0.201375, -0.0336497, 0.055908, 0.090325, 0.0890933, -0.171534, 0.0360259, -0.0247219, 0.0525413, 0.0260628, 0.0590276, 0.122253, -0.0122575, 0.106888, 0.175071, -0.0306574, 0.049808, 0.0329005, 0.0519192, 0.0474071, -0.0583069, -0.00724069, -0.0501638, 0.20663, 0.0950433, 0.0309897, -0.0537827, 0.092328, -0.185396, -0.0582859, 0.00113327, -0.0545861, -0.118147, 0.0811108, -0.0145875, 0.0333323, -0.0172479},
    {0.0158378, -0.113728, -0.0975982, 0.0414194, 0.00606301, -0.0381681, -0.102966, -0.0067805, 0.0708831, 0.0812825, -0.0492318, 0.0105855, -0.0916115, 0.00779593, -0.0518537, 0.0756977, 0.117092, 0.144369, 0.0368682, -0.0992104, -0.248863, 0.0484994, 0.10359, -0.0737424, 0.0532963, -0.134466, -0.078487, -0.0365727, 0.0315533, 0.0251477, 0.0820872, 0.0944448, 0.0460278, 0.0349003, -0.0170101, -0.0446319, -0.0157846, 0.119275, -0.0744084, 0.136915, 0.034327, 0.21689, -0.00871395, 0.0118072, -0.0494452},
    {-0.167562, 0.078741, 0.0502064, 0.0138337, -0.114054, -0.274346, -0.0526642, 0.230632, 0.0639792, -0.0150298, 0.176565, 0.0193243, 0.0149075, 0.0963913, 0.0369752, 0.0953905, 0.18306, -0.108689, -0.0395571, -0.0487138, -0.157416, 0.178327, 0.142971, 0.193485, 0.00793398, 0.0495262, 0.0029732, -0.0324938, -0.147356, -0.0887487, -0.214644, -0.20374, 0.0217159, -0.0155413, -0.0358789, 0.251051, 0.144972, -0.122108, -0.0201833, 0.112586, 0.0229937, -0.164167, 0.0687867, 0.00248346, 0.109923},
    {-0.224086, 0.110493, -0.0316362, 0.0405641, 0.00333536, 0.108204, -0.0672959, 0.0826845, -0.106569, 0.00730958, 0.16068, -0.0794175, -0.0867699, -0.0437852, -0.0574417, 0.106696, -0.237567, -0.0663522, 0.0402534, 0.0369002, -0.0125581, 0.0481948, 0.000215889, 0.110128, 0.0413583, -0.00250186, -0.0878174, 0.182661, -0.114664, 0.083723, 0.0156246, -0.00124522, -0.140885, 0.0575851, -0.0467142, 0.0790392, -0.0203409, 0.15314, -0.116709, 0.0309902, 0.182504, 0.0508529, 0.00893021, 0.0801027, -0.0711005},
    {-0.0135584, -0.0593337, -0.0558734, 0.0780837, -0.279188, -0.0122592, 0.137978, 0.151464, 0.015959, -0.0472086, -0.0394648, 0.300394, -0.23465, -0.0191468, 0.223518, -0.142212, 0.0482042, -0.207012, -0.212613, 0.0598806, -0.144658, -0.165562, 0.0241234, 0.0855366, 0.227499, -0.000787197, -0.191376, 0.144192, -0.0606854, 0.17144, 0.158215, 0.0505568, 0.136613, 0.0234575, 0.352699, -0.0594783, -0.163333, -0.256404, -0.0177059, -0.218295, -0.123078, -0.0770554, -0.01224, -0.296097, 0.139747},
    {0.0464115, 0.0325516, 0.105282, 0.0508462, 0.0424312, 0.0381519, 0.0294662, 0.0841888, -0.0238446, -0.177751, 0.0172923, -0.0510525, -0.0160678, 0.0802509, -0.0977882, 0.0638314, -0.0541291, 0.0777177, -0.0311209, 0.0908826, -0.023696, 0.0199223, -0.00604012, -0.097655, 0.0297844, 0.0681574, 0.164669, 0.0999151, -0.00620683, -0.0152416, -0.0257348, -0.0408594, 0.0554149, 0.0824745, 0.0155759, 0.0227701, -0.00436933, 0.01868, 0.0358691, 0.0756751, -0.00525848, 0.0700041, 0.00889371, -0.158942, 0.0104488},
    {-0.0787771, 0.0146094, -0.158059, -0.102425, 0.124914, 0.0305914, 0.0158684, 0.0999299, 0.09939, 0.0189904, 0.116362, -0.0787758, -0.201962, -0.0613655, 0.0965461, -0.078236, -0.0647881, 0.027613, -0.10073, 0.0102726, -0.0946634, 0.0686181, -0.0405618, 0.0801916, 0.0985955, 0.0417291, -0.0529876, -0.0930318, -0.0270541, 0.125563, 0.104786, -0.0191265, -0.0174517, 0.0402921, -0.217376, 0.115617, 0.018664, -0.0209665, 0.0692416, 0.202712, -0.0623579, -0.0386614, -0.0325641, -0.149604, -0.0836488},
    {-0.00377911, 0.000674272, -0.0040094, -0.107921, -0.0410792, -0.0150063, -0.0342375, 0.074349, 0.108798, -0.0435421, 0.0312896, 0.0136806, -0.0483312, 0.0778852, -0.105775, 0.0612782, -0.0569336, -0.0488126, 0.090043, -0.153692, 0.033647, -0.0729504, -0.029578, 0.108148, -0.0282845, -0.172072, -0.0230132, 0.104447, 0.087358, 0.0642725, 0.0592904, -0.186734, -0.0888727, 0.00917685, 0.0298372, -0.0704139, 0.0240798, 0.0514611, 0.0335187, 0.0192878, 0.0171276, 0.0170674, -0.0118568, -0.0180851, -0.0568506},
    {0.0353665, -0.06003, -0.000111893, 0.053952, 0.00302995, 0.0184549, -0.0729407, -0.0391128, 0.0431816, 0.132431, 0.0321847, -0.0831201, -0.0112535, -0.0989592, 0.0412141, 0.00498792, 0.0146347, 0.0903075, -0.0844928, 0.0828247, -0.005298, 0.0427333, -0.0124646, 0.0159357, 0.0320904, -0.115301, 0.0952792, 0.00351663, -0.0436605, 0.00809403, -0.0513648, -0.0562772, -0.0560935, 0.129133, -0.0212684, -0.000402286, 0.0458299, 0.00265402, 0.0116924, 0.00271516, 0.0749186, -0.0364605, 0.0474607, -0.0674311, -0.0029464},
};

float layer_0_bias[NUM_NEURONS] = {0.130038, -0.0609255, -0.145592, 0.047674, 0.200219, 0.330917, 0.0582791, 0.0413895, -0.129761, -0.00776279, 0.123022, 0.111503, 0.0375718, -0.130514, 0.0295169, -0.00217676, 0.138364, 0.152665, 0.165536, -0.07978, 0.197789, 0.0183415, 0.0692565, 0.192809, 0.0893146, 0.0655456, -0.0463962, 0.116098, -0.058677, 0.0229764, 0.0730198, -0.158725, 0.161708, 0.049036, -0.0143843, 0.0595478, -0.0470335, 0.146938, 0.0761981, -0.122035, -0.0490518, 0.0819103, 0.0251942, 0.0482216, -0.0468974};

float layer_1_weight[NUM_NEURONS][NUM_NEURONS] = {
    {-0.0114282, -0.0448959, 0.0379337, 0.0359146, -0.0348187, 0.00494589, -0.000206833, 0.0398281, 0.0571489, 0.013785, -9.92101e-39, 0.114923, 0.0766484, 0.00197585, -0.0322465, 0.00792487, 0.11365, -0.0274544, 0.054635, -0.00836508, 0.00447697, 0.0103553, -0.041195, 0.000642546, 0.127463, 0.0135095, -0.0685435, -0.116156, -0.0601925, -0.0315466, -0.00020088, 1.23277e-38, 0.00521688, 0.0192659, 0.0630912, 0.0640966, 0.00632795, -0.0491282, -0.000960167, 0.0607699, 0.0284245, 0.00444636, -0.00187637, 0.0417225, -0.0492084},
    {0.0373507, 0.00111764, 0.0146594, 0.0663671, -0.00612498, 0.0146134, -0.0130533, 0.0001254, -0.0172789, -0.00501037, -5.40591e-38, 0.00837603, 0.0611152, 0.00260994, -0.0368278, -0.00376871, 0.053299, -0.0215494, -0.00544699, -0.00851038, -0.000173871, 0.000312057, -0.0189772, -0.00829904, 0.0565323, -0.0180457, -0.0121916, -0.0633658, -0.0417126, -0.035137, -0.0162908, -3.84898e-38, -0.0246835, 0.00444988, 0.0399485, 0.0148645, -0.0103852, -0.0208723, 0.000481385, 0.0718506, -0.00341856, -0.0179847, 0.093601, 0.0134633, -0.0243567},
    {0.0283839, -0.00221823, 0.0356984, 0.0597522, 0.0180635, 0.0447493, -0.0366417, 0.0126987, -0.0212489, -0.00964773, -5.1679e-38, -0.035606, 0.0745586, 0.070391, -0.0411035, -0.00793364, 0.0245664, 0.0313681, 0.0303667, -0.0325439, -0.00989337, -0.0125503, -0.00905196, -0.00413055, 0.0458632, -0.0806653, -0.00874131, -0.0505888, -0.0596262, -0.0636748, 0.0414402, -1.31583e-38, -0.0160953, 0.000522479, 0.0102567, -0.0255792, -0.045713, -0.0341212, -0.00903071, 0.0928744, 0.0165614, 0.0372709, 0.0805927, -0.0334847, -0.0494292},
    {-0.00101224, -0.0163483, -0.0108989, 0.0509786, -8.61161e-06, 0.00654631, -0.029707, -0.00668009, -0.0426623, 0.0188624, 5.29808e-39, 0.0623897, 0.0422985, 0.0711428, -0.0278822, 0.0129485, 0.0539477, -0.0395801, 0.00599134, -0.00902566, -0.00841301, -0.00270482, -0.00944603, -0.002456, 0.0162116, 0.0126989, -0.0346105, -0.0349845, 0.0297693, -0.0108352, -0.0392659, -3.95698e-38, 0.02006, 0.0069224, 0.0404725, 0.0866887, 0.0408578, -0.0153201, -0.0143858, 0.0211666, 0.0316291, -0.0277373, -0.00256936, 0.0100397, -0.0258641},
    {-0.0216748, -0.111867, -0.0524958, -0.0199609, -0.0390635, -0.032789, 0.0316289, -0.0221881, 0.12443, 0.0333154, -4.09784e-38, 0.0266567, 0.0560287, 0.0514367, 0.00255561, 0.0250054, -0.0196543, -0.0119209, 0.0505641, 0.0170231, 0.000267208, -0.000306393, 0.0223641, -0.0111408, 0.0933641, 0.128642, -0.0339941, 0.0346045, 0.0232655, 0.0657558, -0.0361515, -2.74251e-38, -0.0466242, 0.00164532, 0.0942338, 0.114627, 0.113209, 0.0549802, -0.00508588, -0.103952, 0.0116549, 0.0470352, -0.0188733, 0.131282, 0.0565714},
    {-0.0434308, -0.142019, 0.021407, -0.166892, -0.0523501, -0.0218104, -0.00761195, 0.0147714, -0.0326245, 0.0104904, -2.98131e-38, 0.0362201, -0.0228023, -0.0156981, 0.0780338, 0.00808026, -0.0622247, -0.00159924, 0.02928, 0.100405, 0.0241659, 0.00286935, -0.0334111, -0.00591509, 0.086474, 0.127401, -0.0679259, 0.107015, 0.0472905, 0.102942, 0.0193415, 2.12313e-39, -0.0249896, -0.00478412, 0.0490243, 0.0277963, 0.0592563, 0.00541364, 0.0309082, -0.178857, -0.0479969, -0.00445281, -0.0662396, 0.103464, 0.134056},
    {-0.0435951, 0.00752046, -0.0113726, -0.0912256, -0.00115003, -0.0324157, 0.0140342, 0.00742019, -0.0206479, 0.00839136, -5.13805e-38, 0.0189443, -0.0797401, 0.0976604, 0.0459555, 0.00631311, -0.0386345, 0.00485106, 0.00139824, 0.0648533, 0.00645451, -0.000738515, -0.0447291, 0.0107464, -0.0608069, 0.0458453, 0.0247211, 0.0773535, 0.0309918, 0.051996, 0.00509233, -5.04346e-38, 0.0251855, -0.0142993, -0.0377723, -0.00598587, 0.0251483, 0.00936864, 0.00476878, 0.00266507, -0.00620538, -0.112944, -0.0849397, 0.0138517, 0.0805324},
    {0.0513407, 0.119836, 0.0254769, 0.080456, 0.0379075, 0.0356621, 0.00666793, 0.0141492, -0.0279728, -0.021774, -4.5039e-38, -0.062925, -0.0524974, 0.0291986, 0.0491713, -0.0157133, -0.0179752, 0.0521283, -0.0424083, -0.000224294, 0.00804886, 9.92634e-05, 0.0270664, 0.00306871, -0.121633, -0.029061, 0.0798892, 0.0371276, 0.0453044, 0.00723987, 0.0577205, -6.29451e-38, 0.0325943, -0.00513342, -0.0810948, -0.0816167, -0.0564274, -0.00478157, 0.0200194, 0.0614065, -0.00520692, -0.0629153, 0.0538716, -0.0705932, 0.073664},
    {0.0306206, 0.121936, 0.0351267, -0.0932186, 0.0450115, 0.0257112, -0.0309889, 0.0419447, 0.0755934, 0.00168605, 9.03395e-39, -0.0467064, -0.0516165, 0.086263, 0.0591193, 0.000666051, -0.0356172, 0.0795423, 0.00855264, 0.00964448, 0.00220583, -0.0076022, 0.00828092, 0.0161391, -0.0787146, -0.0262832, 0.113399, 0.0164395, 0.0566615, 0.034738, 0.0770623, -5.02976e-38, 0.0497761, -0.00970482, -0.0476752, -0.0296915, -0.00818961, -0.00181143, 0.00706875, 0.0384537, 0.00579762, -0.0321772, -0.0284594, -0.0327024, 0.0239554},
    {0.036849, -0.0288085, 0.0113073, -0.0742873, -0.0368512, -0.00374803, -0.0213097, 0.00272786, 0.0424229, -0.00680844, 5.87076e-38, -0.0575193, 0.0380826, 0.0240539, 0.027474, -0.00306943, -0.0766602, 0.0221075, -0.00301025, 0.0622212, 0.0111208, -0.00361897, 0.0316988, -0.00253543, 0.0282635, -0.0221023, -0.0199891, 0.0538836, -0.00855736, 0.028714, 0.0342865, -6.37175e-39, -0.0347176, -0.0138864, 0.0422746, -0.0238255, 0.0063914, 0.0142449, 0.0188247, -0.12391, -0.0446672, -0.0165143, 0.0422914, 0.0460484, 0.00462731},
    {0.0100663, 0.0457618, -0.0378013, 0.0144193, 0.00632173, -0.0183656, 0.00245513, -0.0363948, 0.0143052, 0.00328911, -4.24164e-38, -0.0453187, -0.0455371, -0.0119787, 0.0576171, 0.00380523, -0.0911422, 0.0301748, -0.018591, 0.0571208, 0.00888825, -0.00475863, 0.0218668, -0.00560386, -0.137985, 0.0628574, 0.0499545, 0.109982, 0.0666399, 0.0728272, 0.014719, -5.73663e-38, -2.64002e-05, -0.00707653, -0.0146809, -0.000711977, 0.0414597, 0.0499934, 0.0148715, 0.000576643, -0.0159928, 0.0198777, 0.00698399, 0.0380541, 0.12004},
    {0.0202188, 0.127587, 0.0562439, 0.0399441, 0.0873327, 0.0479229, -0.021085, 0.0713729, -0.0288677, 0.0123707, -2.53588e-38, 0.0742286, -0.00701315, 0.0494824, 0.00710238, 0.00787661, 0.109446, 0.00509227, -0.0139442, -0.0244518, -0.00844239, 0.0101549, 0.0434468, 0.0211237, -0.0265035, -0.050992, 0.0157965, -0.0135865, 0.101287, -0.0191081, -0.00295047, -1.02109e-39, 0.112263, 0.00783274, -0.0258823, 0.0474696, -0.00727415, -0.0175993, -0.00778622, 0.134925, 0.0414559, -0.0221157, 0.0184062, -0.0683786, -0.129838},
    {0.0673594, -0.00755535, 0.0637544, 0.108088, -0.0227377, 0.0393124, 0.0817027, 0.0346517, 0.0356627, -0.0268248, -4.83873e-38, -0.00152257, 0.0516897, 0.00765885, 0.0112748, -0.0178303, 0.047853, 0.0149089, -0.0252399, -0.0579973, 0.0175881, 0.0194602, -0.0709879, 0.00350837, 0.158495, -0.0328842, 0.0074989, 0.0251419, -0.0409316, -0.0247996, 0.0730378, -4.8204e-39, -0.0301362, -0.0131878, 0.00739642, -0.0720435, -0.0671689, -0.0268515, 0.0323642, 0.00646424, -0.0557677, -0.0713983, 0.122586, -0.00583508, 0.0826641},
    {0.00794771, 0.0870737, 0.0296231, -0.0254279, 0.0528624, 0.0345306, -0.0182396, 0.0302396, 0.0452711, -0.00491644, 3.08444e-38, -0.0585267, -0.00910934, 0.0983196, -0.00752559, -0.00523854, -0.0175442, 0.0742485, 0.0422716, -0.0540904, -0.0106882, -0.0110144, -0.0249217, 0.00719668, -0.00741001, -0.0661187, 0.0751166, -0.0189938, -0.0445047, -0.0335027, 0.0717939, -1.25223e-38, 0.023557, -0.013438, -0.039091, -0.0475737, -0.041271, -0.0137324, -0.0115674, 0.113853, 0.0314149, 0.00338886, 0.0247234, -0.0511025, -0.00296007},
    {0.0752153, 0.0821167, 0.0860067, -0.0489664, 0.0226775, 0.0399473, -0.00732457, 0.0806763, 0.0158825, 0.00116367, -3.99777e-38, 0.0376385, 0.00976616, 0.00215331, 0.0895964, 0.000582019, 0.0123242, 0.0256854, -0.0290079, 0.0606047, 0.02307, 0.00863138, 0.0358093, 0.0174834, -0.0123147, -0.00598712, 0.0426467, 0.040084, 0.124054, 0.0637911, 0.0637996, 5.98567e-38, 0.0669533, 0.00145178, 0.0237961, 0.0115038, 0.00428778, 0.0296496, 0.037472, 0.00557793, -0.0153523, -0.086663, 0.00430197, 0.024688, 0.0154901},
    {0.0497482, -0.0405523, 0.00493778, 0.0512068, -0.0438629, 0.0245142, 0.0407173, -0.00732324, 0.091527, 0.00342887, -4.22578e-38, -0.00284691, 0.0671055, 0.034751, 0.00899659, 0.00136304, 0.00856232, 0.0218946, 0.029508, 0.0152888, 0.00930715, 0.0131202, 0.00764023, -0.00339943, -0.0141727, 0.0438798, -0.00783437, 0.0124554, -0.00416002, 0.0207066, 0.0375967, 1.06655e-38, -0.0320885, -0.00619932, 0.0690725, 0.0324251, 0.0222271, 0.0192332, 0.0160302, 0.0257722, 0.00514418, 0.00639915, 0.106874, 0.0723255, 0.0617773},
    {0.0773107, 0.0197843, 0.0479848, 0.123498, 0.0184061, 0.0356541, 0.031784, 0.0182347, 0.0670173, -0.00228166, -4.88878e-38, 0.0405906, 0.0922477, -0.0275329, -0.0298662, -0.00323073, 0.100093, 0.00274725, 0.0119143, -0.0725452, 0.00243963, 0.0187293, 0.0855097, 0.00297894, 0.059324, -0.0667883, 0.0207339, -0.119009, -0.00578348, -0.0484034, 0.0126123, -6.21029e-38, 0.0237864, 0.0101883, 0.0593449, 0.0427263, -0.0178619, 0.0197384, 0.00425165, 0.0440477, 0.0220306, -0.0138929, 0.103335, 0.015708, -0.164033},
    {-0.0394495, -0.0494704, -0.0284305, -0.017497, -0.027571, -0.0125345, -0.0132597, -0.000384481, 0.109485, 0.0300364, -3.64818e-39, 0.0525549, 0.0790753, 0.0616215, -0.0671276, 0.0206328, 0.0475561, -0.016914, 0.0691148, -0.0498587, -0.0221023, -0.0143717, -0.0103906, -0.0120539, 0.0719993, 0.0117575, -0.026511, -0.129963, -0.0454947, -0.0285242, -0.0400581, -2.95729e-38, -0.020948, 0.00313138, 0.0679269, 0.106418, 0.0629225, -0.0107778, -0.0367435, -0.00483994, 0.0537895, 0.110987, -0.0217741, 0.0344339, -0.0876848},
    {0.00133252, 0.0543117, 0.0706501, 0.0135542, 0.0323169, 0.0635709, 0.0456101, 0.0682185, 0.0902384, 0.000410642, -3.13423e-38, 0.0411915, 0.0484336, -0.011539, 0.0431533, -0.00126922, 0.0604373, 0.0705874, 0.0605077, -0.0101302, 0.010223, 0.000694919, -0.101264, 0.0121262, 0.0754756, 0.0108839, 0.0153507, 0.0589448, 0.00692839, 0.0146137, 0.104881, -2.07909e-38, 0.0419415, -0.00593868, 0.0135397, -0.0164029, -0.0281829, -0.0236301, 0.0204819, 0.0953946, 0.0222813, 0.0823122, 0.0284487, -0.00351743, 0.08858},
    {0.0169469, -0.026183, 0.035158, 0.0387108, 0.00306124, 0.0246047, -0.0470148, 0.0347722, -0.049287, 0.00921158, -6.11429e-38, 0.0615632, 0.0466713, 0.0685824, -0.0468434, 0.00572975, 0.0724877, -0.0396107, 0.000828848, -0.0488756, -0.00942532, -0.000142864, 0.0231341, -0.00828803, 0.0620113, -0.0344751, -0.0209727, -0.108948, -0.00441367, -0.0463242, -0.0255151, -2.05589e-38, 0.0131015, 0.0067262, 0.0319269, 0.0597271, 0.00656158, -0.038989, -0.0135007, 0.0595387, 0.00974447, 0.00465429, 0.0271245, -0.0270844, -0.0975038},
    {-0.021515, -0.0117127, 0.0538971, -0.117567, 0.0204658, 0.00932235, 0.0748607, 0.0293919, -0.000445013, -0.0150257, -5.43798e-38, -0.0345344, -0.0662756, -0.0183947, 0.101917, -0.00942132, -0.1181, 0.0588703, -0.0249318, 0.00894128, 0.0223204, 0.0167976, -0.0728599, 0.0145262, 0.0501415, 0.0232048, 0.0215459, 0.150431, 0.0496776, 0.069014, 0.102552, -2.08826e-38, 0.0173973, -0.0278457, -0.0451729, -0.0840673, -0.0246823, 0.024054, 0.0367347, -0.0337575, -0.0732625, -0.0540811, 0.0442466, 0.00844393, 0.161213},
    {-0.0144063, -0.0683709, -0.0788172, 0.0456919, -0.0444801, -0.0598195, 0.0349842, -0.0596225, 0.0752478, 0.0180224, -6.59476e-38, 0.0362054, -0.00580547, -0.00440342, -0.0296499, 0.0156911, -0.0121807, -0.0616255, -0.0104585, -0.00719831, -0.00397474, 0.00320322, 0.0568067, -0.0171737, -0.0479847, 0.054132, -0.0220758, -0.0345187, 0.0157367, 0.0227679, -0.0963658, -2.61367e-38, -0.0384175, -0.00463045, 0.0382608, 0.0869596, 0.0848328, 0.041155, -0.0128711, -0.0101513, 0.00160896, 0.0117053, 0.0423975, 0.0668289, -0.0667691},
    {0.00641735, 0.0215601, 0.000790126, 0.0844188, 0.0507847, 0.0333622, 0.0117981, -0.00484008, 0.00665923, 0.00359104, -2.45387e-38, 0.0330408, 0.00209819, -0.0150459, 0.00275807, 0.0025105, 0.0144928, 0.00781453, -0.0129306, -0.062881, -0.0052649, -0.000394524, 0.0940408, -0.000332411, -0.0651396, -0.045166, 0.00508962, -0.0159179, 0.0795417, -0.00999234, -0.0103797, -6.77256e-38, 0.0562377, 0.00328106, -0.0148849, 0.0342416, 0.00107259, 0.00660145, -0.00334014, 0.0556676, 0.026253, 0.0612072, 0.0521929, -0.0444269, -0.121007},
    {0.0177477, 0.136243, 0.00531677, 0.0339598, 0.0796496, 0.0369275, -0.0595024, -0.000328083, -0.0762431, -0.00113337, -1.69795e-38, -0.0275507, -0.0599609, 0.0362801, 0.0526802, -0.000520573, -0.0450045, 0.0499259, -0.00884024, 0.0603257, -0.000688894, -0.0139207, -0.0020219, 0.00614983, -0.154922, -0.0413143, 0.0701466, 0.0784762, 0.0978857, 0.028986, 0.043947, 3.80324e-39, 0.0605598, 0.000934039, -0.0466126, -0.0115894, -0.00699485, 0.0146907, 0.00582686, 0.0795485, 0.0279803, 0.0419469, -0.0335679, -0.0318185, 0.0225486},
    {0.0466758, 0.0936391, 0.089477, 0.0250821, 0.0537624, 0.0584052, -0.0504499, 0.0761059, -0.050851, -0.00756189, -4.97767e-38, 0.0354176, 0.0171445, -0.0138184, 0.0519657, -0.00619719, 0.0419343, 0.0219642, -0.0175976, 0.0541618, 0.0110946, -0.00517949, 0.0542729, 0.00635988, 0.0102466, -0.042978, 0.0184828, 0.0121399, 0.0984054, 0.0129248, 0.0424374, -2.14148e-38, 0.075887, 0.00452612, -0.0201594, -0.0118448, -0.0330422, -0.0199902, 0.0237414, 0.0456285, 0.00516255, -0.0297361, 0.0261746, -0.0591751, -0.00247248},
    {0.0380534, -0.0132128, -0.00168722, 0.036645, -0.00684436, -0.0158218, 0.0469941, 0.00271098, -0.0114909, 0.00494804, 2.12676e-38, 0.0358376, -0.0320197, 0.0262167, 0.0533543, 0.00557151, 0.0231982, -0.0331407, -0.0663324, 0.00684559, 0.0168089, 0.0121855, 0.017118, 0.00207725, -0.0144941, 0.0739504, 0.0192827, 0.0813349, 0.0964056, 0.0655035, -0.028101, -1.26601e-38, 0.021673, -0.00697331, 0.00612709, 0.0347012, 0.0438889, 0.0320032, 0.023311, -0.0337737, -0.061422, -0.127963, 0.016678, 0.0321519, 0.0366977},
    {0.027999, -0.0651604, 0.0406119, 0.0801443, -0.0447694, 0.0255936, 0.026094, 0.0299706, 0.0272085, -0.008468, 4.05923e-38, 0.0158052, 0.0982621, 0.0586284, -0.0534717, -0.00680805, 0.0688995, -0.0140035, 0.0183999, -0.0618476, -0.0021474, 0.0129068, -0.00116208, -0.00664721, 0.122722, -0.0365501, -0.0309328, -0.0710334, -0.0862091, -0.0609563, 0.0219324, -1.36522e-38, -0.0577538, 2.51052e-05, 0.0478938, -0.0025498, -0.0304617, -0.0261352, -0.000658047, 0.0195519, -0.00236051, 0.0115623, 0.101817, 0.00713139, -0.0220944},
    {-0.0229427, 0.047201, -0.0389752, -0.0901011, 0.00591953, -0.0252846, -0.00653789, -0.0100843, 0.0105275, 0.0290402, -5.9443e-38, 0.0272443, -0.0633559, 0.0785661, 0.0440466, 0.0220015, -0.0343116, -0.00235437, -0.0108045, 0.054938, -0.00050796, 0.00562733, 0.00988218, 0.0031676, -0.073581, 0.0932724, 0.0223514, 0.0919861, 0.114304, 0.078077, -0.0346104, -5.21446e-38, 0.0453485, -0.0129429, 0.00683021, 0.0838329, 0.0918377, 0.0248593, -0.00383321, -2.52435e-05, -0.014288, -0.0566969, 0.00669755, 0.0414533, 0.0573969},
    {0.00756341, 0.00117461, 0.025103, -0.0435674, -0.00704647, 0.00163971, 0.0406605, 0.0366132, 0.0855432, 0.00954389, -4.29842e-38, 0.0427631, -0.0402897, 0.00191851, 0.0663159, 0.00678969, -0.00607938, 0.0189644, -0.0135566, 0.0340333, 0.0141277, 0.0122085, -0.0125839, 0.0161278, -0.0219367, 0.0450493, 0.0226554, 0.0537829, 0.0865881, 0.0621814, 0.0281998, 3.73593e-38, 0.0523692, -0.00205693, -0.0112218, 0.0173707, 0.0254571, 0.0106293, 0.0200108, -0.0229871, -0.0073682, -0.0501733, -0.0331717, 0.0220065, 0.0751347},
    {0.0431789, 0.0350473, 0.0781908, -0.040536, -0.0180242, 0.02365, -0.0232367, 0.061811, -0.0370305, -0.0189292, 9.03082e-39, 0.0146623, -0.0284049, -0.0328235, 0.0601386, -0.0128808, 0.0221318, 0.00890127, -0.0298802, 0.0926217, 0.0238257, 0.004856, -0.0113135, 0.00571217, 0.0657896, -0.0113194, 0.0199666, 0.0389116, 0.0459354, 0.0292015, 0.038636, -1.79291e-38, 0.0179961, -0.00530601, -0.028288, -0.0584212, -0.04314, -0.0269758, 0.038594, -0.0420325, -0.0342629, -0.0581843, -0.0138915, -0.0319636, 0.0744272},
    {0.0478926, -0.0299277, 0.106199, -0.0233418, -0.0324345, 0.0415418, -0.0324428, 0.0808871, -0.0665094, -0.019609, -4.52898e-38, 0.0714771, 0.0234667, -0.0389461, 0.0236907, -0.0150466, 0.105769, -0.01079, -0.00533935, 0.0825016, 0.0230473, 0.00527439, -0.0365044, 0.00106097, 0.131011, -0.0429494, -0.0249064, -0.0561985, -0.00295529, -0.0152343, 0.0326346, 1.65023e-39, 0.0135953, 0.00826366, -0.0021219, -0.0396883, -0.0661919, -0.0696181, 0.0357702, -0.0373275, -0.01605, -0.0715954, -0.00731585, -0.0363285, 0.026},
    {0.0188482, -0.199692, 0.0134191, -0.018903, -0.0799709, -0.035128, 0.050858, -0.000658772, 0.00335435, 0.00572637, 2.61531e-38, 0.0420184, -0.00419495, 0.0112093, 0.00873905, 0.00564736, 0.00589143, -0.0715983, -0.0402439, 0.0110138, 0.0131918, 0.0217368, 0.116834, -0.00732571, 0.0439162, 0.0542265, -0.0983689, -0.0188211, 0.0213425, 0.0384896, -0.0591751, -1.65002e-38, -0.0363902, -0.00223775, 0.0440939, 0.044224, 0.046525, 0.0179373, 0.0143403, -0.19001, -0.0684001, -0.0685366, 0.0357065, 0.0567574, -0.0603229},
    {0.0288386, 0.0333802, 0.0681127, 0.060027, 0.0584403, 0.0617714, 0.0119625, 0.0547234, -0.0346832, 0.0055575, -4.83124e-38, 0.0882374, 0.0510105, 0.00678286, 0.0125965, 0.00217229, 0.105493, 0.0103865, 0.00866602, -0.0507755, 0.00301733, 0.0081917, 0.0361408, 0.00757327, 0.0313254, -0.0283025, -2.29522e-05, -0.0382225, 0.0788145, -0.0173301, 0.0217455, 4.94847e-39, 0.0856579, 0.0112986, 0.00768059, 0.0473575, -0.0154155, -0.0157222, 0.00832287, 0.0608507, 0.019752, 0.00872887, 0.0362006, -0.0451603, -0.119138},
    {-0.0192158, 0.0762118, 0.0181642, -0.0287694, 0.0293007, 0.0204389, -0.065517, 0.0233949, -0.00555134, 0.00905199, 4.59625e-38, 0.00894558, 0.0109978, 0.0331261, 0.00409576, 0.00601768, 0.00288583, 0.0227671, 0.0150157, 0.0282769, -0.0100696, -0.0165369, -0.0213356, 0.00315796, -0.0101239, -0.0240408, 0.0350853, -0.00310399, 0.0426241, -0.00437161, 0.013099, 1.03386e-38, 0.0422103, -0.00161582, -0.0102224, 0.0211459, 0.00544662, -0.0145322, -0.0113981, 0.0610254, 0.0302262, 0.0475845, -0.039102, -0.0408706, -0.0172072},
    {-0.073604, 0.0709348, -0.063224, -0.0354289, 0.0251253, -0.0663055, -0.0298347, 0.00874868, -0.00766366, 0.0442874, -3.81661e-38, 0.112543, -0.0791602, 0.138013, -0.0349248, 0.033073, 0.0870802, -0.0806726, -0.0196352, 0.0294577, -0.0249846, 0.0056409, -0.0121009, 0.0150713, -0.0647302, 0.0422167, -0.0203768, -0.022014, 0.0744942, 0.00962891, -0.133505, -1.05338e-38, 0.082124, -0.00389869, -0.0287196, 0.12735, 0.0956104, -0.00842141, -0.0472608, 0.106982, 0.0516827, -0.0931317, -0.0720431, -0.0197171, -0.0776844},
    {0.0349557, -0.0262244, -0.0720564, 0.0586291, -0.0154022, -0.0385731, 0.0441151, -0.0731112, 0.0369976, 0.00861856, -4.19129e-38, -0.0192016, -0.0288185, -0.0437981, 0.040496, 0.00865888, -0.0787834, -0.0100259, -0.0422669, 0.00176485, 0.0112467, 0.00282019, 0.0771665, -0.0131137, -0.111013, 0.0877784, 0.0325849, 0.0546383, 0.081955, 0.0754222, -0.0362257, -3.10256e-38, -0.0205362, -0.00387234, 0.0191297, 0.0497178, 0.0763114, 0.0710212, 0.0138979, -0.0308061, -0.0281294, -0.0171478, 0.0402043, 0.0789872, 0.0516746},
    {0.0399088, 0.10485, -6.60773e-05, 0.033446, 0.0638818, 0.0466437, -0.061357, -0.00830493, 0.0431723, 0.00645577, -5.31735e-38, -0.0685998, 0.055505, 0.0999716, -0.020766, 0.00292664, -0.0273829, 0.0693391, 0.0489999, -0.0514524, -0.0161265, -0.00989415, 0.0107702, 0.00417198, -0.01945, -0.0459478, 0.0634911, -0.0367483, -0.00913179, -0.0293456, 0.0559054, -2.02133e-38, 0.00698097, -0.00437513, 0.0239668, 0.0215117, 0.00112292, 0.00621033, -0.0176761, 0.103236, 0.0266147, 0.0508101, 0.0450039, -0.00499936, -0.0393405},
    {0.0116767, -0.103794, 0.0102549, -0.0203619, -0.0627166, 0.00341887, 0.0471343, 0.0240617, 0.14298, 0.0259641, -3.5408e-38, 0.0389799, 0.0743221, 0.0423873, 0.0282014, 0.0180215, 0.00628595, 0.0238919, 0.0605012, 0.0352669, 0.0103466, 0.0089269, 0.0131221, -0.00287918, 0.0691505, 0.114842, -0.0401391, 0.0360113, 0.0208175, 0.0682142, 0.0252672, -6.61322e-38, -0.0285855, -0.00198619, 0.102558, 0.0906725, 0.0812127, 0.0374645, 0.0130239, -0.070265, 0.0249823, 0.0472284, 0.030273, 0.130644, 0.10355},
    {-0.0186475, 0.0308234, 0.0146735, -0.0633801, 0.0126296, 0.00943206, 0.0156996, 0.0261684, 0.0407081, 0.0132563, -3.69332e-38, 0.0347725, -0.00379826, 0.0358354, 0.0442869, 0.00879241, 0.00679624, 0.0362739, 0.0325135, 0.0211184, 0.00739452, 0.00741109, -0.0301332, 0.00913391, 0.0224629, 0.0498287, 0.0286982, 0.0470872, 0.0432364, 0.0436061, 0.0398113, -3.18885e-38, 0.0359081, 0.00199783, 0.0082638, 0.0255047, 0.0253923, 0.0106668, 0.00945931, 0.0151675, 0.00906591, 0.0103848, -0.023535, 0.0281188, 0.0207983},
    {-0.0140388, 0.0440542, -0.0857475, -0.121975, 0.00472185, -0.0654249, -0.0609864, -0.0390288, 0.129618, 0.0294263, -4.69139e-38, -0.0712464, -0.0551198, 0.10065, 0.00616938, 0.0231024, -0.0656178, 0.0111037, -0.0137608, -0.00497311, -0.0193599, -0.00946651, 0.0555001, 0.00134028, -0.121459, 0.048204, 0.0835459, -0.0154543, 0.0626279, 0.0579719, -0.0582138, -7.95517e-39, 0.00402336, -0.00970231, -0.0151409, 0.0680949, 0.105463, 0.094705, -0.0319713, -0.00325956, 0.0213244, -0.0329042, -0.0326917, 0.0380756, 0.0264069},
    {0.0453396, 0.0235251, 0.0645564, 0.0112098, 0.00431621, 0.0690706, -0.0187148, 0.0371414, 0.00792043, -0.0031031, -4.88559e-38, -0.0165185, 0.0996528, 0.0316733, 0.0123571, -0.00404877, -0.0210815, 0.0642602, 0.0635784, 0.0104892, 0.00656944, 0.00367092, -0.0164439, -0.00303202, 0.0705272, -0.0102641, -0.00693404, 0.0222516, -0.0121873, -0.00520499, 0.0916723, -4.08449e-38, -0.0130793, -0.00694632, 0.0642044, 0.00320344, -0.0192597, -0.00929922, 0.0175318, 0.0510978, 0.013663, 0.0794846, 0.111097, 0.0300654, 0.0262655},
    {-0.076806, 0.0105754, 0.0224377, -0.0638323, 0.00429436, 0.00240497, -0.0330128, 0.0440619, -0.00281475, 0.0156167, -5.9543e-38, 0.052928, 0.0183304, 0.0593188, -0.0496676, 0.00978782, 0.0956394, -0.00342227, 0.0516495, -0.00627197, -0.0228515, -0.0174389, -0.0267024, -0.000160349, 0.0483747, -0.046674, -0.0280296, -0.108023, -0.0393043, -0.0471059, -0.0330102, -1.4324e-38, 0.0381363, 0.00131998, -0.0163406, 0.032853, 0.000861754, -0.0488593, -0.0352365, 0.0466978, 0.0549857, 0.113712, -0.0628075, -0.0737279, -0.0992106},
    {0.0161886, 0.00985038, -0.0102804, 0.0417372, 0.00397042, 0.0105738, -0.00873472, -0.0186558, -0.0230117, 1.43763e-05, -4.14555e-38, 0.00143575, 0.0346963, 0.0131236, -0.0190958, -0.000171088, 0.00920903, -0.00307983, 0.00592364, -0.014029, -0.00320743, -0.00208902, -0.00811947, -0.00489011, 0.0101644, -0.0188244, 0.00552897, -0.0212066, -0.00951108, -0.0197133, -0.00380203, -3.80268e-38, -0.00788066, 0.00211131, 0.0222521, 0.0168618, -0.000886163, -0.000199187, -0.0040142, 0.0218058, 0.0084429, 0.00929536, 0.0200722, 0.00327248, -0.0210336},
    {0.0845436, 0.0497785, 0.0906295, 0.0968674, 0.0271887, 0.0750896, 0.0779778, 0.065232, 0.0578707, -0.023159, -5.99914e-38, -0.0195679, 0.0412076, -0.0295801, 0.0733503, -0.0159358, -0.0111936, 0.0715807, 0.00271759, -0.000823058, 0.0269727, 0.01871, -0.0830269, 0.00879694, 0.0845819, 0.00138015, 0.0236421, 0.10633, 0.0320988, 0.0292682, 0.133246, 5.76525e-40, 0.00698902, -0.0211661, 0.0119429, -0.0743118, -0.0554828, -0.0157353, 0.0505267, 0.00762175, -0.0345547, -0.0140518, 0.0931039, 0.0148453, 0.142868},
    {-0.00152997, -0.01047, -0.0321113, 0.00662911, -0.0165635, -0.0380192, 0.0323662, -0.00770743, 0.0112852, 0.0185811, -3.11175e-38, 0.0458385, -0.0299332, 0.0664545, 0.00214455, 0.0144917, 0.021145, -0.0446368, -0.0403202, -0.0090955, -0.00312189, 0.00888299, 0.03731, 0.00841716, -0.0353587, 0.0463287, 3.02367e-05, 0.00699055, 0.0590007, 0.0270044, -0.0664167, 9.46862e-39, 0.0258506, -0.00246867, 0.00243863, 0.0651146, 0.0559201, 0.0322518, -0.0100636, -0.0310702, -0.00192803, -0.0951299, 0.00122909, 0.0202854, -0.0414203},
};

float layer_1_bias[NUM_NEURONS] = {0.0070767, 0.0749571, 0.0228444, 0.0605741, 0.0992388, 0.0863442, 0.0176024, -0.00883588, -0.0414536, 0.030356, -2.61822e-38, 0.1471, 0.0919871, -0.104063, 0.0746873, 0.0179806, 0.090496, 0.0686132, 0.112924, 0.021378, 0.0179204, -0.00833466, -0.0817301, 0.00101582, 0.0632775, 0.0852073, 0.0228151, 0.125688, 0.116522, 0.0679376, 0.0966909, -1.90495e-38, 0.0977581, 0.0280723, 0.0914964, 0.129198, 0.0506229, 0.0260357, 0.0259283, 0.0704789, 0.064611, 0.138229, -0.0885304, 0.0973539, 0.11848};

float layer_2_weight[NUM_NEURONS][nkoop] = {
    {0.00962738, 0.00864257, 0.0856533, -0.0162763, -0.0195598, -0.0881258, -0.0156709, -0.018593, -0.0266182, -0.0056206, -0.0334067, -0.0319479, 0.0375111, 0.000811933, 0.0141537, -0.0156641, -0.0423031, 0.0360137, 0.0749713, -0.0198999, -0.0459213, -0.0256838, -0.00212441, 0.0281665, 0.00524178, -0.0707972, 0.0891106, 0.026378, -0.0209905, 0.0340382, -0.0694445, -0.0139688, 0.0139532, 0.0682546, 0.0207813, 0.0702357, 0.0223972, -0.0355564, -0.0163021, -0.046432},
    {-0.0208123, -0.0144644, 0.0512527, -0.0101214, 0.108394, -0.0334872, 0.0325929, 0.196782, 0.00514554, 0.233897, -0.0737459, 0.0429135, -0.00756311, -0.017651, -0.0340308, 0.0270131, -0.0415515, -0.0309674, -0.0406128, -0.0600163, -0.109916, -0.157592, -0.0162742, 0.0456331, -0.0391677, 0.147539, -0.0183338, -0.000176765, 0.00334924, 0.00349478, 0.0403395, -0.0757068, 0.102994, -0.0337044, 0.0466636, -0.0357429, -0.0204253, -0.0912211, -0.103876, -0.0104641},
    {-0.0245288, 0.0114155, -0.0124503, -0.0168676, 0.0573088, -0.105381, -0.0671255, 0.0383345, -0.00707356, 0.0504413, -0.0275514, -0.00291022, 0.0628858, -0.00326457, 0.00501075, -0.0177908, -0.0268109, -0.0193167, 0.062534, -0.0284195, -0.0822383, -0.0764545, 0.0012652, 0.0320196, 0.0462433, -0.0362989, 0.0590892, 0.0261477, -0.0874221, -0.0388289, -0.0817687, -0.0121489, 0.0259213, -0.0124952, 0.0559265, 0.0977602, 0.0521413, -0.0685166, -0.111398, -0.0593428},
    {0.0901092, -0.0117457, 0.110143, -0.0459451, 0.016817, -0.0847695, -0.152787, -0.0460658, -0.0128989, -0.00417095, -0.0645329, -0.0518696, 0.198779, 0.0279702, 0.098198, 0.0356685, 0.0896755, 0.0174366, 0.0693183, 0.0455985, -0.0339275, 0.00874277, 0.0799664, 0.058289, 0.0479482, -0.0332255, 0.109385, 0.016591, -0.0151363, -0.0259613, -0.146029, 0.0102987, 0.0136148, 0.00890944, -0.00942795, 0.094338, 0.00709316, -0.0107493, -0.0825111, -0.070893},
    {-0.0141263, -0.0407877, 0.0605415, 0.00642886, 0.0686738, -0.0102983, -0.0167744, 0.0916568, 0.00594395, 0.126963, -0.0542723, -0.00166042, 0.012191, 0.0063125, 0.00815503, 0.0177887, -0.0125279, -0.0697538, -0.0101843, -0.0224451, -0.0537512, -0.0452154, 0.000189899, 0.0285699, -0.0340532, 0.0789434, -0.0135934, 0.0136306, -0.00154263, -0.0116564, 0.0301054, -0.0479363, 0.0655024, -0.000920996, 0.020445, -0.00111843, -0.0204015, -0.0605845, -0.0540053, -0.031835},
    {-0.0131533, -0.0176211, 0.0305715, 0.0167667, 0.0144104, -0.0657221, -0.0597291, 0.0493971, -0.00458554, 0.0586041, -0.0370686, -0.0398915, 0.046654, 0.0234264, 0.00939842, -0.0197645, -0.0111469, -0.0231033, 0.0610905, -0.00921904, -0.0611159, -0.0615045, 0.0177542, 0.0422113, -0.00101171, 0.00980172, 0.0243702, 0.020697, -0.0668476, -0.0355171, -0.0518461, -0.0428473, 0.0329989, 0.00115389, 0.0430225, 0.0652537, 0.0231, -0.0943518, -0.0625599, -0.0595463},
    {0.0663634, 0.0441546, -0.0655866, -0.0236566, -0.0513434, -0.0320353, 0.0310745, -0.0520121, -0.00593723, -0.0893685, 0.0764046, -0.0412166, -0.0266264, 0.0172644, -0.0100055, -0.0426559, -0.037934, 0.0324808, -0.00786801, -0.0391418, -0.029441, 0.0099119, -0.0103515, 0.00899305, 0.0449543, -0.0771094, 0.0275831, -0.0296998, -0.0155463, 0.0469943, -0.0219629, 0.020112, -0.0561078, -0.0147931, -0.0136982, 0.0760322, 0.0415033, -0.0169191, -0.0302733, -0.00675336},
    {-0.0147134, 0.0237491, -0.0326584, -0.0197676, 0.0663558, -0.0581582, -0.0443872, 0.0480207, -0.00927337, 0.0563932, -0.0221881, -0.00101721, 0.0438013, -0.0369284, -0.0302537, 0.00319205, -0.0115657, -0.0270873, 0.0243131, -0.0202935, -0.0618573, -0.0737353, -0.0144969, 0.0370594, 0.0393271, -0.00729548, 0.0529107, 0.0217126, -0.0516956, -0.0302512, -0.0501819, -0.016553, 0.0055545, -0.0394524, 0.0339187, 0.0524526, 0.0369095, -0.0499212, -0.109556, -0.0215406},
    {0.0604111, 0.0725174, 0.0142706, -0.0241761, -0.136723, 0.0238337, 0.0945731, 0.023271, -0.0189565, -0.039068, 0.0564235, -0.142574, -0.0468207, -0.0504998, -0.120692, -0.0157553, -0.0469963, 0.0491129, 0.0108951, -0.0644334, 0.0227704, -0.0195131, -0.0700038, 0.057541, -0.0115067, -0.0580027, 0.077078, -0.0256261, 0.0279719, 0.13392, 0.0362862, -0.0737215, -0.0471078, 0.0152379, -0.0188597, -0.0412308, -0.0284819, -0.0605489, 0.00497513, 0.0591655},
    {0.00398971, 0.00461901, -0.00243257, -0.00185274, -0.00372123, 0.0439851, 0.00848683, -0.00301775, 0.00268985, -0.00336751, 0.00194848, -0.0436277, -0.0106047, -0.028253, -0.0246359, 0.0189575, 0.0235977, -0.0296075, -0.0166567, 0.0110209, 0.0261642, 0.0213632, -0.010057, 0.0199206, -0.0213859, 0.0149829, 0.00153304, 0.0109682, 0.0179476, 0.00317586, 0.0308495, -0.016795, -0.0114661, -0.0102768, -0.0142129, -0.0223341, -0.0041999, -0.00940437, 0.00341244, 0.0156387},
    {4.46015e-38, 2.62075e-38, 1.54622e-38, -5.24414e-38, 1.60362e-38, -2.65345e-38, -3.07572e-38, -1.5915e-38, -7.2777e-39, -5.02775e-38, 3.27096e-38, -1.44392e-38, 1.89781e-38, 6.15962e-38, -4.19633e-38, 2.66464e-38, -3.59655e-38, -1.22227e-38, -1.47613e-38, 3.42991e-38, 1.64979e-38, 7.62244e-39, -6.04242e-38, 5.56295e-38, 6.786e-38, -9.52705e-40, 2.35555e-38, 9.21733e-39, 5.80579e-38, 1.97493e-38, -4.31541e-38, 1.33766e-38, -6.16303e-38, 4.95891e-38, -5.27659e-38, -4.04416e-38, 7.53333e-39, 1.82334e-38, -5.94844e-38, 4.74716e-38},
    {0.0387652, 0.00455616, -0.0832352, -0.0439662, 0.0730598, 0.0607404, -0.0597683, -0.0579857, -0.00356248, -0.0404026, 0.0123803, -0.112003, 0.0427911, -0.0778967, -0.0243903, 0.0530553, 0.0935886, -0.102875, -0.0387656, 0.0698977, 0.0222671, 0.0370069, 0.00282516, 0.0877246, 0.00154304, 0.00831234, 0.0492728, 0.0770094, 0.0055914, -0.0565057, 0.00460791, -0.0175398, -0.049757, -0.0900128, -0.0297155, 0.0654812, 0.0712371, -0.0386696, -0.108687, -0.0094983},
    {-0.022046, -0.0151129, 0.0318564, 0.00115381, -0.102429, -0.0150797, -0.119134, -0.0324014, 0.00699254, -0.0190256, -0.0138414, -0.137998, 0.149368, 0.0246706, -0.000898703, -0.00752409, 0.0838382, 0.00880357, 0.138251, 0.0655349, 0.0418744, -0.015607, 0.0138432, 0.0424512, -0.000656239, -0.0160319, 0.028227, 0.0235844, -0.097385, -0.0571562, -0.0577244, -0.0296718, 0.0104455, -0.0129324, 0.0577709, -0.0014268, -0.0168407, -0.0755458, 0.00193617, -0.010813},
    {-0.084206, -0.0290138, 0.00197722, 0.0378271, -0.00157284, 0.0987756, -0.00435991, 0.109821, 0.0248844, 0.117042, -0.0268089, -0.00692223, -0.00610119, -0.0490964, -0.0957797, 0.0311134, 0.00872374, -0.0536181, 0.0148461, -0.0185851, 0.0412083, -0.0353054, -0.050036, -0.0072502, -0.0240622, 0.112335, -0.0483815, 0.00232143, 0.00380207, -0.0467121, 0.0959955, -0.0770643, 0.00480833, -0.0554326, 0.0350034, -0.131694, -0.0775552, -0.0296406, -0.0266914, 0.0604132},
    {-0.0135071, 0.0148115, -0.0271298, 0.0209965, 0.0287003, -0.0535421, 0.0865279, 0.0343797, -0.00962625, -0.0110028, 0.0277547, -0.0217771, -0.121741, -0.018845, -0.0391899, -0.0344062, -0.0984782, -0.0505006, -0.0180233, -0.0811809, -0.0706751, 0.000980142, -0.0205642, 0.0311525, -0.0200606, -0.0589253, 0.0213545, 0.0159241, -0.0167501, 0.042258, 0.00306168, -0.0472335, -0.025458, 0.0438081, -0.00326002, 0.101281, 0.0649278, -0.0824945, -0.0391947, -0.0452682},
    {0.00411428, 0.00373461, -0.0010388, -0.000887936, -0.00275074, 0.0318961, 0.00850057, -0.00378691, 0.0023102, -0.00422016, 0.00229208, -0.0288188, -0.00959145, -0.0208243, -0.0176344, 0.0136699, 0.0154091, -0.0202925, -0.0140134, 0.00620716, 0.018907, 0.017289, -0.00729443, 0.01295, -0.0143893, 0.00970176, 0.00117896, 0.00629877, 0.0158422, 0.00403508, 0.0229329, -0.0107231, -0.0101619, -0.00645435, -0.0118361, -0.0167563, -0.00434852, -0.00396585, 0.0036214, 0.0124843},
    {0.0296284, 0.0138458, -0.0185014, -0.0564069, 0.076006, 0.020186, -0.139763, -0.0352535, -0.0123075, 0.0361723, -0.0503264, -0.0680031, 0.169971, -0.0509642, 0.0172274, 0.0647072, 0.133605, -0.0486692, 0.0205666, 0.0959786, -0.000178664, -0.0281876, 0.0191688, 0.0623016, 0.0328316, 0.0508254, 0.0643063, 0.0646226, -0.0255447, -0.0954833, -0.055702, 0.0187765, 0.01274, -0.099583, 0.0171403, 0.0300715, 0.0346699, -0.0106671, -0.116596, -0.0159736},
    {-0.0669575, -0.00133477, 0.00930811, 0.032206, -0.0165728, -0.0552142, 0.0152271, 0.101869, -0.00286364, 0.0652411, -0.0128717, -0.025647, -0.0389755, 0.0207319, -0.0343292, -0.0381695, -0.0595493, -0.0165894, 0.0446982, -0.0539424, -0.0480722, -0.0599149, -0.0155278, 0.0140554, -0.0396867, 0.00176344, -0.0221285, -0.00221929, -0.072619, 0.00618412, -0.00271893, -0.0655397, 0.0428606, 0.0338508, 0.0515781, 0.0182189, 0.0156769, -0.107463, -0.00551933, -0.0372327},
    {-0.0579685, -0.0254286, -0.0326175, 0.0250063, -0.049565, 0.0324931, -0.0473349, 0.0346392, 0.00888573, 0.00589184, 0.00532715, -0.090633, 0.0258688, 0.00668921, -0.0329399, 0.000138353, 0.0552448, -0.0388185, 0.0498439, 0.0454443, 0.0536879, -0.00623992, 0.00579553, 0.0322691, -0.042106, 0.0264519, -0.0419808, 0.0233764, -0.0696284, -0.054477, 0.0096409, -0.061863, 0.0111713, -0.0303494, 0.0342414, -0.0237617, 0.00197976, -0.0815092, 0.0123477, -0.000302832},
    {-0.00224174, 0.0145012, -0.054914, 0.0723457, 0.0291952, -0.0270353, 0.0767794, -0.0438524, -0.00291792, -0.0972433, 0.0418593, 0.0336796, -0.100469, -0.0271559, -0.0468259, -0.0202898, -0.0741906, -0.0370638, -0.00480657, -0.041285, -0.0297128, 0.0451509, -0.00469848, -0.018331, 0.0219633, -0.0572567, 0.00990525, 0.00329796, 0.00832681, 0.00346985, -0.0375254, -0.0191939, -0.111714, 0.0215901, -0.0377777, 0.0917795, 0.0328836, -0.00582691, -0.0463205, -0.00842612},
    {-0.00159429, 0.00438479, -0.0126951, 0.00237874, -0.00129518, -0.0258246, 0.0105033, -0.0105, -0.0038014, -0.0225906, 0.0131062, -0.00776306, -0.0169657, 0.0012197, -0.00096547, -0.0146148, -0.0215155, -0.00373094, 0.00935408, -0.0142431, -0.016148, 0.00433976, 0.000531161, 0.00642337, 0.00589526, -0.03306, 0.0129292, 0.00720148, -0.0147633, 0.00588511, -0.0159732, -0.00477269, -0.0119558, 0.0120118, 0.00226281, 0.0421335, 0.0243333, -0.0180347, -0.0115967, -0.0179095},
    {0.0201546, 0.0178281, -0.00726264, -0.015121, -0.00666464, -0.00715924, 0.000215253, -0.0198097, -0.00475245, -0.0199478, 0.00934931, -0.0168014, 0.00237822, -0.00543286, -0.000886847, -0.00408856, -0.0059505, 0.00559059, -0.00142191, -0.00472271, -0.00826839, -0.0015058, -0.0101724, 0.00971891, 0.0107946, -0.0211694, 0.019254, -0.00106995, -0.00211778, 0.014468, -0.00598893, 0.0124791, -0.00920357, 0.000538598, -0.00670407, 0.0153541, 0.0129046, 0.00213131, -0.00727407, 0.0010066},
    {0.0657236, -0.0352247, 0.0898212, -0.0168808, -0.0506164, 0.0235121, -0.00355284, -0.101189, 0.0119719, -0.0852468, -0.00428932, -0.0767245, 0.0135454, 0.00630785, 0.040205, 0.00880067, -0.0136704, -0.0447434, 0.0164962, -0.0101257, 0.0295718, 0.132051, -0.023812, 0.0124076, 0.019444, -0.0789756, 0.0581217, 0.0182013, 0.036488, 0.0523294, 0.0151938, 0.0426697, -0.0289336, 0.0732016, -0.0500488, 0.0471702, -0.0369895, 0.0589041, 0.044723, -0.00360019},
    {0.00364495, 0.0096038, -0.00711217, -0.0100322, 0.0187406, -0.00260203, 0.00890973, 0.0153199, 0.00131824, 0.0169921, 0.000138078, 0.00242906, -0.00875309, -0.0136523, -0.0115146, 2.35537e-05, -0.00778271, -0.00794126, -0.0134996, -0.0157753, -0.0140159, -0.0107563, -0.0106988, 0.0035336, 0.00495176, 0.00500634, 0.00701981, -0.00183259, 0.00348759, 0.00866112, 0.00837347, 7.00197e-05, 0.00248422, -0.0072941, 0.000185099, 0.000951522, 0.00580206, -0.00416289, -0.0200568, -0.000540702},
    {0.0581037, -0.055666, -0.0387236, -0.0195816, -0.0740871, -0.0421154, -0.171687, -0.0992172, 0.00393592, -0.10587, 0.0212356, -0.110701, 0.208488, 0.0601503, 0.0787441, 0.0214385, 0.114276, 0.0119263, 0.109312, 0.114262, 0.0197787, -0.016444, 0.0781619, 0.0675226, 0.0829701, -0.0403635, 0.0280438, 0.0186292, -0.102599, -0.1214, -0.127683, 0.0126991, -0.0519029, -0.0880969, 0.0212441, 0.102139, 0.0186996, -0.0135592, -0.0635295, 0.0250452},
    {0.0197216, 0.0220274, -0.0466245, 0.0243476, -0.0740336, 0.0708803, 0.0975231, -0.0656025, -0.00625338, -0.125599, 0.0835457, -0.111837, -0.117894, -0.0425586, -0.0669726, -0.0124727, -0.0180943, -0.0521935, -0.0293541, -0.0208214, 0.0564712, 0.108488, -0.0298325, 0.0300384, -0.0351974, -0.074537, 0.00452212, 0.0127595, 0.0311185, 0.06211, 0.0570095, -0.035129, -0.094344, 0.0290918, -0.0541491, 0.0277055, 0.0259137, -0.0363225, 0.0450588, 0.0220608},
    {-0.033649, 0.0251157, 0.0521608, -0.00850738, 0.0442719, -0.0283593, 0.0706454, 0.111403, -0.0218382, 0.101128, -0.0407742, 0.0293635, -0.0628112, -0.0230324, -0.0271969, 0.0099389, -0.0625884, 0.0104855, -0.0278322, -0.0488727, -0.0602445, -0.0786638, -0.023755, 0.00772213, -0.0627017, 0.0276706, 0.00267572, 0.004504, 0.0202982, 0.0557289, 0.0250626, -0.0511751, 0.0578597, 0.0460158, 0.0216849, -0.0223341, 0.0111342, -0.0526352, -0.00314188, -0.00812243},
    {-0.0033086, 0.00799705, -0.0267764, 0.0866776, -0.00715167, -0.0476288, 0.141529, 0.038789, -0.000889997, -0.0459355, 0.0642181, -0.0117886, -0.218268, 0.00996315, -0.0534698, -0.0782989, -0.165036, -0.0597281, -0.0412281, -0.132116, -0.0842468, 0.029766, -0.0213569, 0.00280771, -0.0379041, -0.0609043, -0.0316562, -0.0270246, -0.00587719, 0.0832384, 0.0387255, -0.0607088, -0.063421, 0.0805616, -0.0289028, 0.113296, 0.0467954, -0.112487, -0.000958552, -0.0524641},
    {0.0570142, 0.0237066, 0.0508022, 0.0219274, 0.102798, 0.018858, 0.0976606, 0.0224615, -0.00597227, 0.0358723, -0.0248119, -0.0717841, -0.120471, -0.0911471, -0.0574481, 0.0254183, -0.0698321, -0.130624, -0.0829346, -0.0788556, -0.0855912, 0.0472956, -0.0266728, 0.0803058, -0.0470541, 0.00102051, 0.0735939, 0.0449721, 0.0819127, 0.0638493, 0.0484541, -0.0633853, -0.0481852, 0.0430031, -0.0587597, 0.0875601, 0.0396696, -0.0833724, -0.0827888, -0.042976},
    {0.00196184, 0.025198, -0.0291436, 0.0267651, -0.0103852, 0.0131901, 0.11279, -0.00530207, -0.0040081, -0.0564276, 0.0486731, -0.0605471, -0.138638, -0.0425581, -0.0618072, -0.0166306, -0.0686194, -0.0584239, -0.0374867, -0.0629698, -0.0133709, 0.0577664, -0.0299725, 0.0281236, -0.0363028, -0.0601486, 0.0137448, 0.0119886, 0.0217783, 0.0613406, 0.041185, -0.0455035, -0.0608251, 0.0452115, -0.034467, 0.0553494, 0.0404579, -0.0569577, 0.0053474, -0.00668117},
    {-0.0753844, -0.00258684, -0.0182575, 0.0213169, -0.0227091, -0.120426, -0.0109251, 0.0963153, -0.00305452, 0.0509004, 0.00257636, -0.032817, -0.0230158, 0.0476035, -0.0166254, -0.0689554, -0.0811393, -0.00512293, 0.0851789, -0.0654115, -0.0787661, -0.0888162, -0.00613877, 0.0249827, -0.0107918, -0.0440736, -0.00270176, 0.00317677, -0.130641, -0.0112918, -0.0471651, -0.0654713, 0.0486685, 0.0304247, 0.0810693, 0.0888731, 0.057631, -0.139212, -0.0400288, -0.070824},
    {-6.0445e-38, 4.01317e-38, -1.05988e-38, 4.86508e-38, 3.24824e-38, -2.25807e-38, -5.53411e-38, -4.75344e-38, -5.52194e-38, 2.17008e-40, -3.50974e-38, 3.93731e-38, -1.33767e-38, 3.04102e-38, 1.8626e-38, -3.49386e-38, -4.01478e-39, 2.89104e-38, 6.1956e-38, -5.02667e-38, 4.27971e-38, -6.67951e-38, 4.0907e-38, -1.11462e-38, -4.11593e-38, -2.72986e-38, -5.16186e-38, -4.54672e-38, -2.56466e-39, -6.68365e-38, -5.50447e-38, -3.74255e-38, 6.06583e-38, -5.54344e-38, 1.66076e-38, 7.5022e-39, 2.93169e-38, -2.12599e-38, 3.0069e-38, -6.1643e-38},
    {0.00916062, 0.00643342, 0.00104834, -0.016278, 0.113904, 0.00917511, 0.00467274, 0.067568, -0.00792497, 0.0927089, -0.0430256, -0.0269405, -0.0206779, -0.0584621, -0.0360472, 0.0357151, -0.0102449, -0.099605, -0.0540863, -0.0200327, -0.06243, -0.0379147, -0.0256007, 0.060067, -0.0271215, 0.0593861, 0.0275725, 0.0414752, 0.0203174, -6.67296e-05, 0.0311833, -0.0440129, 0.0181773, -0.0275247, -0.00777302, 0.031603, 0.027631, -0.0634869, -0.102283, -0.024632},
    {0.00337912, -0.0130462, 0.0130074, -0.00104285, 0.000269544, 0.00425522, -0.0244318, -0.0105819, 0.00169496, -6.23956e-05, -0.00949986, -0.0148836, 0.0279485, 0.00574807, 0.0142112, 0.00726247, 0.0203825, -0.013595, 0.0127314, 0.0185468, 0.00524446, 0.00703179, 0.00701231, 0.011266, 0.00126181, 0.00519039, 0.0041132, 0.00907011, -0.00602702, -0.0160154, -0.00756397, 0.00194251, 0.00540921, -0.00406868, 0.00068685, 0.00554289, -0.00552451, -0.000282066, -0.00224375, -0.00402137},
    {-0.00267727, 0.00709398, 0.0210649, 0.0106344, -0.0993635, 0.0302146, -0.0432752, -0.0696331, 0.00522517, -0.0709528, 0.0159563, -0.154274, 0.057125, -0.0164535, -0.0293098, -0.000300842, 0.0584906, -0.025433, 0.0822481, 0.0442121, 0.0644532, 0.0527465, -0.00545903, 0.0411521, -0.020662, -0.0421462, 0.0335457, 0.028941, -0.0397356, -0.00893475, -0.0126554, -0.0326455, -0.0366325, 0.0146994, 0.0066271, 0.0025207, -0.00368877, -0.0576989, 0.0313501, 0.00340901},
    {0.0379588, 0.00907814, 0.0287708, -0.011184, -0.0117267, 0.142392, -0.0107022, -0.0625732, 0.00893877, -0.0291769, -0.00806635, -0.17638, 0.021473, -0.0969904, -0.0571758, 0.0727985, 0.105472, -0.103389, -0.0301321, 0.0619567, 0.0857231, 0.0980782, -0.0192507, 0.0773642, -0.0612477, 0.0333099, 0.0408456, 0.0552697, 0.0634396, 0.00199848, 0.0711247, -0.0414885, -0.0477508, -0.0218946, -0.0535491, -0.0450275, -0.0127625, -0.0313865, 0.00463738, 0.0347145},
    {0.0209314, 0.0179755, 0.00746291, 0.00946816, -0.0342718, 0.117675, 0.0664709, -0.0429329, 0.00920882, -0.0528408, 0.0268738, -0.10544, -0.063166, -0.0741753, -0.0659188, 0.0382648, 0.0315271, -0.0636634, -0.0471792, 0.00660769, 0.0726336, 0.098495, -0.0322652, 0.0292699, -0.052754, -0.000214364, 0.00887518, 0.0156658, 0.0715879, 0.0462279, 0.0851818, -0.031935, -0.0606057, 0.0130929, -0.0577475, -0.0514273, -0.0214747, -0.00568981, 0.0438145, 0.0485544},
    {0.0127167, 0.0166351, 0.029093, 0.0056744, -0.0357141, 0.0374374, 0.0777811, -0.0193535, 0.00983852, -0.0278167, 0.0268612, -0.0424876, -0.0698911, -0.0175146, -0.0246537, -0.00566501, -0.0302046, -0.0206132, -0.0262945, -0.0381102, 0.019363, 0.0657013, -0.0342262, -0.00303671, -0.0301715, -0.0309933, 0.00374519, -0.0099786, 0.038858, 0.0661599, 0.0574813, -0.0066868, -0.0196863, 0.0465832, -0.02462, -0.0151402, -0.0155159, 0.000304458, 0.0538327, 0.0123969},
    {-0.00244591, 0.00518954, -0.0112064, 0.00807801, -0.0013717, -0.0483442, 0.0125014, -0.00722876, -0.00575756, -0.0237832, 0.0143575, -0.00894093, -0.0221362, 0.00726241, 0.000398829, -0.0259328, -0.0389082, -0.00331009, 0.0200347, -0.0270146, -0.0346817, -0.00259565, 0.00213419, 0.0100735, 0.0105121, -0.0473125, 0.0206118, 0.00814007, -0.0272491, 0.00814676, -0.0300013, -0.00938171, -0.0140498, 0.0212163, 0.00781749, 0.0670766, 0.0343901, -0.0342632, -0.0215213, -0.0318303},
    {-0.043755, -0.0578929, 0.0652635, -0.0141969, 0.0764254, 0.00933783, -0.119576, 0.150109, -0.00537234, 0.197877, -0.105898, 0.00267742, 0.11952, -0.0149244, 0.00304038, 0.0585718, 0.0768622, -0.0139035, 0.0177594, 0.04487, -0.023723, -0.127855, 0.0265053, 0.0625871, -0.0489448, 0.151755, -0.023631, 0.0300386, -0.0306292, -0.0767644, -0.00245413, -0.0715903, 0.11089, -0.0588463, 0.04692, -0.069222, -0.0456339, -0.0780682, -0.0820214, -0.00294064},
    {-0.00611402, -0.00445679, 0.0239468, -0.00521257, 0.0226961, 0.0437604, -0.0546742, 0.0398506, 0.0126752, 0.0696767, -0.0434912, -0.0446396, 0.0622002, -0.0166274, -0.00711155, 0.0377926, 0.0747187, -0.0369456, -0.00336267, 0.0387189, 0.0159443, -0.0149996, 0.00594156, 0.0274103, -0.0269761, 0.0802029, -0.0142226, 0.007516, -0.00792062, -0.0375537, 0.0204191, -0.0173171, 0.0334291, -0.0391576, 0.01303, -0.054089, -0.0244991, -0.0263796, -0.0103803, 0.00773057},
    {-0.0815303, -0.0634909, -0.0740109, 0.067389, -0.0219598, 0.0729751, -0.0890485, 0.0734569, 0.0308465, 0.0462405, -0.0122728, -0.0572324, 0.0691491, 0.00205597, -0.0526018, 0.0194334, 0.104496, -0.0709959, 0.036388, 0.0891734, 0.0650509, -0.00365944, 0.0186522, 0.0132755, -0.0446878, 0.106833, -0.107071, 0.0170158, -0.0766318, -0.115911, 0.0166201, -0.0794391, 0.000484904, -0.0873214, 0.0356483, -0.0900147, -0.0524671, -0.0889503, -0.000848406, 0.034076},
    {0.00993827, -0.0627545, 0.104696, 0.0407364, -0.106567, -0.0545685, -0.0968034, -0.0805145, 0.00817703, -0.0810043, -0.0105639, -0.0604257, 0.090894, 0.0697706, 0.041642, -0.0333452, -0.0106552, 0.0389219, 0.144477, -0.0138801, 0.017255, 0.0617734, 0.0325297, 0.0116225, 0.0639766, -0.0862092, 0.0593162, 0.000374765, -0.0445651, -0.0199115, -0.0772757, -0.0121283, -0.0500077, 0.0513911, 0.0212315, 0.0822512, -0.0397767, -0.00025368, -0.00871578, -0.046773},
    {-0.00298204, 0.014922, -0.0108271, 0.0140727, -0.115701, 0.0407226, 0.0453178, -0.0815484, 0.00559144, -0.126222, 0.0667925, -0.148718, -0.0431219, -0.0220434, -0.0528102, -0.0160295, 0.0043487, -0.0352789, 0.0409645, 0.000356007, 0.0739976, 0.10356, -0.0290444, 0.0263323, -0.0303707, -0.0927099, 0.0216523, 0.0163132, -0.0143366, 0.0472852, 0.0293359, -0.0362204, -0.069109, 0.0453771, -0.0192189, 0.0193484, 0.0130095, -0.0473203, 0.0626704, 0.0151025},
    {-0.0300861, 0.0582067, -0.0165473, 0.00853575, -0.0947024, -0.0976776, 0.143094, 0.00748302, -0.0088773, -0.09971, 0.099048, -0.0584425, -0.185736, 0.0306927, -0.0325875, -0.0993178, -0.173453, 0.0125847, 0.0218711, -0.154338, -0.0517247, 0.0360259, -0.0311839, 0.00216715, -0.0185254, -0.178495, -0.00127708, -0.0236772, -0.06519, 0.115316, 0.0104437, -0.013843, -0.0271417, 0.128192, 0.0154353, 0.141864, 0.0883963, -0.0990881, 0.0413195, -0.057834},
};

float layer_2_bias[nkoop] = {-0.00598013, -0.00866356, -0.00609233, -0.0177722, 0.00522686, 0.00613059, -0.0162584, -0.0192503, 0.00278589, -0.0328287, 0.0286645, -0.316493, -0.0703062, 0.0422986, 0.0511228, 0.0309485, 0.0930032, -0.224318, -0.0391576, 0.0839456, -0.0219425, 0.0796187, 0.0551201, 0.164149, -0.213405, 0.0250404, -0.0487195, 0.109499, -0.0890421, -0.0517127, 0.0766296, -0.127973, 0.0476799, -0.014554, 0.0257915, 0.181891, 0.193149, -0.282237, -0.00594042, -0.122936};

